{"learner":{"attributes":{"scikit_learn":"{\"_estimator_type\": \"regressor\"}"},"feature_names":["PULocationID","DOLocationID"],"feature_types":["int","int"],"gradient_booster":{"model":{"gbtree_model_param":{"num_parallel_tree":"1","num_trees":"100"},"iteration_indptr":[0,1,2,3,4,5,6,7,8,9,10,11,12,13,14,15,16,17,18,19,20,21,22,23,24,25,26,27,28,29,30,31,32,33,34,35,36,37,38,39,40,41,42,43,44,45,46,47,48,49,50,51,52,53,54,55,56,57,58,59,60,61,62,63,64,65,66,67,68,69,70,71,72,73,74,75,76,77,78,79,80,81,82,83,84,85,86,87,88,89,90,91,92,93,94,95,96,97,98,99,100],"tree_info":[0,0,0,0,0,0,0,0,0,0,0,0,0,0,0,0,0,0,0,0,0,0,0,0,0,0,0,0,0,0,0,0,0,0,0,0,0,0,0,0,0,0,0,0,0,0,0,0,0,0,0,0,0,0,0,0,0,0,0,0,0,0,0,0,0,0,0,0,0,0,0,0,0,0,0,0,0,0,0,0,0,0,0,0,0,0,0,0,0,0,0,0,0,0,0,0,0,0,0,0],"trees":[{"base_weights":[-7.93662E-8,2.4560072E0,-1.1995573E0,4.403512E-1,7.166701E0,7.872738E-1,-2.0574472E0,1.024063E1,-5.2941805E-1,9.914049E0,3.508375E0,1.5584022E1,6.4604014E-1,-2.1092126E0,1.6152515E1,9.716735E0,2.3771498E2,-6.050818E-1,3.3208424E1,2.24048E1,9.593549E0,2.4736713E-1,4.608309E0,1.4545246E1,2.330058E1,-1.574824E-1,3.5042896E0,-2.1171365E0,6.971668E1,3.7844845E1,2.9962115E0,6.9498777E0,1.844058E1,1.9490123E2,4.5913614E2,2.1575811E1,-6.622295E-1,6.1729603E1,2.7933502E1,2.7261935E2,2.0667393E1,2.2757041E0,1.0509505E1,-9.240083E-1,2.335267E0,4.3919606E0,5.222553E0,1.617138E1,1.2569552E1,1.796802E1,1.0089664E1,2.2034347E0,-5.292378E-1,1.0807202E1,9.9979866E-1,-2.3367746E0,-1.2128569E0,4.7300034E1,1.4197913E2,1.5623406E1,8.35666E1,9.864759E0,-7.575249E-1,1.5806917E0,3.110867E0,4.7600665E0,1.205749E1,7.9719604E1,3.7612522E1,2.0227472E2,3.5311653E1,1.4998181E1,3.3860717E0,-7.160304E-2,-4.8260167E-1,1.857485E1,4.6269865E0,3.5552146E0,9.665971E1,7.1050534E0,-6.651047E-2,4.758123E-1,6.5977254E0,2.8018506E0,4.2107725E0,-1.3510635E-1,-1.1782761E0,6.850713E0,-1.2931469E-1,5.4837155E0,1.3119303E0,3.9521549E0,1.4415129E1,3.6876762E0,4.3356853E0,3.3640506E0,7.0640284E-1,9.7887546E-1,3.131564E-1,-2.0904844E-1,7.7350646E-1,1.2423427E0,4.5093555E0,-5.1261353E-1,5.676338E-1,-6.5610194E-1,-8.9459693E-1,-1.9479959E-1,-6.0181534E-1,4.0916584E1,7.6227756E0,4.4398367E2,-5.293389E-1,3.4858613E0,1.2176782E1,2.3637907E1,9.38419E1,3.1605933E0,2.5403945E0],"categories":[],"categories_nodes":[],"categories_segments":[],"categories_sizes":[],"default_left":[0,0,0,0,0,0,0,0,0,0,0,0,0,0,0,0,0,0,0,0,0,0,0,0,0,0,0,0,0,0,0,0,0,0,0,0,0,0,0,0,0,0,0,0,0,0,0,0,0,0,0,0,0,0,0,0,0,0,0,0,0,0,0,0,0,0,0,0,0,0,0,0,0,0,0,0,0,0,0,0,0,0,0,0,0,0,0,0,0,0,0,0,0,0,0,0,0,0,0,0,0,0,0,0,0,0,0,0,0,0,0,0,0,0,0,0,0,0,0],"id":0,"left_children":[1,3,5,7,9,11,13,15,17,19,21,23,25,27,29,31,33,35,37,39,41,43,45,47,49,51,53,55,57,59,61,63,65,67,69,71,73,-1,75,77,79,81,83,85,87,89,-1,91,93,-1,95,97,99,101,103,105,107,109,111,113,115,117,-1,-1,-1,-1,-1,-1,-1,-1,-1,-1,-1,-1,-1,-1,-1,-1,-1,-1,-1,-1,-1,-1,-1,-1,-1,-1,-1,-1,-1,-1,-1,-1,-1,-1,-1,-1,-1,-1,-1,-1,-1,-1,-1,-1,-1,-1,-1,-1,-1,-1,-1,-1,-1,-1,-1,-1,-1],"loss_changes":[9.70328E7,1.0262087E8,3.7716864E7,7.193609E7,3.2551184E7,1.394567E7,1.4568484E7,8.121853E7,1.7581928E7,7.404464E6,4.982404E6,5.054E5,1.5181256E7,8.771192E6,1.2502576E7,1.6412836E7,1.4755992E7,8.710964E6,1.4022624E7,2.0109952E7,1.208768E7,8.568705E5,2.876412E6,1.78457E5,3.6173455E6,4.5285225E6,2.6529658E7,3.060512E6,2.747083E6,1.6802368E7,1.0342305E6,2.967398E6,9.165112E6,6.4376E6,1.8502508E7,5.163068E6,2.7477185E6,0E0,6.357294E6,4.120476E6,2.89529E6,2.7279065E6,6.612704E6,3.192978E5,7.1408515E6,2.67444E5,0E0,2.9138985E6,1.293225E4,0E0,4.7784375E4,8.623455E5,2.3215865E6,1.0429664E7,2.6104025E6,1.19804E6,1.346014E6,2.5298692E6,7.7316904E7,1.112184E6,5.894384E6,1.1293375E4,0E0,0E0,0E0,0E0,0E0,0E0,0E0,0E0,0E0,0E0,0E0,0E0,0E0,0E0,0E0,0E0,0E0,0E0,0E0,0E0,0E0,0E0,0E0,0E0,0E0,0E0,0E0,0E0,0E0,0E0,0E0,0E0,0E0,0E0,0E0,0E0,0E0,0E0,0E0,0E0,0E0,0E0,0E0,0E0,0E0,0E0,0E0,0E0,0E0,0E0,0E0,0E0,0E0,0E0,0E0,0E0,0E0],"parents":[2147483647,0,0,1,1,2,2,3,3,4,4,5,5,6,6,7,7,8,8,9,9,10,10,11,11,12,12,13,13,14,14,15,15,16,16,17,17,18,18,19,19,20,20,21,21,22,22,23,23,24,24,25,25,26,26,27,27,28,28,29,29,30,30,31,31,32,32,33,33,34,34,35,35,36,36,38,38,39,39,40,40,41,41,42,42,43,43,44,44,45,45,47,47,48,48,50,50,51,51,52,52,53,53,54,54,55,55,56,56,57,57,58,58,59,59,60,60,61,61],"right_children":[2,4,6,8,10,12,14,16,18,20,22,24,26,28,30,32,34,36,38,40,42,44,46,48,50,52,54,56,58,60,62,64,66,68,70,72,74,-1,76,78,80,82,84,86,88,90,-1,92,94,-1,96,98,100,102,104,106,108,110,112,114,116,118,-1,-1,-1,-1,-1,-1,-1,-1,-1,-1,-1,-1,-1,-1,-1,-1,-1,-1,-1,-1,-1,-1,-1,-1,-1,-1,-1,-1,-1,-1,-1,-1,-1,-1,-1,-1,-1,-1,-1,-1,-1,-1,-1,-1,-1,-1,-1,-1,-1,-1,-1,-1,-1,-1,-1,-1,-1],"split_conditions":[1.4E2,1.16E2,1.41E2,4.3E1,1.37E2,4E0,2.65E2,2.65E2,2.65E2,1.25E2,1.38E2,2.39E2,1.25E2,2.65E2,2.29E2,3.8E1,3.8E1,4E0,4.8E1,1.2E1,1.32E2,1.81E2,2.65E2,1.86E2,2.46E2,4.3E1,1.37E2,2.38E2,2.49E2,1.86E2,2.65E2,2.4E1,2.39E2,1.3E1,4.2E1,5E1,1E2,6.1729603E1,6.8E1,4E0,2.39E2,2.56E2,2.29E2,1.64E2,1.95E2,4E0,5.222553E0,1.7E2,2.36E2,1.796802E1,2.65E2,2.24E2,2.61E2,1.32E2,1.38E2,2.36E2,2.36E2,1.66E2,2.55E2,1.66E2,2.24E2,2.46E2,-7.575249E-1,1.5806917E0,3.110867E0,4.7600665E0,1.205749E1,7.9719604E1,3.7612522E1,2.0227472E2,3.5311653E1,1.4998181E1,3.3860717E0,-7.160304E-2,-4.8260167E-1,1.857485E1,4.6269865E0,3.5552146E0,9.665971E1,7.1050534E0,-6.651047E-2,4.758123E-1,6.5977254E0,2.8018506E0,4.2107725E0,-1.3510635E-1,-1.1782761E0,6.850713E0,-1.2931469E-1,5.4837155E0,1.3119303E0,3.9521549E0,1.4415129E1,3.6876762E0,4.3356853E0,3.3640506E0,7.0640284E-1,9.7887546E-1,3.131564E-1,-2.0904844E-1,7.7350646E-1,1.2423427E0,4.5093555E0,-5.1261353E-1,5.676338E-1,-6.5610194E-1,-8.9459693E-1,-1.9479959E-1,-6.0181534E-1,4.0916584E1,7.6227756E0,4.4398367E2,-5.293389E-1,3.4858613E0,1.2176782E1,2.3637907E1,9.38419E1,3.1605933E0,2.5403945E0],"split_indices":[0,0,1,0,0,1,1,1,1,0,0,0,1,0,0,0,0,1,0,1,0,1,1,0,0,1,1,0,1,0,0,0,1,0,0,0,0,0,0,1,1,1,1,1,1,1,0,0,0,0,0,0,0,1,1,0,1,1,1,0,0,0,0,0,0,0,0,0,0,0,0,0,0,0,0,0,0,0,0,0,0,0,0,0,0,0,0,0,0,0,0,0,0,0,0,0,0,0,0,0,0,0,0,0,0,0,0,0,0,0,0,0,0,0,0,0,0,0,0],"split_type":[0,0,0,0,0,0,0,0,0,0,0,0,0,0,0,0,0,0,0,0,0,0,0,0,0,0,0,0,0,0,0,0,0,0,0,0,0,0,0,0,0,0,0,0,0,0,0,0,0,0,0,0,0,0,0,0,0,0,0,0,0,0,0,0,0,0,0,0,0,0,0,0,0,0,0,0,0,0,0,0,0,0,0,0,0,0,0,0,0,0,0,0,0,0,0,0,0,0,0,0,0,0,0,0,0,0,0,0,0,0,0,0,0,0,0,0,0,0,0],"sum_hessian":[3.2935776E7,1.0807728E7,2.2128048E7,7.569024E6,3.238704E6,6.673213E6,1.5454835E7,6.81538E5,6.887486E6,1.849646E6,1.389058E6,6.3092E4,6.610121E6,1.5411027E7,4.3808E4,6.79973E5,1.565E3,6.872075E6,1.5411E4,4.6271E4,1.803375E6,3.50354E5,1.038704E6,5.5609E4,7.483E3,5.159627E6,1.450494E6,1.5409328E7,1.699E3,1.6538E4,2.727E4,5.16243E5,1.6373E5,1.313E3,2.52E2,1.7659E4,6.854416E6,4.56E2,1.4955E4,3.18E2,4.5953E4,2.00614E5,1.602761E6,2.24438E5,1.25916E5,1.021441E6,1.7263E4,3.0499E4,2.511E4,1.984E3,5.499E3,7.0192E5,4.457707E6,3.70408E5,1.080086E6,1.2398007E7,3.011321E6,1.298E3,4.01E2,1.113E4,5.408E3,1.2152E4,1.5118E4,3.46116E5,1.70127E5,1.46408E5,1.7322E4,6.49E2,6.64E2,1.54E2,9.8E1,4.693E3,1.2966E4,4.735281E6,2.119135E6,4.023E3,1.0932E4,5.1E1,2.67E2,4.0155E4,5.798E3,1.93835E5,6.779E3,1.203472E6,3.99289E5,1.93867E5,3.0571E4,1.497E4,1.10946E5,1.384E3,1.020057E6,2.7879E4,2.62E3,2.1893E4,3.217E3,4.801E3,6.98E2,3.6679E5,3.3513E5,4.229608E6,2.28099E5,1.43673E5,2.26735E5,2.67654E5,8.12432E5,1.0062331E7,2.335676E6,1.760544E6,1.250777E6,2.55E2,1.043E3,3.8E1,3.63E2,9.593E3,1.537E3,5.299E3,1.09E2,8.206E3,3.946E3],"tree_param":{"num_deleted":"0","num_feature":"2","num_nodes":"119","size_leaf_vector":"1"}},{"base_weights":[3.9470877E-5,1.719262E0,-8.3965915E-1,3.08309E-1,5.0167336E0,6.9688696E-1,-1.4295434E0,7.1689935E0,-3.7057787E-1,6.9399E0,2.4558752E0,2.288725E-2,4.540928E0,-1.4645432E0,1.1309913E1,6.8017464E0,1.6662712E2,-4.235548E-1,2.3251406E1,1.56856785E1,6.715492E0,1.7317261E-1,3.2258277E0,1.0909582E1,-1.1023752E-1,7.5650573E0,2.4867923E0,-1.4699476E0,4.8546406E1,2.649944E1,2.0975294E0,4.8649235E0,1.2908509E1,1.3652016E2,3.2233435E2,1.5104108E1,-4.6356085E-1,4.325124E1,1.9555002E1,1.9114769E2,1.4467328E1,1.593028E0,7.356658E0,-6.581994E-1,1.6700716E0,3.074379E0,3.6558776E0,1.0182146E1,1.631335E1,1.5424058E0,-3.7046653E-1,2.8988082E0,1.0521849E1,-1.1961002E0,6.0368414E0,-1.6292627E0,-8.1601584E-1,2.1931631E1,9.16962E1,1.0937792E1,5.8518337E1,6.9058003E0,-5.3028244E-1,1.1064854E0,2.1776125E0,3.3320563E0,8.440452E0,5.5840515E1,2.6345734E1,1.419838E2,2.482516E1,1.0499684E1,2.3703282E0,-4.856914E-1,-4.9442597E-2,1.3003779E1,3.2390177E0,2.5091608E0,6.776999E1,-1.0648065E0,5.276177E0,1.7943689E-1,2.6416137E0,1.701751E0,2.5964537E0,4.3505067E-1,-3.1354746E-1,5.1365147E0,-9.05206E-2,3.8397887E0,9.183516E-1,3.3961706E0,2.639702E0,1.2580328E1,2.1190515E0,1.10311E0,3.6881626E-1,-1.13909915E-1,1.4816868E1,4.5090995E0,2.6529923E-1,2.6853127E0,6.188422E0,-4.6668944E-1,1.4632233E0,1.804819E0,2.2636833E1,-5.2002215E-1,-2.745904E-1,-5.0839657E-1,-1.5914243E-1,2.6529427E1,-4.8339006E-1,6.1933186E1,-3.7097347E-1,2.440212E0,8.526122E0,1.6547874E1,6.594527E1,1.9984877E0,3.295188E0],"categories":[],"categories_nodes":[],"categories_segments":[],"categories_sizes":[],"default_left":[0,0,0,0,0,0,0,0,0,0,0,0,0,0,0,0,0,0,0,0,0,0,0,0,0,0,0,0,0,0,0,0,0,0,0,0,0,0,0,0,0,0,0,0,0,0,0,0,0,0,0,0,0,0,0,0,0,0,0,0,0,0,0,0,0,0,0,0,0,0,0,0,0,0,0,0,0,0,0,0,0,0,0,0,0,0,0,0,0,0,0,0,0,0,0,0,0,0,0,0,0,0,0,0,0,0,0,0,0,0,0,0,0,0,0,0,0,0,0,0,0],"id":1,"left_children":[1,3,5,7,9,11,13,15,17,19,21,23,25,27,29,31,33,35,37,39,41,43,45,47,49,51,53,55,57,59,61,63,65,67,69,71,73,-1,75,77,79,81,83,85,87,89,-1,91,93,95,97,99,101,103,105,107,109,111,113,115,117,119,-1,-1,-1,-1,-1,-1,-1,-1,-1,-1,-1,-1,-1,-1,-1,-1,-1,-1,-1,-1,-1,-1,-1,-1,-1,-1,-1,-1,-1,-1,-1,-1,-1,-1,-1,-1,-1,-1,-1,-1,-1,-1,-1,-1,-1,-1,-1,-1,-1,-1,-1,-1,-1,-1,-1,-1,-1,-1,-1],"loss_changes":[4.754704E7,5.028379E7,2.0056516E7,3.5253708E7,1.5950472E7,1.5904004E7,7.12946E6,3.9910172E7,8.619154E6,3.63004E6,2.4413715E6,7.56923E6,5.688482E6,4.309848E6,6.130214E6,8.042478E6,7.297208E6,4.2689425E6,6.885835E6,9.888994E6,5.922912E6,4.3601084E5,1.409533E6,2.47846E5,2.2189798E6,5.11055E6,7.129818E6,1.661072E6,1.97672E6,8.240194E6,5.0683356E5,1.454037E6,4.491254E6,3.158668E6,9.110316E6,2.5304512E6,2.366017E6,0E0,3.1158765E6,2.024449E6,2.583172E6,1.4395285E6,3.504152E6,1.8377367E5,3.811631E6,1.31153E5,0E0,8.7464E4,1.7733444E6,4.6900312E5,2.0480814E6,3.511189E6,3.599232E6,5.844635E5,4.00063E5,9.53276E5,7.836329E5,1.6706378E6,7.0063895E6,5.453761E5,2.918284E6,1.2028625E4,0E0,0E0,0E0,0E0,0E0,0E0,0E0,0E0,0E0,0E0,0E0,0E0,0E0,0E0,0E0,0E0,0E0,0E0,0E0,0E0,0E0,0E0,0E0,0E0,0E0,0E0,0E0,0E0,0E0,0E0,0E0,0E0,0E0,0E0,0E0,0E0,0E0,0E0,0E0,0E0,0E0,0E0,0E0,0E0,0E0,0E0,0E0,0E0,0E0,0E0,0E0,0E0,0E0,0E0,0E0,0E0,0E0,0E0,0E0],"parents":[2147483647,0,0,1,1,2,2,3,3,4,4,5,5,6,6,7,7,8,8,9,9,10,10,11,11,12,12,13,13,14,14,15,15,16,16,17,17,18,18,19,19,20,20,21,21,22,22,23,23,24,24,25,25,26,26,27,27,28,28,29,29,30,30,31,31,32,32,33,33,34,34,35,35,36,36,38,38,39,39,40,40,41,41,42,42,43,43,44,44,45,45,47,47,48,48,49,49,50,50,51,51,52,52,53,53,54,54,55,55,56,56,57,57,58,58,59,59,60,60,61,61],"right_children":[2,4,6,8,10,12,14,16,18,20,22,24,26,28,30,32,34,36,38,40,42,44,46,48,50,52,54,56,58,60,62,64,66,68,70,72,74,-1,76,78,80,82,84,86,88,90,-1,92,94,96,98,100,102,104,106,108,110,112,114,116,118,120,-1,-1,-1,-1,-1,-1,-1,-1,-1,-1,-1,-1,-1,-1,-1,-1,-1,-1,-1,-1,-1,-1,-1,-1,-1,-1,-1,-1,-1,-1,-1,-1,-1,-1,-1,-1,-1,-1,-1,-1,-1,-1,-1,-1,-1,-1,-1,-1,-1,-1,-1,-1,-1,-1,-1,-1,-1,-1,-1],"split_conditions":[1.4E2,1.16E2,1.4E2,4.3E1,1.37E2,1.25E2,2.65E2,2.65E2,2.65E2,1.25E2,1.38E2,4E0,1.37E2,2.65E2,2.29E2,3.8E1,3.8E1,4E0,4.8E1,1.2E1,1.32E2,1.86E2,2.65E2,2.39E2,4.3E1,1.32E2,1.38E2,2.38E2,2.31E2,1.86E2,2.65E2,2.4E1,2.39E2,1.3E1,4.2E1,5E1,5E1,4.325124E1,6.8E1,4E0,4.8E1,2.44E2,1.4E2,7.5E1,1.95E2,4E0,3.6558776E0,1.86E2,2.46E2,1.48E2,2.65E2,1.53E2,2.38E2,2.61E2,2.65E2,2.43E2,1.61E2,1.66E2,2.55E2,1.66E2,2.24E2,2.62E2,-5.3028244E-1,1.1064854E0,2.1776125E0,3.3320563E0,8.440452E0,5.5840515E1,2.6345734E1,1.419838E2,2.482516E1,1.0499684E1,2.3703282E0,-4.856914E-1,-4.9442597E-2,1.3003779E1,3.2390177E0,2.5091608E0,6.776999E1,-1.0648065E0,5.276177E0,1.7943689E-1,2.6416137E0,1.701751E0,2.5964537E0,4.3505067E-1,-3.1354746E-1,5.1365147E0,-9.05206E-2,3.8397887E0,9.183516E-1,3.3961706E0,2.639702E0,1.2580328E1,2.1190515E0,1.10311E0,3.6881626E-1,-1.13909915E-1,1.4816868E1,4.5090995E0,2.6529923E-1,2.6853127E0,6.188422E0,-4.6668944E-1,1.4632233E0,1.804819E0,2.2636833E1,-5.2002215E-1,-2.745904E-1,-5.0839657E-1,-1.5914243E-1,2.6529427E1,-4.8339006E-1,6.1933186E1,-3.7097347E-1,2.440212E0,8.526122E0,1.6547874E1,6.594527E1,1.9984877E0,3.295188E0],"split_indices":[0,0,1,0,0,1,1,1,1,0,0,1,1,0,0,0,0,1,0,1,0,1,1,0,1,1,1,0,1,0,0,0,1,0,0,0,0,0,0,1,1,1,1,1,1,1,0,0,0,0,0,0,0,0,0,1,1,1,1,0,0,0,0,0,0,0,0,0,0,0,0,0,0,0,0,0,0,0,0,0,0,0,0,0,0,0,0,0,0,0,0,0,0,0,0,0,0,0,0,0,0,0,0,0,0,0,0,0,0,0,0,0,0,0,0,0,0,0,0,0,0],"split_type":[0,0,0,0,0,0,0,0,0,0,0,0,0,0,0,0,0,0,0,0,0,0,0,0,0,0,0,0,0,0,0,0,0,0,0,0,0,0,0,0,0,0,0,0,0,0,0,0,0,0,0,0,0,0,0,0,0,0,0,0,0,0,0,0,0,0,0,0,0,0,0,0,0,0,0,0,0,0,0,0,0,0,0,0,0,0,0,0,0,0,0,0,0,0,0,0,0,0,0,0,0,0,0,0,0,0,0,0,0,0,0,0,0,0,0,0,0,0,0,0,0],"sum_hessian":[3.2935776E7,1.0807728E7,2.2128048E7,7.569024E6,3.238704E6,6.13845E6,1.5989598E7,6.81538E5,6.887486E6,1.849646E6,1.389058E6,5.222719E6,9.15731E5,1.594579E7,4.3808E4,6.79973E5,1.565E3,6.872075E6,1.5411E4,4.6271E4,1.803375E6,3.50354E5,1.038704E6,6.3092E4,5.159627E6,3.70408E5,5.45323E5,1.5944068E7,1.722E3,1.6538E4,2.727E4,5.16243E5,1.6373E5,1.313E3,2.52E2,1.7659E4,6.854416E6,4.56E2,1.4955E4,3.18E2,4.5953E4,2.00614E5,1.602761E6,2.25251E5,1.25103E5,1.021441E6,1.7263E4,5.5609E4,7.483E3,7.0192E5,4.457707E6,1.43673E5,2.26735E5,2.67654E5,2.77669E5,1.2820623E7,3.123445E6,1.066E3,6.56E2,1.113E4,5.408E3,1.2152E4,1.5118E4,3.46116E5,1.70127E5,1.46408E5,1.7322E4,6.49E2,6.64E2,1.54E2,9.8E1,4.693E3,1.2966E4,1.408213E6,5.446203E6,4.023E3,1.0932E4,5.1E1,2.67E2,6.783E3,3.917E4,1.76296E5,2.4318E4,6.9767E5,9.05091E5,3.493E4,1.90321E5,1.4157E4,1.10946E5,1.384E3,1.020057E6,3.0499E4,2.511E4,1.984E3,5.499E3,8.9764E4,6.12156E5,4.456881E6,8.26E2,2.0459E4,1.23214E5,1.96236E5,3.0499E4,2.52696E5,1.4958E4,2.77587E5,8.2E1,1.1188566E7,1.632057E6,7.66093E5,2.357352E6,2.78E2,7.88E2,2.93E2,3.63E2,9.593E3,1.537E3,5.299E3,1.09E2,1.1468E4,6.84E2],"tree_param":{"num_deleted":"0","num_feature":"2","num_nodes":"121","size_leaf_vector":"1"}},{"base_weights":[4.8662856E-5,1.2035234E0,-5.877496E-1,2.1586083E-1,3.5117428E0,4.8783314E-1,-1.0006688E0,5.018683E0,-2.593939E-1,4.857974E0,1.7191223E0,1.602798E-2,3.178692E0,-1.0251749E0,7.919181E0,4.7612443E0,1.1679798E2,-2.9648638E-1,1.6279844E1,4.3881E0,7.3291035E0,1.2123558E-1,2.2580874E0,7.637036E0,-7.716329E-2,5.295577E0,1.7408013E0,-1.0289633E0,3.403333E1,1.8555258E1,1.4684453E0,3.4054527E0,9.036028E0,9.562665E1,2.2629338E2,2.4976883E0,-4.3149763E-1,3.030426E1,1.3689588E1,1.18560295E1,4.1999593E0,9.205755E0,6.358346E0,6.4590883E-1,-1.5508758E0,2.1520698E0,2.5591776E0,5.825787E0,9.07084E0,2.0599224E-1,-9.3817097E-1,2.029199E0,7.3653336E0,-8.372663E-1,4.225877E0,-1.7699057E0,-9.265429E-1,1.5477941E1,9.496912E1,7.657439E0,4.0978085E1,4.834496E0,-3.7120822E-1,1.1284175E0,-7.253218E-1,1.3943101E0,3.9813886E0,3.9114132E1,1.8453897E1,9.966346E1,1.7452839E1,3.1720815E0,6.062479E-1,-1.6285397E-2,-3.7871167E-1,-2.0281625E0,6.234573E0,4.0207115E1,3.248014E0,1.354954E-1,1.4000738E0,2.3284688E0,8.080477E0,-3.3726415E-1,2.2509413E0,-1.382217E-1,1.9989287E0,-9.1135734E-1,2.1523206E-2,-2.0827632E-1,6.587948E-1,1.4029888E0,1.8628489E0,9.073777E0,2.2103395E0,-9.059315E-2,3.1413934E-1,-3.6252284E-1,3.026585E0,3.1564357E0,1.8571006E-1,1.8797232E0,4.331956E0,-3.2668313E-1,1.0242856E0,1.2633752E0,1.5927602E1,-1.0265869E0,-5.0742614E-1,3.4625366E-1,-3.341521E-1,1.8599127E1,9.093823E-1,2.961003E2,-2.5998715E-1,1.7082247E0,5.969948E0,1.1584447E1,4.6341537E1,1.6130575E0,1.111661E0],"categories":[],"categories_nodes":[],"categories_segments":[],"categories_sizes":[],"default_left":[0,0,0,0,0,0,0,0,0,0,0,0,0,0,0,0,0,0,0,0,0,0,0,0,0,0,0,0,0,0,0,0,0,0,0,0,0,0,0,0,0,0,0,0,0,0,0,0,0,0,0,0,0,0,0,0,0,0,0,0,0,0,0,0,0,0,0,0,0,0,0,0,0,0,0,0,0,0,0,0,0,0,0,0,0,0,0,0,0,0,0,0,0,0,0,0,0,0,0,0,0,0,0,0,0,0,0,0,0,0,0,0,0,0,0,0,0,0,0,0,0],"id":2,"left_children":[1,3,5,7,9,11,13,15,17,19,21,23,25,27,29,31,33,35,37,39,41,43,45,47,49,51,53,55,57,59,61,63,65,67,69,71,73,-1,75,77,79,81,83,85,87,89,-1,91,93,95,97,99,101,103,105,107,109,111,113,115,117,119,-1,-1,-1,-1,-1,-1,-1,-1,-1,-1,-1,-1,-1,-1,-1,-1,-1,-1,-1,-1,-1,-1,-1,-1,-1,-1,-1,-1,-1,-1,-1,-1,-1,-1,-1,-1,-1,-1,-1,-1,-1,-1,-1,-1,-1,-1,-1,-1,-1,-1,-1,-1,-1,-1,-1,-1,-1,-1,-1],"loss_changes":[2.3298784E7,2.4638832E7,9.827702E6,1.7276784E7,7.8159E6,7.793139E6,3.495184E6,1.9611604E7,4.225352E6,2.147624E6,1.1962648E6,3.7092355E6,2.787341E6,2.117963E6,3.0057312E6,3.940905E6,3.608604E6,2.5924572E6,3.3813002E6,2.183552E6,5.38294E5,3.0737172E5,6.90716E5,1.6379825E5,1.2579128E6,2.504175E6,3.4937265E6,1.209958E6,1.946704E6,4.041154E6,2.4838698E5,1.070028E6,3.043E6,1.54983E6,4.485761E6,1.2197979E6,2.0545499E6,0E0,2.1693418E6,4.8010415E6,2.653338E6,2.579299E6,1.6683675E6,1.7757869E6,2.0189903E5,1.276715E5,0E0,1.22644375E4,1.2696668E6,1.6589865E6,3.8049865E6,1.7205588E6,1.763704E6,2.8639975E5,1.98237E5,2.510565E5,5.459026E6,7.652609E5,3.4367244E7,2.6743338E5,1.444811E6,7.4214062E3,0E0,0E0,0E0,0E0,0E0,0E0,0E0,0E0,0E0,0E0,0E0,0E0,0E0,0E0,0E0,0E0,0E0,0E0,0E0,0E0,0E0,0E0,0E0,0E0,0E0,0E0,0E0,0E0,0E0,0E0,0E0,0E0,0E0,0E0,0E0,0E0,0E0,0E0,0E0,0E0,0E0,0E0,0E0,0E0,0E0,0E0,0E0,0E0,0E0,0E0,0E0,0E0,0E0,0E0,0E0,0E0,0E0,0E0,0E0],"parents":[2147483647,0,0,1,1,2,2,3,3,4,4,5,5,6,6,7,7,8,8,9,9,10,10,11,11,12,12,13,13,14,14,15,15,16,16,17,17,18,18,19,19,20,20,21,21,22,22,23,23,24,24,25,25,26,26,27,27,28,28,29,29,30,30,31,31,32,32,33,33,34,34,35,35,36,36,38,38,39,39,40,40,41,41,42,42,43,43,44,44,45,45,47,47,48,48,49,49,50,50,51,51,52,52,53,53,54,54,55,55,56,56,57,57,58,58,59,59,60,60,61,61],"right_children":[2,4,6,8,10,12,14,16,18,20,22,24,26,28,30,32,34,36,38,40,42,44,46,48,50,52,54,56,58,60,62,64,66,68,70,72,74,-1,76,78,80,82,84,86,88,90,-1,92,94,96,98,100,102,104,106,108,110,112,114,116,118,120,-1,-1,-1,-1,-1,-1,-1,-1,-1,-1,-1,-1,-1,-1,-1,-1,-1,-1,-1,-1,-1,-1,-1,-1,-1,-1,-1,-1,-1,-1,-1,-1,-1,-1,-1,-1,-1,-1,-1,-1,-1,-1,-1,-1,-1,-1,-1,-1,-1,-1,-1,-1,-1,-1,-1,-1,-1,-1,-1],"split_conditions":[1.4E2,1.16E2,1.4E2,4.3E1,1.37E2,1.25E2,2.65E2,2.65E2,2.65E2,2.36E2,1.38E2,4E0,1.37E2,2.65E2,2.29E2,3.8E1,3.8E1,4.3E1,4.8E1,1.25E2,2.46E2,2.3E2,2.65E2,1.7E2,1E2,1.32E2,1.38E2,1.43E2,2.49E2,1.86E2,2.65E2,2.49E2,1.32E2,1.3E1,4.2E1,4E0,1E2,3.030426E1,5.5E1,1.2E1,1.32E2,2.44E2,1.32E2,1.86E2,2.37E2,1.2E1,2.5591776E0,1.61E2,1.86E2,7.4E1,2.62E2,1.53E2,2.38E2,2.61E2,2.65E2,1.41E2,1.61E2,1.66E2,2.55E2,1.66E2,2.24E2,2.46E2,-3.7120822E-1,1.1284175E0,-7.253218E-1,1.3943101E0,3.9813886E0,3.9114132E1,1.8453897E1,9.966346E1,1.7452839E1,3.1720815E0,6.062479E-1,-1.6285397E-2,-3.7871167E-1,-2.0281625E0,6.234573E0,4.0207115E1,3.248014E0,1.354954E-1,1.4000738E0,2.3284688E0,8.080477E0,-3.3726415E-1,2.2509413E0,-1.382217E-1,1.9989287E0,-9.1135734E-1,2.1523206E-2,-2.0827632E-1,6.587948E-1,1.4029888E0,1.8628489E0,9.073777E0,2.2103395E0,-9.059315E-2,3.1413934E-1,-3.6252284E-1,3.026585E0,3.1564357E0,1.8571006E-1,1.8797232E0,4.331956E0,-3.2668313E-1,1.0242856E0,1.2633752E0,1.5927602E1,-1.0265869E0,-5.0742614E-1,3.4625366E-1,-3.341521E-1,1.8599127E1,9.093823E-1,2.961003E2,-2.5998715E-1,1.7082247E0,5.969948E0,1.1584447E1,4.6341537E1,1.6130575E0,1.111661E0],"split_indices":[0,0,1,0,0,1,1,1,1,1,0,1,1,0,0,0,0,1,0,0,1,1,1,0,1,1,1,0,1,0,0,1,1,0,0,1,0,0,0,1,0,1,0,1,1,1,0,0,0,1,0,0,0,0,0,1,0,1,1,0,0,0,0,0,0,0,0,0,0,0,0,0,0,0,0,0,0,0,0,0,0,0,0,0,0,0,0,0,0,0,0,0,0,0,0,0,0,0,0,0,0,0,0,0,0,0,0,0,0,0,0,0,0,0,0,0,0,0,0,0,0],"split_type":[0,0,0,0,0,0,0,0,0,0,0,0,0,0,0,0,0,0,0,0,0,0,0,0,0,0,0,0,0,0,0,0,0,0,0,0,0,0,0,0,0,0,0,0,0,0,0,0,0,0,0,0,0,0,0,0,0,0,0,0,0,0,0,0,0,0,0,0,0,0,0,0,0,0,0,0,0,0,0,0,0,0,0,0,0,0,0,0,0,0,0,0,0,0,0,0,0,0,0,0,0,0,0,0,0,0,0,0,0,0,0,0,0,0,0,0,0,0,0,0,0],"sum_hessian":[3.2935776E7,1.0807728E7,2.2128048E7,7.569024E6,3.238704E6,6.13845E6,1.5989598E7,6.81538E5,6.887486E6,1.849646E6,1.389058E6,5.222719E6,9.15731E5,1.594579E7,4.3808E4,6.79973E5,1.565E3,6.872075E6,1.5411E4,1.554137E6,2.95509E5,3.50354E5,1.038704E6,6.3092E4,5.159627E6,3.70408E5,5.45323E5,1.5944068E7,1.722E3,1.6538E4,2.727E4,5.16243E5,1.6373E5,1.313E3,2.52E2,3.16745E5,6.55533E6,4.56E2,1.4955E4,3.819E4,1.515947E6,1.00744E5,1.94765E5,2.66677E5,8.3677E4,1.021441E6,1.7263E4,2.7879E4,3.5213E4,3.882732E6,1.276895E6,1.43673E5,2.26735E5,2.67654E5,2.77669E5,1.936293E6,1.4007775E7,1.321E3,4.01E2,1.113E4,5.408E3,1.2152E4,1.5118E4,4.86506E5,2.9737E4,8.0413E4,8.3317E4,6.49E2,6.64E2,1.54E2,9.8E1,1.7659E4,2.99086E5,4.508496E6,2.046834E6,3.851E3,1.1104E4,3.18E2,3.7872E4,1.67932E5,1.348015E6,9.3157E4,7.587E3,2.5844E4,1.68921E5,2.25251E5,4.1426E4,4.3663E4,4.0014E4,1.5519E4,1.005922E6,6.982E3,2.0897E4,2.62E3,3.2593E4,2.420797E6,1.461935E6,1.246351E6,3.0544E4,2.0459E4,1.23214E5,1.96236E5,3.0499E4,2.52696E5,1.4958E4,2.77587E5,8.2E1,8.7815E4,1.848478E6,1.156789E6,1.2850986E7,2.78E2,1.043E3,3.8E1,3.63E2,9.593E3,1.537E3,5.299E3,1.09E2,8.206E3,3.946E3],"tree_param":{"num_deleted":"0","num_feature":"2","num_nodes":"121","size_leaf_vector":"1"}},{"base_weights":[5.550276E-5,8.424922E-1,-4.1140544E-1,1.5113144E-1,2.4582388E0,2.9933685E-1,-7.1829545E-1,3.5133426E0,-1.8157019E-1,3.4006126E0,1.2033885E0,1.1223057E-2,1.3367326E0,-7.361001E-1,5.544978E0,3.3328795E0,8.187013E1,-2.0753995E-1,1.139813E1,2.4397712E0,4.1395717E0,8.48678E-2,1.580664E0,1.5146784E0,-2.4679358E-1,3.7069294E0,5.2388746E-1,-7.389205E-1,2.4829582E1,1.4016246E1,1.2115334E0,1.5716232E0,5.1587977E0,6.698246E1,1.5886827E2,-1.0640085E0,1.412571E-2,3.5980507E1,1.3240019E0,4.192609E0,-5.191906E0,5.7128963E0,3.4532685E0,-1.153193E0,5.3581905E-1,1.5064492E0,1.791469E0,5.3461556E0,1.1702793E0,-1.2135478E0,7.559124E-2,9.522911E0,2.866971E0,2.9672034E0,4.01981E-2,-1.0630362E0,-5.314984E-1,1.169372E1,6.72143E1,5.360897E0,1.202376E1,-1.1261011E1,1.402257E0,3.7463534E0,1.21792845E-1,1.00931756E-1,2.6811426E0,2.739794E1,1.2926054E1,6.995732E1,1.22698765E1,6.3990293E0,-3.4159622E-1,1.6732368E0,-9.417651E-2,9.828413E-1,2.5505043E2,1.2508409E0,-1.5966574E0,3.564164E-1,1.412552E0,-2.286885E0,6.48704E-1,5.775583E0,1.5891633E0,2.7028576E-1,1.4040794E0,3.2302538E-1,-8.024037E-1,1.5211796E0,-1.3841375E-2,6.22543E-1,4.011124E-1,1.4477677E0,2.7633796E0,3.0870777E-1,1.431516E0,-1.0715883E-1,-6.5622497E-1,2.5818644E0,2.9832271E-3,1.9914052E0,1.4172514E1,1.2999752E-1,1.3088654E0,-2.3146957E-1,8.534763E0,3.539473E-1,-3.6515158E-1,-1.89604E-1,-4.4638348E-1,1.7420412E0,-1.8392254E-1,4.0906902E1,1.9782151E0,2.0954788E2,-1.8220527E-1,1.1958107E0,4.180128E0,1.1702957E0,-2.5985312E-1],"categories":[],"categories_nodes":[],"categories_segments":[],"categories_sizes":[],"default_left":[0,0,0,0,0,0,0,0,0,0,0,0,0,0,0,0,0,0,0,0,0,0,0,0,0,0,0,0,0,0,0,0,0,0,0,0,0,0,0,0,0,0,0,0,0,0,0,0,0,0,0,0,0,0,0,0,0,0,0,0,0,0,0,0,0,0,0,0,0,0,0,0,0,0,0,0,0,0,0,0,0,0,0,0,0,0,0,0,0,0,0,0,0,0,0,0,0,0,0,0,0,0,0,0,0,0,0,0,0,0,0,0,0,0,0,0,0,0,0,0,0],"id":3,"left_children":[1,3,5,7,9,11,13,15,17,19,21,23,25,27,29,31,33,35,37,39,41,43,45,47,49,51,53,55,57,59,61,63,65,67,69,71,73,75,77,79,81,83,85,87,89,91,-1,93,95,97,99,101,103,105,107,109,111,113,115,117,-1,-1,119,-1,-1,-1,-1,-1,-1,-1,-1,-1,-1,-1,-1,-1,-1,-1,-1,-1,-1,-1,-1,-1,-1,-1,-1,-1,-1,-1,-1,-1,-1,-1,-1,-1,-1,-1,-1,-1,-1,-1,-1,-1,-1,-1,-1,-1,-1,-1,-1,-1,-1,-1,-1,-1,-1,-1,-1,-1,-1],"loss_changes":[1.1416523E7,1.2072922E7,4.826563E6,8.466811E6,3.829888E6,1.994544E6,1.7234505E6,9.63704E6,2.0712216E6,1.313282E6,5.8616975E5,2.0259794E6,2.7945262E6,1.111249E6,1.6082015E6,2.1867275E6,1.7845E6,1.3046612E6,3.8166735E6,1.0756608E7,1.128934E6,1.956056E5,3.3847325E5,1.0094721E6,1.3893202E6,1.809488E6,1.276453E6,1.03595E6,9.4570575E5,3.3442928E6,2.1425019E5,4.404147E6,6.083064E6,7.604385E5,2.208706E6,2.3618672E6,9.963184E6,1.19288376E8,2.067819E5,1.01359E6,2.6852078E6,1.787093E6,2.279825E6,3.1737484E5,6.777443E5,9.840425E4,0E0,1.26827375E5,3.570733E5,9.29691E5,1.8720812E6,5.086123E6,1.1783118E6,1.7004526E7,1.2919371E6,1.1012855E6,4.858358E6,8.249246E5,1.7211796E7,1.3114E5,0E0,0E0,1.634913E5,0E0,0E0,0E0,0E0,0E0,0E0,0E0,0E0,0E0,0E0,0E0,0E0,0E0,0E0,0E0,0E0,0E0,0E0,0E0,0E0,0E0,0E0,0E0,0E0,0E0,0E0,0E0,0E0,0E0,0E0,0E0,0E0,0E0,0E0,0E0,0E0,0E0,0E0,0E0,0E0,0E0,0E0,0E0,0E0,0E0,0E0,0E0,0E0,0E0,0E0,0E0,0E0,0E0,0E0,0E0,0E0,0E0,0E0],"parents":[2147483647,0,0,1,1,2,2,3,3,4,4,5,5,6,6,7,7,8,8,9,9,10,10,11,11,12,12,13,13,14,14,15,15,16,16,17,17,18,18,19,19,20,20,21,21,22,22,23,23,24,24,25,25,26,26,27,27,28,28,29,29,30,30,31,31,32,32,33,33,34,34,35,35,36,36,37,37,38,38,39,39,40,40,41,41,42,42,43,43,44,44,45,45,47,47,48,48,49,49,50,50,51,51,52,52,53,53,54,54,55,55,56,56,57,57,58,58,59,59,62,62],"right_children":[2,4,6,8,10,12,14,16,18,20,22,24,26,28,30,32,34,36,38,40,42,44,46,48,50,52,54,56,58,60,62,64,66,68,70,72,74,76,78,80,82,84,86,88,90,92,-1,94,96,98,100,102,104,106,108,110,112,114,116,118,-1,-1,120,-1,-1,-1,-1,-1,-1,-1,-1,-1,-1,-1,-1,-1,-1,-1,-1,-1,-1,-1,-1,-1,-1,-1,-1,-1,-1,-1,-1,-1,-1,-1,-1,-1,-1,-1,-1,-1,-1,-1,-1,-1,-1,-1,-1,-1,-1,-1,-1,-1,-1,-1,-1,-1,-1,-1,-1,-1,-1],"split_conditions":[1.4E2,1.16E2,1.41E2,4.3E1,1.37E2,1.25E2,2.65E2,2.65E2,2.65E2,1.4E2,1.38E2,4.3E1,1.37E2,2.65E2,2.09E2,2.4E1,3.8E1,5E1,6.8E1,1.3E2,1.7E2,1.13E2,2.65E2,4E0,5.6E1,1.53E2,1.58E2,1.66E2,2.49E2,1.86E2,2.11E2,4.1E1,1.3E2,1.3E1,4.2E1,4E0,6.8E1,5.5E1,1E2,1.32E2,1.37E2,1.25E2,2.24E2,7.9E1,1.4E2,9.2E1,1.791469E0,2.39E2,2.62E2,2.29E2,6.5E1,1.51E2,1.32E2,1.48E2,1.4E2,1.61E2,1.7E2,1.43E2,2.55E2,1.66E2,1.202376E1,-1.1261011E1,2.65E2,3.7463534E0,1.21792845E-1,1.00931756E-1,2.6811426E0,2.739794E1,1.2926054E1,6.995732E1,1.22698765E1,6.3990293E0,-3.4159622E-1,1.6732368E0,-9.417651E-2,9.828413E-1,2.5505043E2,1.2508409E0,-1.5966574E0,3.564164E-1,1.412552E0,-2.286885E0,6.48704E-1,5.775583E0,1.5891633E0,2.7028576E-1,1.4040794E0,3.2302538E-1,-8.024037E-1,1.5211796E0,-1.3841375E-2,6.22543E-1,4.011124E-1,1.4477677E0,2.7633796E0,3.0870777E-1,1.431516E0,-1.0715883E-1,-6.5622497E-1,2.5818644E0,2.9832271E-3,1.9914052E0,1.4172514E1,1.2999752E-1,1.3088654E0,-2.3146957E-1,8.534763E0,3.539473E-1,-3.6515158E-1,-1.89604E-1,-4.4638348E-1,1.7420412E0,-1.8392254E-1,4.0906902E1,1.9782151E0,2.0954788E2,-1.8220527E-1,1.1958107E0,4.180128E0,1.1702957E0,-2.5985312E-1],"split_indices":[0,0,1,0,0,1,1,1,1,1,0,1,1,0,0,0,0,0,0,1,1,1,1,1,1,0,0,0,1,0,0,1,1,0,0,1,0,0,0,0,1,0,1,1,1,1,0,0,0,0,1,0,1,0,1,0,0,1,1,0,0,0,0,0,0,0,0,0,0,0,0,0,0,0,0,0,0,0,0,0,0,0,0,0,0,0,0,0,0,0,0,0,0,0,0,0,0,0,0,0,0,0,0,0,0,0,0,0,0,0,0,0,0,0,0,0,0,0,0,0,0],"split_type":[0,0,0,0,0,0,0,0,0,0,0,0,0,0,0,0,0,0,0,0,0,0,0,0,0,0,0,0,0,0,0,0,0,0,0,0,0,0,0,0,0,0,0,0,0,0,0,0,0,0,0,0,0,0,0,0,0,0,0,0,0,0,0,0,0,0,0,0,0,0,0,0,0,0,0,0,0,0,0,0,0,0,0,0,0,0,0,0,0,0,0,0,0,0,0,0,0,0,0,0,0,0,0,0,0,0,0,0,0,0,0,0,0,0,0,0,0,0,0,0,0],"sum_hessian":[3.2935776E7,1.0807728E7,2.2128048E7,7.569024E6,3.238704E6,6.673213E6,1.5454835E7,6.81538E5,6.887486E6,1.849646E6,1.389058E6,5.222719E6,1.450494E6,1.5411027E7,4.3808E4,6.79973E5,1.565E3,6.872075E6,1.5411E4,8.04104E5,1.045542E6,3.50354E5,1.038704E6,7.65012E5,4.457707E6,3.70408E5,1.080086E6,1.5409328E7,1.699E3,1.4825E4,2.8983E4,3.46116E5,3.33857E5,1.313E3,2.52E2,1.412906E6,5.459169E6,4.479E3,1.0932E4,6.53914E5,1.5019E5,3.17554E5,7.27988E5,9.3541E4,2.56813E5,1.021441E6,1.7263E4,6.3092E4,7.0192E5,1.114772E6,3.342935E6,4.6743E4,3.23665E5,1.78484E5,9.01602E5,6.013183E6,9.396145E6,1.298E3,4.01E2,1.113E4,3.695E3,1.41E2,2.8842E4,3.3392E4,3.12724E5,1.46666E5,1.87191E5,6.49E2,6.64E2,1.54E2,9.8E1,4.693E3,1.408213E6,3.0398E5,5.155189E6,4.307E3,1.72E2,7.655E3,3.277E3,9.5827E4,5.58087E5,1.12877E5,3.7313E4,9.458E3,3.08096E5,2.3635E5,4.91638E5,3.7938E4,5.5603E4,2.9208E4,2.27605E5,2.34437E5,7.87004E5,5.5609E4,7.483E3,6.7543E5,2.649E4,5.93176E5,5.21596E5,2.5528E4,3.317407E6,4.3423E4,3.32E3,1.23214E5,2.00451E5,1.55648E5,2.2836E4,4.72945E5,4.28657E5,2.985115E6,3.028068E6,1.19395E5,9.27675E6,5E1,1.248E3,3.8E1,3.63E2,9.593E3,1.537E3,1.3724E4,1.5118E4],"tree_param":{"num_deleted":"0","num_feature":"2","num_nodes":"121","size_leaf_vector":"1"}},{"base_weights":[6.0086328E-5,5.8978206E-1,-2.879705E-1,1.0584376E-1,1.7207713E0,2.0954087E-1,-5.0279E-1,2.4595294E0,-1.2706102E-1,2.3804338E0,8.423748E-1,7.857683E-3,9.357306E-1,-5.152536E-1,3.8816454E0,2.3330255E0,5.738735E1,-2.2760735E-1,2.3252058E0,2.2370305E0,6.097304E0,5.9410363E-2,1.1064677E0,1.0602827E0,-1.7275505E-1,2.594898E0,3.6672878E-1,-8.178952E-1,-3.5589626E-1,9.812545E0,8.4771633E-1,3.552569E0,2.9195768E-1,4.691841E1,1.11532776E2,3.1651726E-1,-5.825707E-1,4.7040925E0,7.557141E-1,3.3896284E0,1.8424958E0,1.1507425E0,1.8475081E0,4.143549E-1,-1.0717825E0,1.0545157E0,1.2540592E0,3.7423756E0,8.191981E-1,-1.7905246E-1,3.3765564E1,6.666384E0,2.006884E0,-1.1635253E0,8.7086856E-1,-9.266747E-1,1.3892174E0,3.3137014E0,-4.2411235E-1,3.7531111E0,8.417607E0,-7.906499E0,9.8161143E-1,6.038864E-1,7.3402076E0,-4.486263E0,3.6993328E-1,1.9191204E1,9.0540695E0,4.9105515E1,8.626094E0,-1.5420312E-1,1.5276802E0,-4.3089145E-1,-8.517282E-2,4.6899953E-1,1.2873089E1,-2.015654E-1,5.5022025E-1,-4.1579938E-1,1.1753508E0,-2.1361963E-1,7.890013E-1,3.207904E0,-3.1332216E-1,-1.1094045E-1,1.4034171E0,-6.937963E-1,-1.1711887E-2,2.5644937E0,3.1330198E-1,1.2307094E0,-8.392894E-3,4.552242E-1,1.6505685E-2,-2.2100645E-1,4.824527E-2,3.318456E1,7.2692566E0,1.3939974E0,9.922039E0,3.2692406E-1,1.7627617E0,-6.117767E-1,1.4793259E-2,7.56145E-1,4.2971037E-3,-3.5616106E-1,-1.531446E-1,-8.3643325E-2,9.5497376E-1,5.3946745E-1,2.7736454E0,3.0094154E-2,-2.0490347E-1,8.3710504E-1,2.9269044E0,8.192326E-1,-1.8190235E-1],"categories":[],"categories_nodes":[],"categories_segments":[],"categories_sizes":[],"default_left":[0,0,0,0,0,0,0,0,0,0,0,0,0,0,0,0,0,0,0,0,0,0,0,0,0,0,0,0,0,0,0,0,0,0,0,0,0,0,0,0,0,0,0,0,0,0,0,0,0,0,0,0,0,0,0,0,0,0,0,0,0,0,0,0,0,0,0,0,0,0,0,0,0,0,0,0,0,0,0,0,0,0,0,0,0,0,0,0,0,0,0,0,0,0,0,0,0,0,0,0,0,0,0,0,0,0,0,0,0,0,0,0,0,0,0,0,0,0,0],"id":4,"left_children":[1,3,5,7,9,11,13,15,17,19,21,23,25,27,29,31,33,35,37,39,41,43,45,47,49,51,53,55,57,59,61,63,65,67,69,71,73,75,77,79,81,83,-1,85,87,89,-1,91,93,95,97,99,101,103,105,107,109,111,113,115,-1,-1,117,-1,-1,-1,-1,-1,-1,-1,-1,-1,-1,-1,-1,-1,-1,-1,-1,-1,-1,-1,-1,-1,-1,-1,-1,-1,-1,-1,-1,-1,-1,-1,-1,-1,-1,-1,-1,-1,-1,-1,-1,-1,-1,-1,-1,-1,-1,-1,-1,-1,-1,-1,-1,-1,-1,-1,-1],"loss_changes":[5.5944045E6,5.915384E6,2.364938E6,4.1492235E6,1.876651E6,9.773607E5,8.4454625E5,4.735601E6,1.698224E6,9.85869E5,2.8722312E5,9.927418E5,1.3693668E6,7.43245E5,7.882877E5,1.6925705E6,8.82446E5,1.277884E6,1.012837E6,8.09857E5,2.074475E4,1.4067173E5,1.6586288E5,4.9466306E5,9.527232E5,8.8677975E5,8.332471E5,1.2762475E6,2.5271135E6,1.6390768E6,1.055946E5,1.3706114E7,3.649351E6,3.731165E5,1.0875248E6,1.0360644E7,1.0209564E6,1.2939401E7,2.516145E5,1.1456235E6,2.66914E6,1.758546E4,0E0,8.916154E5,1.072334E5,7.7881875E4,0E0,8.563531E4,3.7451825E5,8.446846E5,6.03295E5,2.4929405E6,1.1484876E6,2.8428116E5,1.1479426E6,5.49312E5,7.471809E5,1.6562228E6,1.3456598E6,6.4306406E4,0E0,0E0,8.011566E4,0E0,0E0,0E0,0E0,0E0,0E0,0E0,0E0,0E0,0E0,0E0,0E0,0E0,0E0,0E0,0E0,0E0,0E0,0E0,0E0,0E0,0E0,0E0,0E0,0E0,0E0,0E0,0E0,0E0,0E0,0E0,0E0,0E0,0E0,0E0,0E0,0E0,0E0,0E0,0E0,0E0,0E0,0E0,0E0,0E0,0E0,0E0,0E0,0E0,0E0,0E0,0E0,0E0,0E0,0E0,0E0],"parents":[2147483647,0,0,1,1,2,2,3,3,4,4,5,5,6,6,7,7,8,8,9,9,10,10,11,11,12,12,13,13,14,14,15,15,16,16,17,17,18,18,19,19,20,20,21,21,22,22,23,23,24,24,25,25,26,26,27,27,28,28,29,29,30,30,31,31,32,32,33,33,34,34,35,35,36,36,37,37,38,38,39,39,40,40,41,41,43,43,44,44,45,45,47,47,48,48,49,49,50,50,51,51,52,52,53,53,54,54,55,55,56,56,57,57,58,58,59,59,62,62],"right_children":[2,4,6,8,10,12,14,16,18,20,22,24,26,28,30,32,34,36,38,40,42,44,46,48,50,52,54,56,58,60,62,64,66,68,70,72,74,76,78,80,82,84,-1,86,88,90,-1,92,94,96,98,100,102,104,106,108,110,112,114,116,-1,-1,118,-1,-1,-1,-1,-1,-1,-1,-1,-1,-1,-1,-1,-1,-1,-1,-1,-1,-1,-1,-1,-1,-1,-1,-1,-1,-1,-1,-1,-1,-1,-1,-1,-1,-1,-1,-1,-1,-1,-1,-1,-1,-1,-1,-1,-1,-1,-1,-1,-1,-1,-1,-1,-1,-1,-1,-1],"split_conditions":[1.4E2,1.16E2,1.41E2,4.3E1,1.37E2,1.25E2,2.65E2,2.65E2,2.55E2,2.65E2,1.38E2,4.3E1,1.37E2,1.66E2,2.09E2,1.66E2,3.8E1,1.41E2,7.5E1,9E1,1.32E2,2.3E2,2.65E2,4E0,2.65E2,1.53E2,1.38E2,2.62E2,1.7E2,1.86E2,2.11E2,1.62E2,1.7E2,1.3E1,4.2E1,1.25E2,5.5E1,7.4E1,9E1,1.3E1,1.37E2,1.25E2,1.8475081E0,1.86E2,2.36E2,4E0,1.2540592E0,2.46E2,2.24E2,1.66E2,5E1,1.51E2,2.38E2,2.09E2,1.4E2,2.31E2,1.48E2,2.39E2,2.33E2,1.66E2,8.417607E0,-7.906499E0,2.65E2,6.038864E-1,7.3402076E0,-4.486263E0,3.6993328E-1,1.9191204E1,9.0540695E0,4.9105515E1,8.626094E0,-1.5420312E-1,1.5276802E0,-4.3089145E-1,-8.517282E-2,4.6899953E-1,1.2873089E1,-2.015654E-1,5.5022025E-1,-4.1579938E-1,1.1753508E0,-2.1361963E-1,7.890013E-1,3.207904E0,-3.1332216E-1,-1.1094045E-1,1.4034171E0,-6.937963E-1,-1.1711887E-2,2.5644937E0,3.1330198E-1,1.2307094E0,-8.392894E-3,4.552242E-1,1.6505685E-2,-2.2100645E-1,4.824527E-2,3.318456E1,7.2692566E0,1.3939974E0,9.922039E0,3.2692406E-1,1.7627617E0,-6.117767E-1,1.4793259E-2,7.56145E-1,4.2971037E-3,-3.5616106E-1,-1.531446E-1,-8.3643325E-2,9.5497376E-1,5.3946745E-1,2.7736454E0,3.0094154E-2,-2.0490347E-1,8.3710504E-1,2.9269044E0,8.192326E-1,-1.8190235E-1],"split_indices":[0,0,1,0,0,1,1,1,1,1,0,1,1,1,0,1,0,1,0,1,0,1,1,1,0,0,1,0,1,0,0,1,1,0,0,1,0,0,0,1,1,0,0,1,1,1,0,0,0,0,1,0,0,0,1,0,1,0,1,0,0,0,0,0,0,0,0,0,0,0,0,0,0,0,0,0,0,0,0,0,0,0,0,0,0,0,0,0,0,0,0,0,0,0,0,0,0,0,0,0,0,0,0,0,0,0,0,0,0,0,0,0,0,0,0,0,0,0,0],"split_type":[0,0,0,0,0,0,0,0,0,0,0,0,0,0,0,0,0,0,0,0,0,0,0,0,0,0,0,0,0,0,0,0,0,0,0,0,0,0,0,0,0,0,0,0,0,0,0,0,0,0,0,0,0,0,0,0,0,0,0,0,0,0,0,0,0,0,0,0,0,0,0,0,0,0,0,0,0,0,0,0,0,0,0,0,0,0,0,0,0,0,0,0,0,0,0,0,0,0,0,0,0,0,0,0,0,0,0,0,0,0,0,0,0,0,0,0,0,0,0],"sum_hessian":[3.2935776E7,1.0807728E7,2.2128048E7,7.569024E6,3.238704E6,6.673213E6,1.5454835E7,6.81538E5,6.887486E6,1.849646E6,1.389058E6,5.222719E6,1.450494E6,1.5411027E7,4.3808E4,6.79973E5,1.565E3,6.616213E6,2.71273E5,1.780936E6,6.871E4,3.50354E5,1.038704E6,7.65012E5,4.457707E6,3.70408E5,1.080086E6,5.315726E6,1.0095301E7,1.4825E4,2.8983E4,4.25647E5,2.54326E5,1.313E3,2.52E2,2.612106E6,4.004107E6,1.07831E5,1.63442E5,4.54155E5,1.326781E6,8.38E2,6.7872E4,2.66677E5,8.3677E4,1.021441E6,1.7263E4,6.3092E4,7.0192E5,4.456881E6,8.26E2,4.6743E4,3.23665E5,2.67654E5,8.12432E5,5.066042E6,2.49684E5,1.84241E5,9.91106E6,1.113E4,3.695E3,1.41E2,2.8842E4,3.96463E5,2.9184E4,1.4786E4,2.3954E5,6.49E2,6.64E2,1.54E2,9.8E1,2.225143E6,3.86963E5,1.037726E6,2.966381E6,9.9641E4,8.19E3,7.0332E4,9.311E4,4.5229E4,4.08926E5,3.12636E5,1.014145E6,1.56E2,6.82E2,2.25251E5,4.1426E4,3.8008E4,4.5669E4,1.384E3,1.020057E6,5.7593E4,5.499E3,3.6679E5,3.3513E5,1.687744E6,2.769137E6,9E1,7.36E2,4.3423E4,3.32E3,2.61644E5,6.2021E4,1.55427E5,1.12227E5,2.77669E5,5.34763E5,3.115682E6,1.95036E6,1.29386E5,1.20298E5,1.4675E5,3.7491E4,3.275734E6,6.635326E6,9.593E3,1.537E3,1.3724E4,1.5118E4],"tree_param":{"num_deleted":"0","num_feature":"2","num_nodes":"119","size_leaf_vector":"1"}},{"base_weights":[4.7446934E-5,-1.958551E-2,4.380493E0,2.896125E-1,-2.6672557E-1,2.8781515E1,3.3336945E0,2.3752692E-1,2.793515E0,-7.93562E-1,-8.412873E-2,1.2064451E1,1.788377E2,4.0410185E0,3.4521142E-1,1.7857987E0,1.670503E-1,9.772047E0,-1.2847117E-1,5.4889207E0,-8.532822E-1,4.2044597E0,-1.4082012E-1,4.6823296E1,-6.1843657E0,3.510574E0,1.409516E1,1.3270015E0,-1.2733522E-1,8.137734E0,1.4249663E0,1.3783474E0,1.0945753E-1,6.153351E0,7.092557E1,-4.7500896E-1,1.3878995E1,9.5747175E0,-4.604757E-1,-8.856496E-1,1.0529705E1,2.024958E0,8.259266E0,3.6670566E-1,-3.0242243E-1,3.2864384E1,7.26275E1,-1.1873255E0,-5.3557024E0,-1.9448224E0,3.7705762E0,5.8930063E0,3.9114254E0,1.1263192E0,4.5969195E0,3.5057107E-1,2.8881853E1,-1.8215222E0,4.9882755E-1,-1.8541074E-1,1.0241475E0,-1.6943805E-1,8.1485845E-2,-8.452103E-1,3.0668747E0,2.1824184E1,-1.0270785E0,-2.1556479E-1,2.293195E0,3.2931694E-1,1.5284631E1,4.584274E-1,6.930617E0,4.958044E-1,-9.65645E-1,-3.080018E-1,5.0775774E-2,-3.040216E-1,2.1034138E1,1.6265862E0,-7.994054E-1,1.3638774E1,1.490743E0,5.483086E-1,-5.728281E-3,-1.9506727E-1,4.8584383E-2,1.3442701E1,6.341932E0,3.4468906E1,1.820755E1,2.3909009E0,1.0757736E0,-9.4732344E-1,9.452338E0,5.061661E-1,-6.991412E-2,1.536687E0,1.332776E0],"categories":[],"categories_nodes":[],"categories_segments":[],"categories_sizes":[],"default_left":[0,0,0,0,0,0,0,0,0,0,0,0,0,0,0,0,0,0,0,0,0,0,0,0,0,0,0,0,0,0,0,0,0,0,0,0,0,0,0,0,0,0,0,0,0,0,0,0,0,0,0,0,0,0,0,0,0,0,0,0,0,0,0,0,0,0,0,0,0,0,0,0,0,0,0,0,0,0,0,0,0,0,0,0,0,0,0,0,0,0,0,0,0,0,0,0,0,0,0],"id":5,"left_children":[1,3,5,7,9,11,13,15,17,19,21,23,-1,25,27,29,31,33,35,37,39,41,43,45,47,49,51,53,-1,55,57,59,61,63,65,67,69,71,73,75,77,79,81,83,85,87,89,-1,-1,-1,91,-1,93,95,97,-1,-1,-1,-1,-1,-1,-1,-1,-1,-1,-1,-1,-1,-1,-1,-1,-1,-1,-1,-1,-1,-1,-1,-1,-1,-1,-1,-1,-1,-1,-1,-1,-1,-1,-1,-1,-1,-1,-1,-1,-1,-1,-1,-1],"loss_changes":[2.8325132E6,2.505565E6,3.7536458E6,1.8996124E6,1.7530439E6,5.7325572E7,2.9786625E5,1.5569728E6,6.052448E6,1.7597838E6,3.2901788E6,3.725579E6,0E0,6.076379E5,2.0380354E4,1.4238444E6,9.5208394E5,1.9385316E7,1.0155703E6,1.0735925E6,1.7118398E6,1.5603072E6,1.0954444E6,7.25935E5,1.00004625E5,2.8125225E5,3.2254588E5,7.7722812E3,0E0,2.0510804E7,1.0479294E6,2.517162E6,1.4244721E6,3.0194432E6,6.63102E5,4.0370528E5,2.3931018E6,2.8500782E6,1.0482476E5,6.892325E5,9.06096E6,1.8294158E6,7.555006E6,1.818161E6,1.6361752E6,1.8307312E5,3.5072225E5,0E0,0E0,0E0,8.1772375E4,0E0,3.9319253E5,8.515662E3,3.278418E1,0E0,0E0,0E0,0E0,0E0,0E0,0E0,0E0,0E0,0E0,0E0,0E0,0E0,0E0,0E0,0E0,0E0,0E0,0E0,0E0,0E0,0E0,0E0,0E0,0E0,0E0,0E0,0E0,0E0,0E0,0E0,0E0,0E0,0E0,0E0,0E0,0E0,0E0,0E0,0E0,0E0,0E0,0E0,0E0],"parents":[2147483647,0,0,1,1,2,2,3,3,4,4,5,5,6,6,7,7,8,8,9,9,10,10,11,11,13,13,14,14,15,15,16,16,17,17,18,18,19,19,20,20,21,21,22,22,23,23,24,24,25,25,26,26,27,27,29,29,30,30,31,31,32,32,33,33,34,34,35,35,36,36,37,37,38,38,39,39,40,40,41,41,42,42,43,43,44,44,45,45,46,46,50,50,52,52,53,53,54,54],"right_children":[2,4,6,8,10,12,14,16,18,20,22,24,-1,26,28,30,32,34,36,38,40,42,44,46,48,50,52,54,-1,56,58,60,62,64,66,68,70,72,74,76,78,80,82,84,86,88,90,-1,-1,-1,92,-1,94,96,98,-1,-1,-1,-1,-1,-1,-1,-1,-1,-1,-1,-1,-1,-1,-1,-1,-1,-1,-1,-1,-1,-1,-1,-1,-1,-1,-1,-1,-1,-1,-1,-1,-1,-1,-1,-1,-1,-1,-1,-1,-1,-1,-1,-1],"split_conditions":[2.65E2,1.58E2,6.8E1,1.51E2,1.66E2,5.5E1,2.3E2,4.1E1,1.41E2,1.2E1,1.7E2,4.8E1,1.788377E2,1.86E2,2.65E2,2.4E1,4.3E1,1.4E2,1.53E2,1.63E2,2.64E2,2.29E2,2.3E2,3.8E1,5E1,7E1,2.09E2,2.62E2,-1.2733522E-1,3.5E1,3.8E1,2.4E1,7E1,4.3E1,1.53E2,2.63E2,2.3E2,1.62E2,4E0,2.38E2,1.64E2,1.43E2,2.34E2,1.07E2,2.38E2,1.3E1,4.2E1,-1.1873255E0,-5.3557024E0,-1.9448224E0,9.3E1,5.8930063E0,2.24E2,2.46E2,2.63E2,3.5057107E-1,2.8881853E1,-1.8215222E0,4.9882755E-1,-1.8541074E-1,1.0241475E0,-1.6943805E-1,8.1485845E-2,-8.452103E-1,3.0668747E0,2.1824184E1,-1.0270785E0,-2.1556479E-1,2.293195E0,3.2931694E-1,1.5284631E1,4.584274E-1,6.930617E0,4.958044E-1,-9.65645E-1,-3.080018E-1,5.0775774E-2,-3.040216E-1,2.1034138E1,1.6265862E0,-7.994054E-1,1.3638774E1,1.490743E0,5.483086E-1,-5.728281E-3,-1.9506727E-1,4.8584383E-2,1.3442701E1,6.341932E0,3.4468906E1,1.820755E1,2.3909009E0,1.0757736E0,-9.4732344E-1,9.452338E0,5.061661E-1,-6.991412E-2,1.536687E0,1.332776E0],"split_indices":[1,0,0,0,0,0,0,1,1,1,0,0,0,0,0,0,0,1,0,0,1,1,0,0,0,0,0,0,0,1,0,0,0,1,0,1,1,0,1,1,0,1,1,1,0,0,0,0,0,0,0,0,0,0,0,0,0,0,0,0,0,0,0,0,0,0,0,0,0,0,0,0,0,0,0,0,0,0,0,0,0,0,0,0,0,0,0,0,0,0,0,0,0,0,0,0,0,0,0],"split_type":[0,0,0,0,0,0,0,0,0,0,0,0,0,0,0,0,0,0,0,0,0,0,0,0,0,0,0,0,0,0,0,0,0,0,0,0,0,0,0,0,0,0,0,0,0,0,0,0,0,0,0,0,0,0,0,0,0,0,0,0,0,0,0,0,0,0,0,0,0,0,0,0,0,0,0,0,0,0,0,0,0,0,0,0,0,0,0,0,0,0,0,0,0,0,0,0,0,0,0],"sum_hessian":[3.2935776E7,3.278882E7,1.46957E5,1.4565659E7,1.822316E7,6.044E3,1.40913E5,1.4268843E7,2.96816E5,4.690351E6,1.3532809E7,5.872E3,1.72E2,1.13944E5,2.6969E4,6.21232E5,1.3647611E7,8.76E4,2.09216E5,4.4165E4,4.646186E6,1.76557E5,1.3356252E7,2.021E3,3.851E3,1.08235E5,5.709E3,1.1851E4,1.5118E4,3.3392E4,5.8784E5,6.19441E5,1.302817E7,8.2707E4,4.893E3,2.04166E5,5.05E3,2.6183E4,1.7982E4,4.633013E6,1.3173E4,1.14834E5,6.1723E4,3.225692E6,1.013056E7,1.313E3,7.08E2,3.235E3,6.16E2,2.744E3,1.05491E5,3.695E3,2.014E3,1.1167E4,6.84E2,3.0946E4,2.446E3,1.8072E4,5.69768E5,3.12724E5,3.06717E5,2.525873E6,1.0502297E7,2.5811E4,5.6896E4,4.776E3,1.17E2,1.98221E5,5.945E3,3.756E3,1.294E3,1.6418E4,9.765E3,1.0182E4,7.8E3,4.08669E6,5.46323E5,1.1036E4,2.137E3,6.6595E4,4.8239E4,5.014E3,5.6709E4,6.73856E5,2.551836E6,5.792284E6,4.338276E6,6.49E2,6.64E2,1.54E2,5.54E2,4.442E3,1.01049E5,1.604E3,4.1E2,7.905E3,3.262E3,1.48E2,5.36E2],"tree_param":{"num_deleted":"0","num_feature":"2","num_nodes":"99","size_leaf_vector":"1"}},{"base_weights":[4.467286E-5,3.3468997E-1,-1.6340199E-1,3.2433346E-2,1.1243131E0,-7.6448596E-1,-8.893845E-2,7.054256E-1,-2.6631665E-1,1.6880647E0,4.738289E-1,-6.6031677E-1,-1.9286069E0,1.1047939E0,-1.820561E-1,5.1136497E-2,1.802646E1,-1.7119856E0,2.041189E-2,5.645561E0,1.6592323E0,-2.3089223E0,5.1575357E-1,-7.481362E-1,2.3292136E0,-2.2000206E0,-7.7997303E-1,1.5907906E0,-9.703462E-1,-5.5350065E-1,-5.3453606E-2,1.2386786E0,-4.4421497E-1,1.723293E1,1.254965E2,1.5907767E1,-1.8620713E0,5.457585E0,-2.7266118E-1,-1.1433451E0,1.7945108E0,6.065356E0,-3.0057042E0,-1.2370727E-2,6.939603E-1,3.1904537E-2,-1.0128407E0,9.459553E0,4.8424497E-1,-2.2212074E0,3.4948804E0,-1.8308811E-1,-8.828585E-1,1.1165935E0,5.9406724E0,-1.5653151E0,5.18438E0,1.8560239E0,-6.6119313E-1,2.975748E0,-9.343571E-2,2.2840233E-1,1.8623992E0,3.7643561E0,-1.4638075E-1,1.464177E0,1.1900928E1,7.5763184E-1,7.396283E0,-7.213356E-1,-4.8318446E-1,1.2695749E0,5.6867924E0,-1.4531761E-1,3.6261445E-1,8.5160625E-1,3.8339183E-1,3.0116196E0,1.6461612E0,-1.0219151E0,-8.599894E-1,4.1364722E-2,-5.5743754E-1,9.508063E-1,1.9619898E-1,7.4051833E-1,-1.659529E-1,1.1191094E0,-3.123074E-1,1.1401567E0,3.8003256E0,-2.850194E-2,9.9676234E-1,-6.743982E-1,-3.9513347E-1,1.1841913E0,8.8216126E-1,-2.7091533E-1,-6.688414E-2,1.660888E-1,1.1072459E0,2.8790085E0,3.214993E-1,-6.9060624E-1,-1.8259019E-1,3.9462695E0,6.4444983E-1,1.0807066E0,-3.2587796E-1,-2.0612507E-1,1.5372454E0,-3.6030683E-1,1.2673498E0,2.2610694E-2,-1.4290133E-1],"categories":[],"categories_nodes":[],"categories_segments":[],"categories_sizes":[],"default_left":[0,0,0,0,0,0,0,0,0,0,0,0,0,0,0,0,0,0,0,0,0,0,0,0,0,0,0,0,0,0,0,0,0,0,0,0,0,0,0,0,0,0,0,0,0,0,0,0,0,0,0,0,0,0,0,0,0,0,0,0,0,0,0,0,0,0,0,0,0,0,0,0,0,0,0,0,0,0,0,0,0,0,0,0,0,0,0,0,0,0,0,0,0,0,0,0,0,0,0,0,0,0,0,0,0,0,0,0,0,0,0,0,0,0,0],"id":6,"left_children":[1,3,5,7,9,11,13,15,17,19,21,23,25,27,29,31,33,35,37,-1,39,41,43,45,47,49,51,53,55,57,59,61,63,65,-1,67,69,71,73,-1,75,77,79,81,83,85,87,89,91,93,95,-1,97,99,101,103,105,107,109,111,113,-1,-1,-1,-1,-1,-1,-1,-1,-1,-1,-1,-1,-1,-1,-1,-1,-1,-1,-1,-1,-1,-1,-1,-1,-1,-1,-1,-1,-1,-1,-1,-1,-1,-1,-1,-1,-1,-1,-1,-1,-1,-1,-1,-1,-1,-1,-1,-1,-1,-1,-1,-1,-1,-1],"loss_changes":[1.8014769E6,2.5794675E6,9.9042556E5,1.5714391E6,1.0971342E6,2.9577838E5,2.188575E6,2.7232024E7,2.2437702E6,7.91597E5,1.6205703E5,5.877675E5,6.245275E4,1.4368371E6,8.724586E5,1.3620604E6,2.7775512E7,2.3692258E6,7.197955E6,0E0,1.184099E6,1.2031936E5,1.2879144E5,4.4907162E5,8.404714E5,1.9559188E4,6.6792773E2,2.3810938E6,9.899985E5,1.2188692E6,1.643155E6,1.6166348E6,9.281029E5,2.4192554E7,0E0,8.856449E5,1.2115225E5,3.8221585E6,1.3443414E6,0E0,8.421795E5,3.5837031E3,1.0508906E3,9.575077E4,1.0121753E5,7.855428E5,2.17082E5,2.3838538E5,8.344924E4,3.90675E3,1.3912256E2,0E0,3.174082E2,1.5084524E6,2.01991E6,1.7374475E5,5.7663844E5,1.0325667E6,6.7347525E5,9.21821E5,8.6549025E5,0E0,0E0,0E0,0E0,0E0,0E0,0E0,0E0,0E0,0E0,0E0,0E0,0E0,0E0,0E0,0E0,0E0,0E0,0E0,0E0,0E0,0E0,0E0,0E0,0E0,0E0,0E0,0E0,0E0,0E0,0E0,0E0,0E0,0E0,0E0,0E0,0E0,0E0,0E0,0E0,0E0,0E0,0E0,0E0,0E0,0E0,0E0,0E0,0E0,0E0,0E0,0E0,0E0,0E0],"parents":[2147483647,0,0,1,1,2,2,3,3,4,4,5,5,6,6,7,7,8,8,9,9,10,10,11,11,12,12,13,13,14,14,15,15,16,16,17,17,18,18,20,20,21,21,22,22,23,23,24,24,25,25,26,26,27,27,28,28,29,29,30,30,31,31,32,32,33,33,35,35,36,36,37,37,38,38,40,40,41,41,42,42,43,43,44,44,45,45,46,46,47,47,48,48,49,49,50,50,52,52,53,53,54,54,55,55,56,56,57,57,58,58,59,59,60,60],"right_children":[2,4,6,8,10,12,14,16,18,20,22,24,26,28,30,32,34,36,38,-1,40,42,44,46,48,50,52,54,56,58,60,62,64,66,-1,68,70,72,74,-1,76,78,80,82,84,86,88,90,92,94,96,-1,98,100,102,104,106,108,110,112,114,-1,-1,-1,-1,-1,-1,-1,-1,-1,-1,-1,-1,-1,-1,-1,-1,-1,-1,-1,-1,-1,-1,-1,-1,-1,-1,-1,-1,-1,-1,-1,-1,-1,-1,-1,-1,-1,-1,-1,-1,-1,-1,-1,-1,-1,-1,-1,-1,-1,-1,-1,-1,-1,-1],"split_conditions":[1.4E2,1.32E2,1.43E2,6.8E1,1.37E2,2.62E2,1.58E2,5.5E1,7E1,4E0,1.2E1,2.43E2,1.42E2,2.38E2,1.66E2,4.3E1,2.65E2,1.2E1,7.5E1,5.645561E0,1.2E1,4E0,1.38E2,1.41E2,2.46E2,2.65E2,2.63E2,2.33E2,2.63E2,4.5E1,1.7E2,2.43E2,4E0,1.62E2,1.254965E2,4E0,1.14E2,2.49E2,2.38E2,-1.1433451E0,1.3E2,1.38E2,1.38E2,2.46E2,2.4E1,1.3E2,1.2E1,1.42E2,2.55E2,2.64E2,1.41E2,-1.8308811E-1,2.65E2,1.51E2,1.48E2,2.43E2,1.44E2,1.63E2,2.64E2,7.9E1,2.32E2,2.2840233E-1,1.8623992E0,3.7643561E0,-1.4638075E-1,1.464177E0,1.1900928E1,7.5763184E-1,7.396283E0,-7.213356E-1,-4.8318446E-1,1.2695749E0,5.6867924E0,-1.4531761E-1,3.6261445E-1,8.5160625E-1,3.8339183E-1,3.0116196E0,1.6461612E0,-1.0219151E0,-8.599894E-1,4.1364722E-2,-5.5743754E-1,9.508063E-1,1.9619898E-1,7.4051833E-1,-1.659529E-1,1.1191094E0,-3.123074E-1,1.1401567E0,3.8003256E0,-2.850194E-2,9.9676234E-1,-6.743982E-1,-3.9513347E-1,1.1841913E0,8.8216126E-1,-2.7091533E-1,-6.688414E-2,1.660888E-1,1.1072459E0,2.8790085E0,3.214993E-1,-6.9060624E-1,-1.8259019E-1,3.9462695E0,6.4444983E-1,1.0807066E0,-3.2587796E-1,-2.0612507E-1,1.5372454E0,-3.6030683E-1,1.2673498E0,2.2610694E-2,-1.4290133E-1],"split_indices":[0,0,0,0,0,1,0,0,0,1,1,1,0,1,0,0,1,1,0,0,1,1,0,0,1,1,1,1,1,1,0,1,1,1,0,1,1,1,1,0,1,0,0,1,1,1,1,0,1,1,0,0,1,0,0,1,0,0,1,1,1,0,0,0,0,0,0,0,0,0,0,0,0,0,0,0,0,0,0,0,0,0,0,0,0,0,0,0,0,0,0,0,0,0,0,0,0,0,0,0,0,0,0,0,0,0,0,0,0,0,0,0,0,0,0],"split_type":[0,0,0,0,0,0,0,0,0,0,0,0,0,0,0,0,0,0,0,0,0,0,0,0,0,0,0,0,0,0,0,0,0,0,0,0,0,0,0,0,0,0,0,0,0,0,0,0,0,0,0,0,0,0,0,0,0,0,0,0,0,0,0,0,0,0,0,0,0,0,0,0,0,0,0,0,0,0,0,0,0,0,0,0,0,0,0,0,0,0,0,0,0,0,0,0,0,0,0,0,0,0,0,0,0,0,0,0,0,0,0,0,0,0,0],"sum_hessian":[3.2935776E7,1.0807728E7,2.2128048E7,7.815909E6,2.991819E6,2.439106E6,1.9688942E7,2.402903E6,5.413006E6,1.602761E6,1.389058E6,2.238775E6,2.00331E5,1.424709E6,1.8264232E7,2.31544E6,8.7463E4,8.95904E5,4.517102E6,2.692E3,1.600069E6,2.0616E4,1.368442E6,2.174887E6,6.3888E4,1.62041E5,3.829E4,1.154359E6,2.7035E5,4.697209E6,1.3567024E7,6.81538E5,1.633902E6,8.7291E4,1.72E2,7.566E3,8.88338E5,2.31026E5,4.286076E6,3.8613E4,1.561456E6,1.583E3,1.9033E4,3.45257E5,1.023185E6,5.51046E5,1.623841E6,1.3132E4,5.0756E4,1.61441E5,6E2,1.4456E4,2.3834E4,1.040889E6,1.1347E5,2.4652E5,2.383E4,2.00957E5,4.496252E6,1.76736E5,1.3390288E7,6.2181E5,5.9728E4,5.479E3,1.628423E6,5.6298E4,3.0993E4,2.991E3,4.575E3,2.81388E5,6.0695E5,2.11796E5,1.923E4,3.750083E6,5.35993E5,5.16782E5,1.044674E6,1.99E2,1.384E3,4.898E3,1.4135E4,3.19268E5,2.5989E4,1.6255E4,1.00693E6,1.06701E5,4.44345E5,9.591E3,1.61425E6,4.752E3,8.38E3,4.2154E4,8.602E3,1.56794E5,4.647E3,3.27E2,2.73E2,2.3126E4,7.08E2,8.54104E5,1.86785E5,6.4807E4,4.8663E4,1.39271E5,1.07249E5,6.573E3,1.7257E4,1.26108E5,7.4849E4,4.476221E6,2.0031E4,4.0678E4,1.36058E5,9.293287E6,4.097001E6],"tree_param":{"num_deleted":"0","num_feature":"2","num_nodes":"115","size_leaf_vector":"1"}},{"base_weights":[3.692323E-5,-1.1422243E-2,2.556771E0,2.1971965E-1,-1.1696512E-1,3.1403679E1,2.1543136E0,-3.8892531E-3,1.8288805E0,3.5732384E0,-1.2717803E-1,2.1159145E1,5.0345734E1,8.614782E0,1.9698102E0,8.7828887E-1,-7.835693E-2,1.3428559E1,1.1120312E0,-5.6316447E0,6.6691747E0,-3.9426265E0,-1.04033604E-1,8.858235E0,1.2947781E1,2.3639807E1,4.230851E1,-4.1844125E0,8.806516E1,-5.303514E0,2.2366436E0,4.4136567E0,3.70046E-1,-1.0664018E0,6.079085E-2,2.5654465E1,5.8644786E0,4.679292E0,4.05733E-1,-3.8399768E0,-6.2822146E0,2.0671062E1,3.9123724E0,-5.135307E0,-1.10148E-1,3.3307786E0,-1.3137558E-1,3.465585E0,4.920626E0,1.0424198E-1,1.5391789E1,-7.873375E-1,-3.707753E0,-4.861212E0,-6.3857512E0,2.2439636E1,2.133988E0,-1.5552961E0,1.8481451E0,7.0064425E-1,2.5896003E-2,-4.0904891E-1,2.15176E-2,1.442881E-1,-4.826656E-2,5.860572E0,1.892347E1,-6.124464E-1,3.4786472E0,4.1447797E0,4.8816583E-1,-1.3256059E0,3.782374E-1,-1.3914856E0,-7.347206E-1,-2.242649E0,-1.2820866E0,3.6873162E-1,4.083216E0,-1.3789873E0,-2.073189E0,1.3436773E0,-1.7067765E0,3.6983309E0,-1.969667E-1,-5.7968564E-2,7.675652E-2,-1.2166857E0,-1.7720827E0,7.768161E-1,9.678506E-2],"categories":[],"categories_nodes":[],"categories_segments":[],"categories_sizes":[],"default_left":[0,0,0,0,0,0,0,0,0,0,0,0,0,0,0,0,0,0,0,0,0,0,0,0,0,0,0,0,0,0,0,0,0,0,0,0,0,0,0,0,0,0,0,0,0,0,0,0,0,0,0,0,0,0,0,0,0,0,0,0,0,0,0,0,0,0,0,0,0,0,0,0,0,0,0,0,0,0,0,0,0,0,0,0,0,0,0,0,0,0,0],"id":7,"left_children":[1,3,5,7,9,11,13,15,17,19,21,23,25,27,29,31,33,35,37,39,41,43,45,-1,47,-1,49,51,-1,53,55,57,59,61,63,65,67,69,71,73,75,-1,77,79,81,83,85,-1,-1,-1,-1,-1,-1,87,-1,-1,89,-1,-1,-1,-1,-1,-1,-1,-1,-1,-1,-1,-1,-1,-1,-1,-1,-1,-1,-1,-1,-1,-1,-1,-1,-1,-1,-1,-1,-1,-1,-1,-1,-1,-1],"loss_changes":[9.649538E5,7.9989575E5,1.7060648E6,3.6984505E6,8.483621E5,3.91309E5,1.7274462E5,5.9285294E5,1.0427631E7,1.7705162E6,1.982315E6,8.99095E4,1.5880588E5,1.4676548E7,2.734927E5,1.2622485E6,1.1441449E6,6.749615E6,2.9757278E6,1.8202406E4,7.9760915E6,6.1866925E5,2.0954984E6,0E0,3.0169062E3,0E0,2.0951812E5,4.9089266E4,0E0,3.5149688E4,1.012356E6,1.4804028E6,3.4250194E5,3.4736962E5,6.794483E5,6.387306E6,2.0431054E6,5.4431255E6,4.0668435E6,4.616676E3,2.7459562E4,0E0,1.1585386E6,9.8686E4,8.225194E5,6.321475E6,5.3020175E5,0E0,0E0,0E0,0E0,0E0,0E0,4.0652188E3,0E0,0E0,1.1196819E5,0E0,0E0,0E0,0E0,0E0,0E0,0E0,0E0,0E0,0E0,0E0,0E0,0E0,0E0,0E0,0E0,0E0,0E0,0E0,0E0,0E0,0E0,0E0,0E0,0E0,0E0,0E0,0E0,0E0,0E0,0E0,0E0,0E0,0E0],"parents":[2147483647,0,0,1,1,2,2,3,3,4,4,5,5,6,6,7,7,8,8,9,9,10,10,11,11,12,12,13,13,14,14,15,15,16,16,17,17,18,18,19,19,20,20,21,21,22,22,24,24,26,26,27,27,29,29,30,30,31,31,32,32,33,33,34,34,35,35,36,36,37,37,38,38,39,39,40,40,42,42,43,43,44,44,45,45,46,46,53,53,56,56],"right_children":[2,4,6,8,10,12,14,16,18,20,22,24,26,28,30,32,34,36,38,40,42,44,46,-1,48,-1,50,52,-1,54,56,58,60,62,64,66,68,70,72,74,76,-1,78,80,82,84,86,-1,-1,-1,-1,-1,-1,88,-1,-1,90,-1,-1,-1,-1,-1,-1,-1,-1,-1,-1,-1,-1,-1,-1,-1,-1,-1,-1,-1,-1,-1,-1,-1,-1,-1,-1,-1,-1,-1,-1,-1,-1,-1,-1],"split_conditions":[2.65E2,1.4E2,4.8E1,1.3E2,1.3E1,3.8E1,6.8E1,2.4E1,6.8E1,1.62E2,2.4E1,1.3E1,4.2E1,5.5E1,7.5E1,7E1,7E1,1.37E2,1.25E2,1.44E2,1.63E2,2.36E2,4.3E1,8.858235E0,2.4E1,2.3639807E1,4.3E1,5E1,8.806516E1,7.4E1,7.9E1,1.3E1,4E0,1E2,1.42E2,5E1,1.38E2,1.37E2,1.37E2,1.42E2,1.51E2,2.0671062E1,2.43E2,2.31E2,2.49E2,1.66E2,2.43E2,3.465585E0,4.920626E0,1.0424198E-1,1.5391789E1,-7.873375E-1,-3.707753E0,7E1,-6.3857512E0,2.2439636E1,2.29E2,-1.5552961E0,1.8481451E0,7.0064425E-1,2.5896003E-2,-4.0904891E-1,2.15176E-2,1.442881E-1,-4.826656E-2,5.860572E0,1.892347E1,-6.124464E-1,3.4786472E0,4.1447797E0,4.8816583E-1,-1.3256059E0,3.782374E-1,-1.3914856E0,-7.347206E-1,-2.242649E0,-1.2820866E0,3.6873162E-1,4.083216E0,-1.3789873E0,-2.073189E0,1.3436773E0,-1.7067765E0,3.6983309E0,-1.969667E-1,-5.7968564E-2,7.675652E-2,-1.2166857E0,-1.7720827E0,7.768161E-1,9.678506E-2],"split_indices":[1,1,0,1,0,0,0,1,0,1,0,0,0,0,0,0,0,1,0,1,1,1,0,0,0,0,0,0,0,0,0,0,1,1,0,0,1,1,0,1,1,0,1,1,1,1,1,0,0,0,0,0,0,0,0,0,0,0,0,0,0,0,0,0,0,0,0,0,0,0,0,0,0,0,0,0,0,0,0,0,0,0,0,0,0,0,0,0,0,0,0],"split_type":[0,0,0,0,0,0,0,0,0,0,0,0,0,0,0,0,0,0,0,0,0,0,0,0,0,0,0,0,0,0,0,0,0,0,0,0,0,0,0,0,0,0,0,0,0,0,0,0,0,0,0,0,0,0,0,0,0,0,0,0,0,0,0,0,0,0,0,0,0,0,0,0,0,0,0,0,0,0,0,0,0,0,0,0,0,0,0,0,0,0,0],"sum_hessian":[3.2935776E7,3.278882E7,1.46957E5,1.0278535E7,2.2510284E7,2.021E3,1.44936E5,9.024493E6,1.254042E6,6.2126E4,2.2448158E7,1.313E3,7.08E2,4.023E3,1.40913E5,7.02488E5,8.322005E6,7.2987E4,1.181055E6,1.5636E4,4.649E4,1.35348E5,2.231281E7,6.49E2,6.64E2,1.54E2,5.54E2,3.851E3,1.72E2,4.986E3,1.35927E5,8.8295E4,6.14193E5,1.02732E6,7.294685E6,2.7896E4,4.5091E4,1.95194E5,9.85861E5,4.167E3,1.1469E4,1.971E3,4.4519E4,1.03224E5,3.2124E4,1.76212E5,2.2136598E7,4.76E2,1.88E2,9.8E1,4.56E2,3.235E3,6.16E2,4.853E3,1.33E2,1.91E2,1.35736E5,1.3595E4,7.47E4,7.7478E4,5.36715E5,8.14662E5,2.12658E5,2.519411E6,4.775274E6,2.3977E4,3.919E3,1.895E4,2.6141E4,4.8876E4,1.46318E5,1.48423E5,8.37438E5,2.646E3,1.521E3,7.193E3,4.276E3,3.4872E4,9.647E3,7.9197E4,2.4027E4,1.7626E4,1.4498E4,5.4112E4,1.221E5,1.9087692E7,3.048906E6,2.744E3,2.109E3,1.08466E5,2.727E4],"tree_param":{"num_deleted":"0","num_feature":"2","num_nodes":"91","size_leaf_vector":"1"}},{"base_weights":[3.207742E-5,1.899604E-1,-9.2732266E-2,-5.81433E-2,7.6979184E-1,-5.225631E-1,-3.948393E-2,2.0353872E-1,-7.275797E-1,4.971051E0,7.088974E-1,-4.412421E-1,-1.4313494E0,7.1630806E-1,-1.13852926E-1,6.901426E-2,1.5562638E1,2.9664266E0,-9.076855E-1,1.1593255E1,-3.2555218E0,2.3490039E-1,1.0265354E0,-4.9984738E-1,1.5537868E0,-1.6193564E0,-6.356934E-1,2.2847009E0,4.1911602E-1,-4.260503E-1,-1.356637E-2,-5.743787E-1,3.042049E-1,9.072775E0,2.1036041E1,4.060924E-1,7.31371E0,-1.1177732E0,6.427646E-1,7.5782814E0,2.171919E2,-2.2844349E1,1.8866396E0,7.1613556E-1,-2.2436547E0,1.4943811E0,4.8867634E-1,2.8037714E-2,-6.789837E-1,6.545313E0,2.622356E-1,-1.6316078E0,1.6743315E0,-5.882744E-1,-1.0975698E0,1.0924698E0,1.9349094E1,-1.740975E0,8.7629855E-1,1.4248475E0,-5.103787E-1,2.1150815E0,-4.1662168E-2,3.1189522E-1,-2.662029E-1,4.405456E0,6.778933E-2,4.87434E0,5.6369677E-3,2.5996977E1,3.2835236E0,-1.2983942E-1,3.615073E-1,4.7039924E0,4.8399758E-1,-5.2626854E-1,-2.6109773E-1,-2.0245521E-1,1.3290417E0,1.0990825E0,1.2920707E1,1.05028404E2,4.5387165E1,-7.4884996E0,-6.108142E0,2.7255661E0,-3.362602E0,3.7694412E-1,-1.8246176E-2,-9.279268E-1,-4.1091442E-2,7.638505E-1,2.628473E-1,-4.005997E-2,2.1081844E-1,4.7702685E-1,-1.0411861E-1,-4.789578E-1,-1.7866004E-1,3.1958798E-1,2.9366074E0,-1.9089709E-1,3.8200596E-1,-4.9510685E-1,-2.996409E-1,5.976829E-1,3.8628468E-1,-1.5119083E-1,-1.945103E-1,-3.414956E-1,-2.7956316E-1,1.01757795E-1,1.0499635E0,2.342165E1,7.562697E-1,-7.191793E-1,-4.505292E-2,2.0308542E0,1.3065326E-1,8.9093125E-1,-2.3606503E-1,-3.7257212E-1,-9.849864E-2,5.087871E-1,3.2250748E0,9.282072E-2,-4.6017844E-2],"categories":[],"categories_nodes":[],"categories_segments":[],"categories_sizes":[],"default_left":[0,0,0,0,0,0,0,0,0,0,0,0,0,0,0,0,0,0,0,0,0,0,0,0,0,0,0,0,0,0,0,0,0,0,0,0,0,0,0,0,0,0,0,0,0,0,0,0,0,0,0,0,0,0,0,0,0,0,0,0,0,0,0,0,0,0,0,0,0,0,0,0,0,0,0,0,0,0,0,0,0,0,0,0,0,0,0,0,0,0,0,0,0,0,0,0,0,0,0,0,0,0,0,0,0,0,0,0,0,0,0,0,0,0,0,0,0,0,0,0,0,0,0,0,0,0,0],"id":8,"left_children":[1,3,5,7,9,11,13,15,17,19,21,23,25,27,29,31,33,35,37,39,41,43,45,47,49,51,53,55,57,59,61,63,65,67,69,71,73,75,77,79,81,83,85,87,89,91,93,95,97,99,101,103,105,107,109,111,113,115,117,119,121,123,125,-1,-1,-1,-1,-1,-1,-1,-1,-1,-1,-1,-1,-1,-1,-1,-1,-1,-1,-1,-1,-1,-1,-1,-1,-1,-1,-1,-1,-1,-1,-1,-1,-1,-1,-1,-1,-1,-1,-1,-1,-1,-1,-1,-1,-1,-1,-1,-1,-1,-1,-1,-1,-1,-1,-1,-1,-1,-1,-1,-1,-1,-1,-1,-1],"loss_changes":[5.802815E5,1.5547819E6,5.064618E5,1.325938E6,8.285651E5,1.8025775E5,1.1066664E6,1.1243755E7,1.4152565E6,2.520846E6,4.8065088E5,2.6175681E5,2.9966406E4,8.221359E5,5.612215E5,8.163074E5,1.67817E6,1.1007256E6,6.6068325E5,2.1160182E7,2.0787856E6,1.5278694E6,4.8099762E5,2.0566475E5,4.1187862E5,6.5415E3,8.379912E2,5.716412E6,1.464382E6,6.802288E5,8.113904E5,7.29459E5,4.4448815E6,1.4044251E6,1.6971246E7,4.171411E4,1.7480855E6,2.8131675E5,1.2078659E6,3.493493E6,4.247444E6,2.205875E4,1.5410954E6,4.5033456E5,3.7269644E5,6.6472525E5,1.1842981E5,3.2287288E5,1.2433519E5,2.3341256E5,4.6116027E4,1.9136875E3,7.133032E1,1.7561035E2,2.300293E1,4.762659E5,1.8132344E7,2.7042275E5,3.179046E6,6.489059E5,5.550986E5,6.396307E5,5.252296E5,0E0,0E0,0E0,0E0,0E0,0E0,0E0,0E0,0E0,0E0,0E0,0E0,0E0,0E0,0E0,0E0,0E0,0E0,0E0,0E0,0E0,0E0,0E0,0E0,0E0,0E0,0E0,0E0,0E0,0E0,0E0,0E0,0E0,0E0,0E0,0E0,0E0,0E0,0E0,0E0,0E0,0E0,0E0,0E0,0E0,0E0,0E0,0E0,0E0,0E0,0E0,0E0,0E0,0E0,0E0,0E0,0E0,0E0,0E0,0E0,0E0,0E0,0E0,0E0],"parents":[2147483647,0,0,1,1,2,2,3,3,4,4,5,5,6,6,7,7,8,8,9,9,10,10,11,11,12,12,13,13,14,14,15,15,16,16,17,17,18,18,19,19,20,20,21,21,22,22,23,23,24,24,25,25,26,26,27,27,28,28,29,29,30,30,31,31,32,32,33,33,34,34,35,35,36,36,37,37,38,38,39,39,40,40,41,41,42,42,43,43,44,44,45,45,46,46,47,47,48,48,49,49,50,50,51,51,52,52,53,53,54,54,55,55,56,56,57,57,58,58,59,59,60,60,61,61,62,62],"right_children":[2,4,6,8,10,12,14,16,18,20,22,24,26,28,30,32,34,36,38,40,42,44,46,48,50,52,54,56,58,60,62,64,66,68,70,72,74,76,78,80,82,84,86,88,90,92,94,96,98,100,102,104,106,108,110,112,114,116,118,120,122,124,126,-1,-1,-1,-1,-1,-1,-1,-1,-1,-1,-1,-1,-1,-1,-1,-1,-1,-1,-1,-1,-1,-1,-1,-1,-1,-1,-1,-1,-1,-1,-1,-1,-1,-1,-1,-1,-1,-1,-1,-1,-1,-1,-1,-1,-1,-1,-1,-1,-1,-1,-1,-1,-1,-1,-1,-1,-1,-1,-1,-1,-1,-1,-1,-1],"split_conditions":[1.4E2,1.16E2,1.43E2,1E2,1.25E2,2.62E2,1.61E2,9.3E1,4.8E1,1.51E2,1.4E2,2.43E2,1.42E2,7.9E1,1.66E2,9.2E1,1.25E2,3.5E1,2.38E2,1.45E2,1.66E2,1.3E2,1.37E2,1.41E2,2.46E2,2.65E2,2.64E2,7.5E1,1.25E2,4.8E1,1.7E2,4.1E1,1E2,7.9E1,1.38E2,1.13E2,4.3E1,1.14E2,1.14E2,1.38E2,1.48E2,1.58E2,2.39E2,1.37E2,1.37E2,1.86E2,1.38E2,1.3E2,5E1,2.44E2,2.49E2,2.64E2,1.41E2,2.63E2,2.65E2,6.8E1,1.44E2,1.51E2,1.41E2,1.63E2,1.3E2,2.46E2,2.3E2,3.1189522E-1,-2.662029E-1,4.405456E0,6.778933E-2,4.87434E0,5.6369677E-3,2.5996977E1,3.2835236E0,-1.2983942E-1,3.615073E-1,4.7039924E0,4.8399758E-1,-5.2626854E-1,-2.6109773E-1,-2.0245521E-1,1.3290417E0,1.0990825E0,1.2920707E1,1.05028404E2,4.5387165E1,-7.4884996E0,-6.108142E0,2.7255661E0,-3.362602E0,3.7694412E-1,-1.8246176E-2,-9.279268E-1,-4.1091442E-2,7.638505E-1,2.628473E-1,-4.005997E-2,2.1081844E-1,4.7702685E-1,-1.0411861E-1,-4.789578E-1,-1.7866004E-1,3.1958798E-1,2.9366074E0,-1.9089709E-1,3.8200596E-1,-4.9510685E-1,-2.996409E-1,5.976829E-1,3.8628468E-1,-1.5119083E-1,-1.945103E-1,-3.414956E-1,-2.7956316E-1,1.01757795E-1,1.0499635E0,2.342165E1,7.562697E-1,-7.191793E-1,-4.505292E-2,2.0308542E0,1.3065326E-1,8.9093125E-1,-2.3606503E-1,-3.7257212E-1,-9.849864E-2,5.087871E-1,3.2250748E0,9.282072E-2,-4.6017844E-2],"split_indices":[0,0,0,0,0,1,0,0,1,1,1,1,0,1,0,1,1,1,1,1,1,1,0,0,1,1,1,1,1,1,0,1,1,1,1,0,1,1,0,1,1,1,1,0,0,1,0,1,1,1,1,1,0,1,1,1,0,0,1,0,1,1,0,0,0,0,0,0,0,0,0,0,0,0,0,0,0,0,0,0,0,0,0,0,0,0,0,0,0,0,0,0,0,0,0,0,0,0,0,0,0,0,0,0,0,0,0,0,0,0,0,0,0,0,0,0,0,0,0,0,0,0,0,0,0,0,0],"split_type":[0,0,0,0,0,0,0,0,0,0,0,0,0,0,0,0,0,0,0,0,0,0,0,0,0,0,0,0,0,0,0,0,0,0,0,0,0,0,0,0,0,0,0,0,0,0,0,0,0,0,0,0,0,0,0,0,0,0,0,0,0,0,0,0,0,0,0,0,0,0,0,0,0,0,0,0,0,0,0,0,0,0,0,0,0,0,0,0,0,0,0,0,0,0,0,0,0,0,0,0,0,0,0,0,0,0,0,0,0,0,0,0,0,0,0,0,0,0,0,0,0,0,0,0,0,0,0],"sum_hessian":[3.2935776E7,1.0807728E7,2.2128048E7,7.569024E6,3.238704E6,2.439106E6,1.9688942E7,5.441822E6,2.127202E6,4.6271E4,3.192433E6,2.238775E6,2.00331E5,1.76381E6,1.7925132E7,5.394574E6,4.7248E4,9.8892E4,2.02831E6,2.5635E4,2.0636E4,1.280942E6,1.911491E6,2.174887E6,6.3888E4,1.62041E5,3.829E4,2.80978E5,1.482832E6,4.358108E6,1.3567024E7,1.444089E6,3.950485E6,2.1618E4,2.563E4,6.2238E4,3.6654E4,1.786269E6,2.42041E5,2.5145E4,4.9E2,4.29E3,1.6346E4,1.072673E6,2.08269E5,1.02228E6,8.89211E5,5.51046E5,1.623841E6,1.3132E4,5.0756E4,1.61441E5,6E2,3.4727E4,3.563E3,2.6263E5,1.8348E4,2.59019E5,1.223813E6,1.89906E5,4.168202E6,1.76736E5,1.3390288E7,2.34535E5,1.209554E6,2.1376E4,3.929109E6,1.206E4,9.558E3,3.415E3,2.2215E4,3.036E4,3.1878E4,1.4853E4,2.1801E4,5.00062E5,1.286207E6,1.7957E5,6.2471E4,2.2648E4,2.497E3,1.61E2,3.29E2,2.311E3,1.979E3,1.0548E4,5.798E3,6.32672E5,4.40001E5,1.48423E5,5.9846E4,3.78438E5,6.43842E5,2.27605E5,6.61606E5,1.06701E5,4.44345E5,1.35374E5,1.488467E6,4.883E3,8.249E3,2.6874E4,2.3882E4,1.56794E5,4.647E3,3.27E2,2.73E2,1.4456E4,2.0271E4,2.855E3,7.08E2,2.00039E5,6.2591E4,4.086E3,1.4262E4,1.83369E5,7.565E4,8.5165E4,1.138648E6,1.11807E5,7.8099E4,8.30602E5,3.3376E6,1.68556E5,8.18E3,3.232759E6,1.0157529E7],"tree_param":{"num_deleted":"0","num_feature":"2","num_nodes":"127","size_leaf_vector":"1"}},{"base_weights":[2.9357408E-5,7.411441E-2,-1.9294702E-1,3.0722406E-2,1.979951E0,-4.5529795E-1,2.8133118E-1,7.2341484E-1,-2.6850155E-2,1.2962261E0,5.8322796E1,-3.064992E0,-4.294226E-1,5.5077624E0,-1.3597609E-2,1.8657187E-1,1.2795089E1,-6.70084E-2,9.948258E-1,-7.115828E0,1.6043178E0,3.528336E1,4.5167785E0,1.0636217E1,-9.490198E0,5.9138126E0,-4.505417E-1,3.0155405E2,4.5028515E0,1.2803079E-1,-1.3153676E0,-7.971959E-2,1.5377408E0,2.6219413E0,4.1824703E1,-1.0657545E0,-3.3564463E-2,4.51298E0,9.035116E-1,-6.294309E0,-1.2187547E1,2.7758667E0,-2.6677406E-1,8.672575E-1,3.0939758E1,-4.205443E0,8.7717545E1,-3.396907E0,-1.21008215E1,-8.121474E-1,2.7134304E1,-4.0589032E-1,-1.9642785E0,1.24374916E2,6.955882E1,-9.586407E0,4.74363E0,-4.062162E-2,2.9067583E0,-1.6367651E0,-4.2549253E-1,1.1702526E-2,-1.8251287E0,9.952937E-1,-1.6940963E-1,2.181311E1,3.5628867E-1,5.833854E1,3.3761656E0,2.6930275E0,-3.5415277E-1,8.880035E-1,-1.8279897E-2,4.3790093E-1,6.0115542E0,-5.258481E-1,3.3639222E-1,-1.7734067E0,-1.9083987E0,-3.337327E0,-4.143794E0,3.3778504E-1,3.3816063E0,1.5036422E-1,-8.296165E-1,-2.008086E0,-9.081655E-1,-2.8992028E0,6.558456E1,-8.0044883E-1,-1.0975151E0,-4.0658903E0,-2.8163095E0,4.355896E0,-7.258748E-1,7.538675E0,1.0398493E1,-4.3477345E-1,-1.0549402E-1,-1.749568E-1,-6.446423E-1,-7.4721956E-1,-3.4564044E0,1.1786241E1,1.248924E0,-2.2443604E0,-3.8799143E-3,3.0050244E0,2.3312055E-1,-5.158701E-1,3.974768E1,-1.6197923E-1,-4.100322E-3],"categories":[],"categories_nodes":[],"categories_segments":[],"categories_sizes":[],"default_left":[0,0,0,0,0,0,0,0,0,0,0,0,0,0,0,0,0,0,0,0,0,0,0,0,0,0,0,0,0,0,0,0,0,0,0,0,0,0,0,0,0,0,0,0,0,0,0,0,0,0,0,0,0,0,0,0,0,0,0,0,0,0,0,0,0,0,0,0,0,0,0,0,0,0,0,0,0,0,0,0,0,0,0,0,0,0,0,0,0,0,0,0,0,0,0,0,0,0,0,0,0,0,0,0,0,0,0,0,0,0,0,0,0],"id":9,"left_children":[1,3,5,7,9,11,13,15,17,19,21,23,25,27,29,31,33,35,37,39,41,-1,43,45,47,49,51,53,55,57,59,61,63,65,67,69,71,73,75,77,79,81,83,-1,-1,85,87,89,91,93,95,97,99,-1,-1,101,103,105,107,109,111,-1,-1,-1,-1,-1,-1,-1,-1,-1,-1,-1,-1,-1,-1,-1,-1,-1,-1,-1,-1,-1,-1,-1,-1,-1,-1,-1,-1,-1,-1,-1,-1,-1,-1,-1,-1,-1,-1,-1,-1,-1,-1,-1,-1,-1,-1,-1,-1,-1,-1,-1,-1],"loss_changes":[4.708718E5,1.9681415E6,1.13685E6,9.279825E5,2.0409224E7,3.972335E5,5.015839E6,1.157176E7,8.814497E5,1.3566128E6,2.026281E7,5.084364E6,7.803231E5,5.1709224E7,5.678913E5,6.151137E5,2.2452376E7,6.9046006E5,2.6102019E5,7.6978875E4,1.1068919E6,0E0,5.337989E5,2.1093716E7,6.253855E5,2.758815E6,3.9239888E5,4.535636E6,5.877085E5,1.3018689E6,8.643959E4,1.01803275E6,1.053254E6,5.659579E6,9.205806E7,7.718667E5,1.6387144E6,9.7436556E5,4.5817856E5,3.709375E2,4.2985938E3,4.352882E6,3.7309238E5,0E0,0E0,4.5308594E4,3.7949976E7,2.2375781E3,1.0831325E5,3.6177262E5,6.935225E4,3.191523E5,4.2391188E4,0E0,0E0,3.99385E4,3.4155072E6,5.395676E5,2.406961E6,2.4662305E6,3.7795098E3,0E0,0E0,0E0,0E0,0E0,0E0,0E0,0E0,0E0,0E0,0E0,0E0,0E0,0E0,0E0,0E0,0E0,0E0,0E0,0E0,0E0,0E0,0E0,0E0,0E0,0E0,0E0,0E0,0E0,0E0,0E0,0E0,0E0,0E0,0E0,0E0,0E0,0E0,0E0,0E0,0E0,0E0,0E0,0E0,0E0,0E0,0E0,0E0,0E0,0E0,0E0,0E0],"parents":[2147483647,0,0,1,1,2,2,3,3,4,4,5,5,6,6,7,7,8,8,9,9,10,10,11,11,12,12,13,13,14,14,15,15,16,16,17,17,18,18,19,19,20,20,22,22,23,23,24,24,25,25,26,26,27,27,28,28,29,29,30,30,31,31,32,32,33,33,34,34,35,35,36,36,37,37,38,38,39,39,40,40,41,41,42,42,45,45,46,46,47,47,48,48,49,49,50,50,51,51,52,52,55,55,56,56,57,57,58,58,59,59,60,60],"right_children":[2,4,6,8,10,12,14,16,18,20,22,24,26,28,30,32,34,36,38,40,42,-1,44,46,48,50,52,54,56,58,60,62,64,66,68,70,72,74,76,78,80,82,84,-1,-1,86,88,90,92,94,96,98,100,-1,-1,102,104,106,108,110,112,-1,-1,-1,-1,-1,-1,-1,-1,-1,-1,-1,-1,-1,-1,-1,-1,-1,-1,-1,-1,-1,-1,-1,-1,-1,-1,-1,-1,-1,-1,-1,-1,-1,-1,-1,-1,-1,-1,-1,-1,-1,-1,-1,-1,-1,-1,-1,-1,-1,-1,-1,-1],"split_conditions":[2.32E2,2.31E2,2.43E2,6.8E1,2.62E2,3.8E1,2.46E2,5.5E1,2.61E2,4.3E1,2.63E2,2.36E2,4.3E1,1.3E1,2.49E2,1.7E2,1.62E2,7E1,2.5E1,2.4E1,1.86E2,3.528336E1,2.65E2,2.4E1,2.4E1,2.39E2,2.63E2,2.44E2,3.8E1,2.38E2,2.64E2,1.66E2,2.23E2,1.2E1,1.7E2,1.2E1,7.5E1,2.4E1,5.6E1,1.3E1,3.8E1,1.62E2,2.49E2,8.672575E-1,3.0939758E1,1.3E1,2.34E2,2.37E2,2.39E2,2.34E2,4.2E1,5.5E1,2.36E2,1.24374916E2,6.955882E1,2.4E1,4.2E1,1.3E1,2.39E2,2.65E2,2.65E2,1.1702526E-2,-1.8251287E0,9.952937E-1,-1.6940963E-1,2.181311E1,3.5628867E-1,5.833854E1,3.3761656E0,2.6930275E0,-3.5415277E-1,8.880035E-1,-1.8279897E-2,4.3790093E-1,6.0115542E0,-5.258481E-1,3.3639222E-1,-1.7734067E0,-1.9083987E0,-3.337327E0,-4.143794E0,3.3778504E-1,3.3816063E0,1.5036422E-1,-8.296165E-1,-2.008086E0,-9.081655E-1,-2.8992028E0,6.558456E1,-8.0044883E-1,-1.0975151E0,-4.0658903E0,-2.8163095E0,4.355896E0,-7.258748E-1,7.538675E0,1.0398493E1,-4.3477345E-1,-1.0549402E-1,-1.749568E-1,-6.446423E-1,-7.4721956E-1,-3.4564044E0,1.1786241E1,1.248924E0,-2.2443604E0,-3.8799143E-3,3.0050244E0,2.3312055E-1,-5.158701E-1,3.974768E1,-1.6197923E-1,-4.100322E-3],"split_indices":[1,1,1,0,0,0,1,0,0,0,0,1,0,0,0,1,1,0,1,0,0,0,0,0,0,1,0,1,0,0,1,1,1,1,1,1,0,1,1,0,0,0,0,0,0,0,1,1,1,1,0,0,1,0,0,0,0,0,0,0,1,0,0,0,0,0,0,0,0,0,0,0,0,0,0,0,0,0,0,0,0,0,0,0,0,0,0,0,0,0,0,0,0,0,0,0,0,0,0,0,0,0,0,0,0,0,0,0,0,0,0,0,0],"split_type":[0,0,0,0,0,0,0,0,0,0,0,0,0,0,0,0,0,0,0,0,0,0,0,0,0,0,0,0,0,0,0,0,0,0,0,0,0,0,0,0,0,0,0,0,0,0,0,0,0,0,0,0,0,0,0,0,0,0,0,0,0,0,0,0,0,0,0,0,0,0,0,0,0,0,0,0,0,0,0,0,0,0,0,0,0,0,0,0,0,0,0,0,0,0,0,0,0,0,0,0,0,0,0,0,0,0,0,0,0,0,0,0,0],"sum_hessian":[3.2935776E7,2.379912E7,9.136657E6,2.3269324E7,5.29794E5,5.882631E6,3.254026E6,1.785601E6,2.1483724E7,5.23443E5,6.351E3,5.7753E4,5.824878E6,1.73816E5,3.08021E6,1.709575E6,7.6026E4,2.0671216E7,8.12507E5,1.8493E4,5.0495E5,3.021E3,3.33E3,1.8437E4,3.9316E4,1.9328E4,5.80555E6,5.87E2,1.73229E5,2.777976E6,3.02234E5,1.428119E6,2.81456E5,5.6298E4,1.9728E4,6.69766E5,2.0001452E7,2.0554E4,7.91953E5,1.5917E4,2.576E3,3.10522E5,1.94428E5,3.277E3,5.3E1,1.5461E4,2.976E3,1.1793E4,2.7523E4,1.4677E4,4.651E3,5.639209E6,1.66341E5,2.22E2,3.65E2,2.91E3,1.70319E5,2.619018E6,1.58958E5,2.22039E5,8.0195E4,1.400427E6,2.7692E4,1.52419E5,1.29037E5,1.128E3,5.517E4,3.291E3,1.6437E4,7.566E3,6.622E5,1.81204E5,1.9820248E7,1.7177E4,3.377E3,6.0012E4,7.31941E5,2.384E3,1.3533E4,1.562E3,1.014E3,2.60027E5,5.0495E4,1.48718E5,4.571E4,4.967E3,1.0494E4,1.707E3,1.269E3,3.117E3,8.676E3,1.7925E4,9.598E3,1.392E3,1.3285E4,3.676E3,9.75E2,2.7869E5,5.360519E6,1.9606E4,1.46735E5,6.24E2,2.286E3,2.814E3,1.67505E5,9.709E3,2.609309E6,3.6638E4,1.2232E5,2.21903E5,1.36E2,6.2756E4,1.7439E4],"tree_param":{"num_deleted":"0","num_feature":"2","num_nodes":"113","size_leaf_vector":"1"}},{"base_weights":[3.4678756E-5,1.7429626E-1,-7.901969E-2,8.433027E-2,2.409748E0,-9.021357E-2,1.6356025E0,1.438718E-1,-1.2805492E0,8.950278E0,1.0209088E0,-6.413864E-2,-7.8324056E-1,2.26657E1,1.3422027E0,2.0392526E-2,2.6572533E0,-3.8251603E0,-7.496492E-1,7.045592E0,1.0052998E2,-1.3257147E0,1.5740029E0,-1.2531081E-1,4.5398456E-1,-9.063187E0,-6.917026E-1,1.5867262E1,3.5233376E1,5.9872212E0,1.209548E0,-1.297167E-2,1.0954868E0,1.5531882E1,7.7367073E-1,-1.5258172E0,-4.6575103E0,1.4794446E2,-1.4008818E0,2.436038E1,5.0569525E0,2.6130161E1,4.185057E1,2.4947135E0,-4.9758325E0,1.8019754E0,-1.9935416E0,-1.9286441E0,-1.0996028E-1,3.8566003E0,1.7461446E-1,-6.817834E0,-9.529643E0,-1.8209437E0,-5.0484484E-1,6.8568177E0,9.012248E0,1.6574566E1,2.958007E1,-2.99415E0,6.1779266E1,-3.7782357E0,1.3925337E0,3.9219104E-2,-9.2411295E-2,1.4277409E-1,1.4247739E0,4.0860023E0,1.0725023E1,-8.888329E0,2.898591E-1,-1.3063422E0,1.5623207E1,-1.0369935E0,-1.5180515E0,-1.3684993E0,-2.5743288E-1,3.3979437E0,1.7152294E1,8.4748477E-1,5.772544E0,5.4415353E-2,9.862778E0,-2.3766172E0,-6.349099E-2,1.5098087E0,4.8486605E-1,-6.569268E-1,1.0658608E1,3.852785E-1,-1.0330999E0,6.3867176E-1,-3.8327985E-2,6.3425297E1,9.456141E-1,5.0525595E-2,3.1784025E1,-8.167749E-1,-3.1192439E0,5.549339E-1,-6.8771493E-1,-1.004487E-1,-3.9743716E-1,2.408957E0,3.4331799E0,5.4305863E-2,1.076522E1,-5.703765E-1,-2.6163719E0,-1.0402079E0,-4.503353E0,1.5723734E1,3.9610672E-1],"categories":[],"categories_nodes":[],"categories_segments":[],"categories_sizes":[],"default_left":[0,0,0,0,0,0,0,0,0,0,0,0,0,0,0,0,0,0,0,0,0,0,0,0,0,0,0,0,0,0,0,0,0,0,0,0,0,0,0,0,0,0,0,0,0,0,0,0,0,0,0,0,0,0,0,0,0,0,0,0,0,0,0,0,0,0,0,0,0,0,0,0,0,0,0,0,0,0,0,0,0,0,0,0,0,0,0,0,0,0,0,0,0,0,0,0,0,0,0,0,0,0,0,0,0,0,0,0,0,0,0,0,0],"id":10,"left_children":[1,3,5,7,9,11,13,15,17,19,21,23,25,27,29,31,33,35,37,39,41,43,45,47,49,51,53,55,57,59,61,63,65,67,69,71,73,-1,75,77,79,-1,-1,81,83,85,87,89,91,93,95,97,-1,99,101,-1,103,-1,105,107,-1,109,111,-1,-1,-1,-1,-1,-1,-1,-1,-1,-1,-1,-1,-1,-1,-1,-1,-1,-1,-1,-1,-1,-1,-1,-1,-1,-1,-1,-1,-1,-1,-1,-1,-1,-1,-1,-1,-1,-1,-1,-1,-1,-1,-1,-1,-1,-1,-1,-1,-1,-1],"loss_changes":[4.537279E5,2.0671636E6,4.3486672E5,8.029898E5,3.6122055E6,4.0677494E5,9.067339E5,2.9383538E6,5.579678E5,1.2148384E7,4.257248E5,6.87587E5,6.1863975E5,1.7220175E5,8.9300516E4,3.2370547E5,1.0751706E7,1.3644519E5,1.0991554E8,2.3493005E6,7.30513E5,8.724821E5,2.1588969E5,5.37122E5,2.1776458E6,4.547322E5,1.7034703E5,6.274553E4,7.859044E4,7.2267885E6,1.2861645E5,3.7113512E5,6.149149E5,2.186827E6,2.2638628E6,2.873672E6,2.52945E4,0E0,5.854925E5,3.00561E6,1.9377042E6,0E0,0E0,2.148507E6,4.4910656E5,1.4972319E5,1.1746391E5,7.9718475E5,7.667126E5,2.5417952E7,1.3873614E6,1.1905119E5,0E0,1.9835678E5,9.6563016E4,0E0,1.4967031E3,0E0,1.0285244E5,2.4093496E4,0E0,1.7362812E4,5.0048716E5,0E0,0E0,0E0,0E0,0E0,0E0,0E0,0E0,0E0,0E0,0E0,0E0,0E0,0E0,0E0,0E0,0E0,0E0,0E0,0E0,0E0,0E0,0E0,0E0,0E0,0E0,0E0,0E0,0E0,0E0,0E0,0E0,0E0,0E0,0E0,0E0,0E0,0E0,0E0,0E0,0E0,0E0,0E0,0E0,0E0,0E0,0E0,0E0,0E0,0E0],"parents":[2147483647,0,0,1,1,2,2,3,3,4,4,5,5,6,6,7,7,8,8,9,9,10,10,11,11,12,12,13,13,14,14,15,15,16,16,17,17,18,18,19,19,20,20,21,21,22,22,23,23,24,24,25,25,26,26,27,27,28,28,29,29,30,30,31,31,32,32,33,33,34,34,35,35,36,36,38,38,39,39,40,40,43,43,44,44,45,45,46,46,47,47,48,48,49,49,50,50,51,51,53,53,54,54,56,56,58,58,59,59,61,61,62,62],"right_children":[2,4,6,8,10,12,14,16,18,20,22,24,26,28,30,32,34,36,38,40,42,44,46,48,50,52,54,56,58,60,62,64,66,68,70,72,74,-1,76,78,80,-1,-1,82,84,86,88,90,92,94,96,98,-1,100,102,-1,104,-1,106,108,-1,110,112,-1,-1,-1,-1,-1,-1,-1,-1,-1,-1,-1,-1,-1,-1,-1,-1,-1,-1,-1,-1,-1,-1,-1,-1,-1,-1,-1,-1,-1,-1,-1,-1,-1,-1,-1,-1,-1,-1,-1,-1,-1,-1,-1,-1,-1,-1,-1,-1,-1,-1],"split_conditions":[1.4E2,1.38E2,2.65E2,1.37E2,1.25E2,2.63E2,4.8E1,1.3E2,9.3E1,1.14E2,1.42E2,2.43E2,4.3E1,3.8E1,6.8E1,2.61E2,9.3E1,6.8E1,1E2,3.8E1,1.16E2,1.38E2,2.62E2,2.4E1,2.46E2,4.2E1,1.32E2,1.3E1,4.2E1,5.5E1,7.5E1,9E1,1.07E2,9E1,1E2,5.5E1,7.9E1,1.4794446E2,1.25E2,2.4E1,1.07E2,2.6130161E1,4.185057E1,1.37E2,1.4E2,1.48E2,2.65E2,1.3E1,4.3E1,1.3E1,2.65E2,2.4E1,-9.529643E0,4.8E1,2.62E2,6.8568177E0,2.4E1,1.6574566E1,4.3E1,5E1,6.1779266E1,7.4E1,7.9E1,3.9219104E-2,-9.2411295E-2,1.4277409E-1,1.4247739E0,4.0860023E0,1.0725023E1,-8.888329E0,2.898591E-1,-1.3063422E0,1.5623207E1,-1.0369935E0,-1.5180515E0,-1.3684993E0,-2.5743288E-1,3.3979437E0,1.7152294E1,8.4748477E-1,5.772544E0,5.4415353E-2,9.862778E0,-2.3766172E0,-6.349099E-2,1.5098087E0,4.8486605E-1,-6.569268E-1,1.0658608E1,3.852785E-1,-1.0330999E0,6.3867176E-1,-3.8327985E-2,6.3425297E1,9.456141E-1,5.0525595E-2,3.1784025E1,-8.167749E-1,-3.1192439E0,5.549339E-1,-6.8771493E-1,-1.004487E-1,-3.9743716E-1,2.408957E0,3.4331799E0,5.4305863E-2,1.076522E1,-5.703765E-1,-2.6163719E0,-1.0402079E0,-4.503353E0,1.5723734E1,3.9610672E-1],"split_indices":[1,1,1,1,0,1,0,1,0,0,0,1,0,0,0,0,0,0,0,0,0,0,0,0,1,0,0,0,0,0,0,1,1,0,0,0,0,0,0,0,0,0,0,0,0,0,0,0,0,0,0,0,0,0,0,0,0,0,0,0,0,0,0,0,0,0,0,0,0,0,0,0,0,0,0,0,0,0,0,0,0,0,0,0,0,0,0,0,0,0,0,0,0,0,0,0,0,0,0,0,0,0,0,0,0,0,0,0,0,0,0,0,0],"split_type":[0,0,0,0,0,0,0,0,0,0,0,0,0,0,0,0,0,0,0,0,0,0,0,0,0,0,0,0,0,0,0,0,0,0,0,0,0,0,0,0,0,0,0,0,0,0,0,0,0,0,0,0,0,0,0,0,0,0,0,0,0,0,0,0,0,0,0,0,0,0,0,0,0,0,0,0,0,0,0,0,0,0,0,0,0,0,0,0,0,0,0,0,0,0,0,0,0,0,0,0,0,0,0,0,0,0,0,0,0,0,0,0,0],"sum_hessian":[3.2935776E7,1.0278535E7,2.265724E7,9.880879E6,3.97656E5,2.2510284E7,1.46957E5,9.467854E6,4.13025E5,6.9649E4,3.28007E5,2.1694052E7,8.16231E5,2.021E3,1.44936E5,9.024493E6,4.43361E5,7.1296E4,3.41729E5,6.8231E4,1.418E3,6.2564E4,2.65443E5,1.9403216E7,2.290838E6,8.924E3,8.07307E5,1.313E3,7.08E2,4.023E3,1.40913E5,8.75286E6,2.71633E5,5.6585E4,3.86776E5,1.895E4,5.2346E4,4.49E2,3.4128E5,7.028E3,6.1203E4,1.057E3,3.61E2,3.0569E4,3.1995E4,2.495E5,1.5943E4,1.63771E5,1.9239444E7,1.73816E5,2.117022E6,8.122E3,8.02E2,1.14619E5,6.92688E5,6.49E2,6.64E2,1.54E2,5.54E2,3.851E3,1.72E2,4.986E3,1.35927E5,5.886189E6,2.866671E6,2.32251E5,3.9382E4,5.1698E4,4.887E3,2.433E3,3.84343E5,1.8001E4,9.49E2,1.3147E4,3.9199E4,5.0015E4,2.91265E5,5.031E3,1.997E3,5.2883E4,8.32E3,2.8407E4,2.162E3,1.9769E4,1.2226E4,1.3564E4,2.35936E5,1.5861E4,8.2E1,5.2479E4,1.11292E5,1.51752E5,1.9087692E7,5.87E2,1.73229E5,2.116899E6,1.23E2,3.789E3,4.333E3,1.3045E4,1.01574E5,5.73727E5,1.18961E5,4.76E2,1.88E2,9.8E1,4.56E2,3.235E3,6.16E2,4.853E3,1.33E2,1.91E2,1.35736E5],"tree_param":{"num_deleted":"0","num_feature":"2","num_nodes":"113","size_leaf_vector":"1"}},{"base_weights":[3.862133E-5,5.068843E-2,-1.3510293E-1,1.956392E-2,1.1039644E0,1.2906934E-2,-4.5179644E-1,4.2121938E-1,-1.381934E-2,7.328421E-1,3.0635334E1,-5.143293E-2,2.080274E0,6.056195E-1,-5.4573673E-1,5.56805E-2,8.640879E0,-7.6614124E-1,1.0389433E-2,-9.7579503E-1,1.563543E0,6.52188E1,2.436895E0,-7.077776E-1,4.6688367E-2,1.1123078E0,2.5243683E0,1.6194417E0,-6.0743225E-1,-8.584371E-1,-1.5549223E-1,-1.4423262E-1,1.3837904E0,1.3945284E0,2.9318747E1,6.2448735E0,-8.4625524E-1,1.5821223E0,-1.5577577E-2,-6.363663E-1,-7.5087194E0,3.4678075E0,-1.3667035E-1,2.4713346E1,3.8346037E-1,1.9568809E0,3.162884E1,1.1252964E0,-1.0566539E0,6.4557023E0,-1.2594848E-2,3.147827E0,2.3462042E-1,3.9979095E0,1.2473418E0,4.6967077E-1,7.5153356E0,-2.0240245E0,1.823754E0,-8.5659695E-1,-1.854526E1,2.594361E-1,-6.9437236E-1,2.7204895E-1,-1.8472363E-1,-1.9676434E-1,1.1292869E0,1.5263217E1,1.1457097E-1,4.0853783E1,2.3748755E0,-9.3677765E-1,3.7105172E0,-1.5965831E-1,-4.0861198E-1,4.4975713E-2,1.2269309E0,-1.2545536E-2,1.858401E-1,-1.4174176E0,-3.87591E-2,-4.566799E0,-2.128882E0,5.344301E-1,1.7468045E0,1.0754231E-1,-5.552396E-1,6.1865455E-1,5.099237E-1,2.1841003E1,-1.9925072E1,9.2026114E-1,-1.1106505E0,-3.3152515E-1,9.551057E-1,3.2381296E0,-2.7534227E0,-1.808667E-1,3.3484094E-2,5.9331465E-1,1.0922986E0,-1.4954014E-1,4.6598166E-1,7.194249E-1,1.972909E0,-4.2617097E-1,8.961304E-1,-4.9396816E-1,5.5934244E-1,-1.8190129E-2,3.6556132E0,-3.0416402E-1,-6.885083E-1,1.1403165E0,-1.3193685E-1,1.7727011E-1,-2.715496E-1,7.283008E-2,1.8411339E1,-3.6999187E-1,-6.6656485E-2],"categories":[],"categories_nodes":[],"categories_segments":[],"categories_sizes":[],"default_left":[0,0,0,0,0,0,0,0,0,0,0,0,0,0,0,0,0,0,0,0,0,0,0,0,0,0,0,0,0,0,0,0,0,0,0,0,0,0,0,0,0,0,0,0,0,0,0,0,0,0,0,0,0,0,0,0,0,0,0,0,0,0,0,0,0,0,0,0,0,0,0,0,0,0,0,0,0,0,0,0,0,0,0,0,0,0,0,0,0,0,0,0,0,0,0,0,0,0,0,0,0,0,0,0,0,0,0,0,0,0,0,0,0,0,0,0,0,0,0,0,0],"id":11,"left_children":[1,3,5,7,9,11,13,15,17,19,21,23,25,27,29,31,33,35,37,39,41,43,45,47,49,51,53,55,57,59,61,63,65,67,69,71,73,75,77,79,81,83,85,-1,-1,87,89,91,93,95,97,99,101,103,105,107,109,111,113,115,-1,117,119,-1,-1,-1,-1,-1,-1,-1,-1,-1,-1,-1,-1,-1,-1,-1,-1,-1,-1,-1,-1,-1,-1,-1,-1,-1,-1,-1,-1,-1,-1,-1,-1,-1,-1,-1,-1,-1,-1,-1,-1,-1,-1,-1,-1,-1,-1,-1,-1,-1,-1,-1,-1,-1,-1,-1,-1,-1,-1],"loss_changes":[2.2544189E5,7.853731E5,4.2087203E5,3.1200838E5,7.5360465E6,8.139195E5,2.8407512E5,5.365028E6,3.9127856E5,9.638649E5,8.3221955E6,3.8218103E5,7.938831E4,2.8695956E5,3.2050606E5,4.539039E5,1.1391776E7,3.7620038E5,8.494843E5,4.9260447E5,1.4793858E6,4.2053E6,6.582508E4,4.9357125E5,1.961504E6,1.0377277E5,2.382285E5,8.61632E5,3.6585975E5,1.6350862E5,2.6124288E5,7.364023E5,1.0859986E6,2.820988E6,4.512076E7,4.340956E5,1.0726772E5,1.2149331E6,3.4120925E5,4.37877E5,3.48005E4,8.5591E5,2.0488686E5,0E0,0E0,1.2177734E2,3.1164616E5,1.15705E6,1.331555E5,3.209085E6,3.7504847E5,1.0091391E4,3.9235703E4,2.42448E5,3.1481562E5,3.1396062E5,7.3385475E5,1.8372219E4,1.7504656E5,1.02505625E5,0E0,6.724182E5,1.2934122E5,0E0,0E0,0E0,0E0,0E0,0E0,0E0,0E0,0E0,0E0,0E0,0E0,0E0,0E0,0E0,0E0,0E0,0E0,0E0,0E0,0E0,0E0,0E0,0E0,0E0,0E0,0E0,0E0,0E0,0E0,0E0,0E0,0E0,0E0,0E0,0E0,0E0,0E0,0E0,0E0,0E0,0E0,0E0,0E0,0E0,0E0,0E0,0E0,0E0,0E0,0E0,0E0,0E0,0E0,0E0,0E0,0E0,0E0],"parents":[2147483647,0,0,1,1,2,2,3,3,4,4,5,5,6,6,7,7,8,8,9,9,10,10,11,11,12,12,13,13,14,14,15,15,16,16,17,17,18,18,19,19,20,20,21,21,22,22,23,23,24,24,25,25,26,26,27,27,28,28,29,29,30,30,31,31,32,32,33,33,34,34,35,35,36,36,37,37,38,38,39,39,40,40,41,41,42,42,45,45,46,46,47,47,48,48,49,49,50,50,51,51,52,52,53,53,54,54,55,55,56,56,57,57,58,58,59,59,61,61,62,62],"right_children":[2,4,6,8,10,12,14,16,18,20,22,24,26,28,30,32,34,36,38,40,42,44,46,48,50,52,54,56,58,60,62,64,66,68,70,72,74,76,78,80,82,84,86,-1,-1,88,90,92,94,96,98,100,102,104,106,108,110,112,114,116,-1,118,120,-1,-1,-1,-1,-1,-1,-1,-1,-1,-1,-1,-1,-1,-1,-1,-1,-1,-1,-1,-1,-1,-1,-1,-1,-1,-1,-1,-1,-1,-1,-1,-1,-1,-1,-1,-1,-1,-1,-1,-1,-1,-1,-1,-1,-1,-1,-1,-1,-1,-1,-1,-1,-1,-1,-1,-1,-1,-1],"split_conditions":[2.33E2,2.31E2,2.34E2,6.8E1,2.62E2,2.31E2,2.36E2,5.5E1,7E1,1.32E2,2.63E2,7E1,2.37E2,2.46E2,2.39E2,1.86E2,1.62E2,1.2E1,7.9E1,1.16E2,1.86E2,2.32E2,2.65E2,4.2E1,7.5E1,2.34E2,2.49E2,2.38E2,2.61E2,2.65E2,2.62E2,4.3E1,4.8E1,1.2E1,1.7E2,4E0,1.58E2,1.42E2,2.61E2,4.3E1,1.25E2,1.61E2,2.49E2,2.4713346E1,3.8346037E-1,2.32E2,2.32E2,2.49E2,2.65E2,2.63E2,2.36E2,2.33E2,2.36E2,2.43E2,2.55E2,2.36E2,2.34E2,2.34E2,2.63E2,2.36E2,-1.854526E1,2.65E2,2.38E2,2.7204895E-1,-1.8472363E-1,-1.9676434E-1,1.1292869E0,1.5263217E1,1.1457097E-1,4.0853783E1,2.3748755E0,-9.3677765E-1,3.7105172E0,-1.5965831E-1,-4.0861198E-1,4.4975713E-2,1.2269309E0,-1.2545536E-2,1.858401E-1,-1.4174176E0,-3.87591E-2,-4.566799E0,-2.128882E0,5.344301E-1,1.7468045E0,1.0754231E-1,-5.552396E-1,6.1865455E-1,5.099237E-1,2.1841003E1,-1.9925072E1,9.2026114E-1,-1.1106505E0,-3.3152515E-1,9.551057E-1,3.2381296E0,-2.7534227E0,-1.808667E-1,3.3484094E-2,5.9331465E-1,1.0922986E0,-1.4954014E-1,4.6598166E-1,7.194249E-1,1.972909E0,-4.2617097E-1,8.961304E-1,-4.9396816E-1,5.5934244E-1,-1.8190129E-2,3.6556132E0,-3.0416402E-1,-6.885083E-1,1.1403165E0,-1.3193685E-1,1.7727011E-1,-2.715496E-1,7.283008E-2,1.8411339E1,-3.6999187E-1,-6.6656485E-2],"split_indices":[1,1,0,0,0,0,1,0,0,0,0,0,1,0,1,1,1,1,0,0,0,1,0,0,0,1,1,0,0,0,1,0,0,1,1,1,1,1,0,0,0,0,0,0,0,1,1,1,1,1,1,0,1,1,1,0,1,1,0,0,0,0,0,0,0,0,0,0,0,0,0,0,0,0,0,0,0,0,0,0,0,0,0,0,0,0,0,0,0,0,0,0,0,0,0,0,0,0,0,0,0,0,0,0,0,0,0,0,0,0,0,0,0,0,0,0,0,0,0,0,0],"split_type":[0,0,0,0,0,0,0,0,0,0,0,0,0,0,0,0,0,0,0,0,0,0,0,0,0,0,0,0,0,0,0,0,0,0,0,0,0,0,0,0,0,0,0,0,0,0,0,0,0,0,0,0,0,0,0,0,0,0,0,0,0,0,0,0,0,0,0,0,0,0,0,0,0,0,0,0,0,0,0,0,0,0,0,0,0,0,0,0,0,0,0,0,0,0,0,0,0,0,0,0,0,0,0,0,0,0,0,0,0,0,0,0,0,0,0,0,0,0,0,0,0],"sum_hessian":[3.2935776E7,2.3956936E7,8.978839E6,2.3269324E7,6.87612E5,6.119044E6,2.859795E6,1.785601E6,2.1483724E7,6.79079E5,8.533E3,5.934358E6,1.84686E5,2.33333E5,2.626462E6,1.709575E6,7.6026E4,6.69766E5,2.0813958E7,2.22149E5,4.5693E5,3.832E3,4.701E3,7.71786E5,5.162572E6,5.8085E4,1.26601E5,1.27104E5,1.06229E5,1.458097E6,1.168365E6,1.48591E6,2.23665E5,5.6298E4,1.9728E4,7.566E3,6.622E5,3.38283E5,2.0475676E7,2.11178E5,1.0971E4,2.15531E5,2.41399E5,3.021E3,8.11E2,4.626E3,7.5E1,1.23402E5,6.48384E5,4.7315E4,5.115257E6,1.7499E4,4.0586E4,5.8777E4,6.7824E4,1.06363E5,2.0741E4,6.712E4,3.9109E4,1.458054E6,4.3E1,6.601E5,5.08265E5,4.60158E5,1.025752E6,1.20456E5,1.03209E5,1.128E3,5.517E4,3.291E3,1.6437E4,2.991E3,4.575E3,4.11587E5,2.50613E5,2.15312E5,1.22971E5,1.9663168E7,8.12507E5,2.3305E4,1.87873E5,5.55E2,1.0416E4,1.25593E5,8.9938E4,1.87297E5,5.4102E4,3.277E3,1.349E3,5.3E1,2.2E1,8.7998E4,3.5404E4,6.41063E5,7.321E3,3.7038E4,1.0277E4,8.89231E5,4.226026E6,5.19E3,1.2309E4,2.6085E4,1.4501E4,3.6273E4,2.2504E4,2.6771E4,4.1053E4,4.2254E4,6.4109E4,7.91E3,1.2831E4,1.4199E4,5.2921E4,2.0874E4,1.8235E4,4.7334E4,1.41072E6,6.59921E5,1.79E2,2.37355E5,2.7091E5],"tree_param":{"num_deleted":"0","num_feature":"2","num_nodes":"121","size_leaf_vector":"1"}},{"base_weights":[2.9930696E-5,1.2861088E-1,-5.8301263E-2,6.568979E-2,1.692058E0,-3.7516645E-1,-1.1814339E-2,1.07288085E-1,-8.878742E-1,6.290717E0,7.155626E-1,-8.81107E0,-2.864276E-1,8.0227906E-1,-4.6274904E-2,2.3205046E-2,1.9438031E0,-2.6488752E0,-5.204643E-1,4.9567103E0,7.0431435E1,-9.066956E-1,1.2459412E0,-2.4606855E0,-1.4145568E1,2.2296183E1,-3.0299532E-1,7.0081973E-1,9.749545E0,-5.061315E-1,6.5791584E-3,-1.4562333E-1,1.730821E-1,1.0840506E1,6.541491E-1,-6.540752E0,-2.2523446E0,1.03663506E2,-9.767714E-1,1.678318E1,3.5984132E0,1.8302282E1,2.9333832E1,-1.22270495E-1,-1.3642159E1,4.0953226E0,7.929103E-1,-6.1719623E0,1.091909E1,-2.3820128E0,-1.9765825E1,6.048426E1,-6.5839562E0,-1.4350791E0,-1.9890124E-1,-5.203503E0,8.177351E-1,2.6048958E1,-1.3309643E-1,-6.196542E-1,7.3407097E0,3.2862942E0,-2.5395367E-3,2.9936971E-2,-2.4058546E-1,4.751058E-1,-1.3060267E-2,2.7934227E0,7.886606E0,-8.4768707E-1,6.9198185E-1,-1.1347107E0,-3.1950977E0,5.6057805E-1,-9.675972E-1,-9.54194E-1,-1.7949605E-1,2.297165E0,1.1927608E1,6.129416E-1,4.044752E0,-2.4295108E-1,5.500782E0,-3.2183337E0,-4.75835E0,2.2853425E-1,1.2883804E0,2.9540384E-1,-4.7420388E-1,-4.5197883E-1,-4.6186194E0,1.5527613E0,6.125575E0,-6.9571954E-1,-7.435771E-1,-5.3735867E0,-6.965723E0,-6.557363E0,5.7867214E1,3.1288692E-1,-5.4297596E-1,3.1958365E-1,-1.0194248E-1,-1.7909628E0,-1.3594747E0,1.8851915E1,1.744043E-1,2.7209336E-1,1.6744364E1,1.2500477E-1,-2.2977085E1,-1.6440207E0,-1.647874E-1,-5.381166E-1,3.4835825E0,1.4251956E1,4.06693E-1,6.1580684E-2,-2.6239803E-2],"categories":[],"categories_nodes":[],"categories_segments":[],"categories_sizes":[],"default_left":[0,0,0,0,0,0,0,0,0,0,0,0,0,0,0,0,0,0,0,0,0,0,0,0,0,0,0,0,0,0,0,0,0,0,0,0,0,0,0,0,0,0,0,0,0,0,0,0,0,0,0,0,0,0,0,0,0,0,0,0,0,0,0,0,0,0,0,0,0,0,0,0,0,0,0,0,0,0,0,0,0,0,0,0,0,0,0,0,0,0,0,0,0,0,0,0,0,0,0,0,0,0,0,0,0,0,0,0,0,0,0,0,0,0,0,0,0,0,0],"id":12,"left_children":[1,3,5,7,9,11,13,15,17,19,21,23,25,27,29,31,33,35,37,39,41,43,45,47,49,51,53,55,57,59,61,63,65,67,69,71,73,-1,75,77,79,-1,-1,81,83,85,87,89,91,93,95,97,-1,99,101,103,105,107,109,111,113,115,117,-1,-1,-1,-1,-1,-1,-1,-1,-1,-1,-1,-1,-1,-1,-1,-1,-1,-1,-1,-1,-1,-1,-1,-1,-1,-1,-1,-1,-1,-1,-1,-1,-1,-1,-1,-1,-1,-1,-1,-1,-1,-1,-1,-1,-1,-1,-1,-1,-1,-1,-1,-1,-1,-1,-1,-1],"loss_changes":[2.4702756E5,1.0111387E6,3.3374316E5,3.9194134E5,1.785702E6,2.1699765E6,5.5430725E5,1.4620238E6,2.6723025E5,5.959194E6,2.8222275E5,1.02217675E6,1.0732626E6,7.284088E5,4.6073316E5,2.2908162E5,4.755817E6,1.1001422E5,5.3963652E7,1.0960089E6,3.59744E5,8.073616E5,3.1908644E5,6.8417875E5,1.0841598E6,3.554438E6,3.3779384E5,5.477033E5,1.4492518E6,1.7407384E6,5.0847266E5,6.857636E5,1.4654192E6,1.2393785E6,2.0816962E6,7.468516E4,2.5945038E5,0E0,2.8464675E5,1.4734918E6,9.4082925E5,0E0,0E0,9.661868E5,3.015375E4,2.2523188E4,9.7083984E4,4.6410597E5,1.631309E5,2.6490234E1,7.06255E4,1.2313284E7,0E0,2.2420747E5,4.676135E5,7.9061562E3,1.1406538E7,2.541399E6,2.3550947E5,6.587667E5,1.0872984E6,4.0244572E6,2.9922603E5,0E0,0E0,0E0,0E0,0E0,0E0,0E0,0E0,0E0,0E0,0E0,0E0,0E0,0E0,0E0,0E0,0E0,0E0,0E0,0E0,0E0,0E0,0E0,0E0,0E0,0E0,0E0,0E0,0E0,0E0,0E0,0E0,0E0,0E0,0E0,0E0,0E0,0E0,0E0,0E0,0E0,0E0,0E0,0E0,0E0,0E0,0E0,0E0,0E0,0E0,0E0,0E0,0E0,0E0,0E0,0E0],"parents":[2147483647,0,0,1,1,2,2,3,3,4,4,5,5,6,6,7,7,8,8,9,9,10,10,11,11,12,12,13,13,14,14,15,15,16,16,17,17,18,18,19,19,20,20,21,21,22,22,23,23,24,24,25,25,26,26,27,27,28,28,29,29,30,30,31,31,32,32,33,33,34,34,35,35,36,36,38,38,39,39,40,40,43,43,44,44,45,45,46,46,47,47,48,48,49,49,50,50,51,51,53,53,54,54,55,55,56,56,57,57,58,58,59,59,60,60,61,61,62,62],"right_children":[2,4,6,8,10,12,14,16,18,20,22,24,26,28,30,32,34,36,38,40,42,44,46,48,50,52,54,56,58,60,62,64,66,68,70,72,74,-1,76,78,80,-1,-1,82,84,86,88,90,92,94,96,98,-1,100,102,104,106,108,110,112,114,116,118,-1,-1,-1,-1,-1,-1,-1,-1,-1,-1,-1,-1,-1,-1,-1,-1,-1,-1,-1,-1,-1,-1,-1,-1,-1,-1,-1,-1,-1,-1,-1,-1,-1,-1,-1,-1,-1,-1,-1,-1,-1,-1,-1,-1,-1,-1,-1,-1,-1,-1,-1,-1,-1,-1,-1,-1],"split_conditions":[1.4E2,1.38E2,1.44E2,1.37E2,1.25E2,4.2E1,1.51E2,1.32E2,9.3E1,1.14E2,1.58E2,1.42E2,4.3E1,2.62E2,1.62E2,7.4E1,9.3E1,4.3E1,1E2,3.8E1,1.16E2,1.48E2,1.62E2,3.8E1,2.4E1,1.42E2,7.5E1,2.4E1,2.63E2,2.63E2,1.3E1,2.29E2,7.9E1,9E1,1.37E2,2.4E1,6.8E1,1.03663506E2,1.25E2,2.4E1,1.07E2,1.8302282E1,2.9333832E1,1.44E2,1.51E2,1.61E2,2.62E2,2.4E1,1.41E2,1.43E2,3.8E1,1.41E2,-6.5839562E0,1.41E2,1.37E2,1.3E1,3.8E1,1.48E2,2.65E2,3.8E1,1.61E2,1.63E2,2.11E2,2.9936971E-2,-2.4058546E-1,4.751058E-1,-1.3060267E-2,2.7934227E0,7.886606E0,-8.4768707E-1,6.9198185E-1,-1.1347107E0,-3.1950977E0,5.6057805E-1,-9.675972E-1,-9.54194E-1,-1.7949605E-1,2.297165E0,1.1927608E1,6.129416E-1,4.044752E0,-2.4295108E-1,5.500782E0,-3.2183337E0,-4.75835E0,2.2853425E-1,1.2883804E0,2.9540384E-1,-4.7420388E-1,-4.5197883E-1,-4.6186194E0,1.5527613E0,6.125575E0,-6.9571954E-1,-7.435771E-1,-5.3735867E0,-6.965723E0,-6.557363E0,5.7867214E1,3.1288692E-1,-5.4297596E-1,3.1958365E-1,-1.0194248E-1,-1.7909628E0,-1.3594747E0,1.8851915E1,1.744043E-1,2.7209336E-1,1.6744364E1,1.2500477E-1,-2.2977085E1,-1.6440207E0,-1.647874E-1,-5.381166E-1,3.4835825E0,1.4251956E1,4.06693E-1,6.1580684E-2,-2.6239803E-2],"split_indices":[1,1,1,1,0,0,1,1,0,0,0,1,0,0,1,1,0,0,0,0,0,0,0,0,0,1,0,0,0,0,0,0,1,0,0,0,0,0,0,0,0,0,0,0,0,0,0,0,1,1,0,1,0,1,0,0,0,1,0,0,1,1,1,0,0,0,0,0,0,0,0,0,0,0,0,0,0,0,0,0,0,0,0,0,0,0,0,0,0,0,0,0,0,0,0,0,0,0,0,0,0,0,0,0,0,0,0,0,0,0,0,0,0,0,0,0,0,0,0],"split_type":[0,0,0,0,0,0,0,0,0,0,0,0,0,0,0,0,0,0,0,0,0,0,0,0,0,0,0,0,0,0,0,0,0,0,0,0,0,0,0,0,0,0,0,0,0,0,0,0,0,0,0,0,0,0,0,0,0,0,0,0,0,0,0,0,0,0,0,0,0,0,0,0,0,0,0,0,0,0,0,0,0,0,0,0,0,0,0,0,0,0,0,0,0,0,0,0,0,0,0,0,0,0,0,0,0,0,0,0,0,0,0,0,0,0,0,0,0,0,0],"sum_hessian":[3.2935776E7,1.0278535E7,2.265724E7,9.880879E6,3.97656E5,2.898745E6,1.9758496E7,9.467854E6,4.13025E5,6.9649E4,3.28007E5,3.0174E4,2.868571E6,8.0241E5,1.8956086E7,9.053356E6,4.14498E5,7.1296E4,3.41729E5,6.8231E4,1.418E3,8.0816E4,2.47191E5,1.3776E4,1.6398E4,2.102E3,2.866469E6,7.93414E5,8.996E3,1.954135E6,1.7001952E7,4.257506E6,4.79585E6,5.2477E4,3.62021E5,6.591E3,6.4705E4,4.49E2,3.4128E5,7.028E3,6.1203E4,1.057E3,3.61E2,7.6128E4,4.688E3,3.3909E4,2.13282E5,1.0785E4,2.991E3,5.302E3,1.1096E4,1.128E3,9.74E2,2.41374E5,2.625095E6,1.5405E4,7.78009E5,3.395E3,5.601E3,1.926268E6,2.7867E4,4.7139E4,1.6954812E7,3.098806E6,1.1587E6,6.38425E5,4.157425E6,4.7752E4,4.725E3,1.16562E5,2.45459E5,3.945E3,2.646E3,1.2359E4,5.2346E4,5.0015E4,2.91265E5,5.031E3,1.997E3,5.2883E4,8.32E3,7.3395E4,2.733E3,2.029E3,2.659E3,1.913E3,3.1996E4,1.97339E5,1.5943E4,7.163E3,3.622E3,1.865E3,1.126E3,3.225E3,2.077E3,7.224E3,3.872E3,6.96E2,4.32E2,3.1714E4,2.0966E5,2.63253E5,2.361842E6,7.193E3,8.212E3,2.953E3,7.75056E5,1.841E3,1.554E3,5.562E3,3.9E1,2.7487E4,1.898781E6,8.879E3,1.8988E4,1.971E3,4.5168E4,4.918826E6,1.2035986E7],"tree_param":{"num_deleted":"0","num_feature":"2","num_nodes":"119","size_leaf_vector":"1"}},{"base_weights":[2.8037379E-5,-5.143165E-3,1.153811E0,-6.156655E-3,8.081246E0,1.6317202E1,9.422602E-1,-1.3686365E-1,3.4635812E-2,1.0240351E1,-1.4160747E1,1.2038944E1,2.4223146E1,-3.0253534E0,1.0505793E0,3.35501E-2,-4.170047E-1,9.354489E-1,-2.4321424E-2,6.0648837E0,1.220905E2,-2.27857E1,-2.9164445E0,5.0138016E0,7.4525347E0,1.1973141E1,1.9798357E1,-6.778889E-1,-2.1109405E0,4.307558E1,8.755821E-1,-4.768118E-1,2.2372314E-1,7.4293774E-1,-6.010302E-1,-2.120135E0,1.0199523E0,-6.938229E-2,1.7443725E-1,7.975759E0,-1.1647166E2,-8.255656E0,-5.2288926E-1,2.0281348E0,2.7479386E0,-2.3766574E-1,7.2646728E0,-1.6170058E0,1.1027656E0,-7.554105E-2,-3.7237892E-1,2.627191E0,5.2521136E-2,-5.283922E-2,4.4130974E0,-5.4481184E-1,-9.801907E-2,3.61787E0,-9.326983E-1,2.3621203E-1,5.306097E-1,-4.1164067E-3,-2.125486E-1,2.5323555E-1,-6.388662E-2,-2.0024755E0,3.4319475E0,-2.3926064E1,-4.3408443E1,3.0235142E-1,-1.7193309E0,4.2970517E-1,-3.8543336E-2],"categories":[],"categories_nodes":[],"categories_segments":[],"categories_sizes":[],"default_left":[0,0,0,0,0,0,0,0,0,0,0,0,0,0,0,0,0,0,0,0,0,0,0,0,0,0,0,0,0,0,0,0,0,0,0,0,0,0,0,0,0,0,0,0,0,0,0,0,0,0,0,0,0,0,0,0,0,0,0,0,0,0,0,0,0,0,0,0,0,0,0,0,0],"id":13,"left_children":[1,3,5,7,9,11,13,15,17,19,21,23,25,27,29,31,33,35,37,39,-1,-1,41,-1,43,-1,45,-1,-1,-1,47,49,51,53,55,57,59,61,63,65,67,-1,-1,-1,-1,-1,-1,69,71,-1,-1,-1,-1,-1,-1,-1,-1,-1,-1,-1,-1,-1,-1,-1,-1,-1,-1,-1,-1,-1,-1,-1,-1],"loss_changes":[1.965095E5,2.687199E5,4.7140044E5,1.7480352E5,1.9747062E5,6.809981E4,6.22925E4,3.7228025E5,1.3270256E6,6.202872E6,2.5268686E5,2.804186E4,4.842372E4,1.1815164E4,3.5190058E6,4.705926E5,6.295936E5,3.9632188E5,2.1003925E5,8.691649E5,0E0,0E0,8.873003E3,0E0,7.238203E2,0E0,5.0498125E4,0E0,0E0,0E0,7.9797805E4,2.2640434E5,1.4665744E6,5.184398E6,8.483954E5,5.792191E5,2.600955E5,6.800809E5,1.1244119E6,1.8541864E5,4.752925E4,0E0,0E0,0E0,0E0,0E0,0E0,1.2711918E5,5.240672E4,0E0,0E0,0E0,0E0,0E0,0E0,0E0,0E0,0E0,0E0,0E0,0E0,0E0,0E0,0E0,0E0,0E0,0E0,0E0,0E0,0E0,0E0,0E0,0E0],"parents":[2147483647,0,0,1,1,2,2,3,3,4,4,5,5,6,6,7,7,8,8,9,9,10,10,11,11,12,12,13,13,14,14,15,15,16,16,17,17,18,18,19,19,22,22,24,24,26,26,30,30,31,31,32,32,33,33,34,34,35,35,36,36,37,37,38,38,39,39,40,40,47,47,48,48],"right_children":[2,4,6,8,10,12,14,16,18,20,22,24,26,28,30,32,34,36,38,40,-1,-1,42,-1,44,-1,46,-1,-1,-1,48,50,52,54,56,58,60,62,64,66,68,-1,-1,-1,-1,-1,-1,70,72,-1,-1,-1,-1,-1,-1,-1,-1,-1,-1,-1,-1,-1,-1,-1,-1,-1,-1,-1,-1,-1,-1,-1,-1],"split_conditions":[2.65E2,2.65E2,4.8E1,1.32E2,2.55E2,3.8E1,5.5E1,9E1,1.37E2,2.49E2,2.63E2,1.3E1,4.2E1,5E1,6.8E1,9.2E1,7.9E1,1.2E1,2.38E2,2.43E2,1.220905E2,-2.27857E1,2.64E2,5.0138016E0,2.4E1,1.1973141E1,4.3E1,-6.778889E-1,-2.1109405E0,4.307558E1,1.32E2,7.9E1,1E2,7.4E1,1.14E2,4E0,2.24E2,2.37E2,2.46E2,4E0,2.46E2,-8.255656E0,-5.2288926E-1,2.0281348E0,2.7479386E0,-2.3766574E-1,7.2646728E0,9.3E1,2.29E2,-7.554105E-2,-3.7237892E-1,2.627191E0,5.2521136E-2,-5.283922E-2,4.4130974E0,-5.4481184E-1,-9.801907E-2,3.61787E0,-9.326983E-1,2.3621203E-1,5.306097E-1,-4.1164067E-3,-2.125486E-1,2.5323555E-1,-6.388662E-2,-2.0024755E0,3.4319475E0,-2.3926064E1,-4.3408443E1,3.0235142E-1,-1.7193309E0,4.2970517E-1,-3.8543336E-2],"split_indices":[1,0,0,0,1,0,0,0,0,1,1,0,0,0,0,1,1,1,0,1,0,0,1,0,0,0,0,0,0,0,0,1,1,1,1,1,1,0,0,1,1,0,0,0,0,0,0,0,0,0,0,0,0,0,0,0,0,0,0,0,0,0,0,0,0,0,0,0,0,0,0,0,0],"split_type":[0,0,0,0,0,0,0,0,0,0,0,0,0,0,0,0,0,0,0,0,0,0,0,0,0,0,0,0,0,0,0,0,0,0,0,0,0,0,0,0,0,0,0,0,0,0,0,0,0,0,0,0,0,0,0,0,0,0,0,0,0,0,0,0,0,0,0,0,0,0,0,0,0],"sum_hessian":[3.2935776E7,3.278882E7,1.46957E5,3.2784712E7,4.108E3,2.021E3,1.44936E5,7.798095E6,2.4986616E7,3.745E3,3.63E2,1.313E3,7.08E2,3.851E3,1.41085E5,4.848615E6,2.94948E6,1.534889E6,2.3451728E7,3.707E3,3.8E1,5.5E1,3.08E2,6.49E2,6.64E2,1.54E2,5.54E2,3.235E3,6.16E2,1.72E2,1.40913E5,1.316245E6,3.53237E6,4.03863E5,2.545617E6,4.1305E4,1.493584E6,1.911756E7,4.334168E6,3.651E3,5.6E1,1.3E1,2.95E2,4.76E2,1.88E2,9.8E1,4.56E2,1.177E4,1.29143E5,1.016925E6,2.9932E5,2.0024E4,3.512346E6,3.7893E5,2.4933E4,4.68849E5,2.076768E6,2.692E3,3.8613E4,1.139599E6,3.53985E5,1.758598E7,1.531578E6,1.58837E6,2.745798E6,6.98E2,2.953E3,2.6E1,3E1,7.186E3,4.584E3,1.01873E5,2.727E4],"tree_param":{"num_deleted":"0","num_feature":"2","num_nodes":"73","size_leaf_vector":"1"}},{"base_weights":[2.2704831E-5,1.09626465E-1,-4.969942E-2,6.689733E-2,1.1713488E0,-2.5243175E-1,-3.2596997E-4,-3.0387986E-2,3.0316857E-1,4.40223E0,4.8529223E-1,3.890472E-2,-5.821838E-1,5.042686E-1,-7.0710815E-2,2.7440788E-2,-1.0092654E0,2.832117E0,-7.928709E-3,3.4656632E0,4.9433525E1,-7.02275E-1,8.735537E-1,-2.0691697E-1,1.9414593E0,-1.1020685E0,-1.8880303E-1,6.3736403E-1,-2.5287986E-1,-2.4652411E-1,3.0737342E-2,6.916231E-1,-2.5499105E-2,-2.1489963E-1,-1.9889538E0,4.8281927E0,8.9344704E-1,-5.242182E-1,3.9232352E-1,1.1697736E1,2.5201907E0,1.2846166E1,2.0587318E1,-1.5748821E-1,-9.547097E0,2.8708863E0,5.559924E-1,-1.5089465E0,-2.0751111E-2,1.1723902E0,6.374181E0,-8.7036383E-1,-2.1085355E0,3.4071796E-2,-1.5013046E0,4.7610116E-1,6.4983554E0,-1.8193126E0,3.3483627E-1,-1.3780363E-1,-7.459981E-1,2.206715E0,-9.535062E-3,9.652962E-1,1.078813E-1,-9.300985E-1,1.3948572E-3,-2.3380549E-1,2.3597128E1,-1.1267962E0,-3.933507E-1,6.4636946E-1,3.605757E0,-1.6351852E-1,6.520192E-1,-2.3443809E-1,6.1261135E-1,2.3513232E-1,-1.8009597E-1,1.5923994E0,8.335366E0,-5.7793884E0,9.4818276E-1,-1.9250707E-1,3.8523855E0,-2.2520747E0,-3.3301468E0,1.6124383E-1,9.0311295E-1,-3.0903244E-2,3.0495203E-1,-1.8661915E0,-2.6788917E-1,2.097755E-1,-1.816323E-1,7.0605433E-1,-3.4305093E-1,5.6800113E0,-7.436474E-1,-2.7634388E-1,8.6746866E-1,-4.7853705E-1,-6.9421345E-1,5.409849E-1,-5.4753173E-2,-3.637547E-1,-7.040158E-1,-2.3398955E-1,2.3258805E-1,7.143824E0,4.4348902E-1,-1.1172662E0,-1.7635813E-1,-7.592351E-1,1.6428027E-1,-5.7012264E-2,3.8598394E-1,-2.2663538E-1,3.8801674E1,3.5168153E-1,1.8767008E0,1.418315E-1,-3.2348145E-2],"categories":[],"categories_nodes":[],"categories_segments":[],"categories_sizes":[],"default_left":[0,0,0,0,0,0,0,0,0,0,0,0,0,0,0,0,0,0,0,0,0,0,0,0,0,0,0,0,0,0,0,0,0,0,0,0,0,0,0,0,0,0,0,0,0,0,0,0,0,0,0,0,0,0,0,0,0,0,0,0,0,0,0,0,0,0,0,0,0,0,0,0,0,0,0,0,0,0,0,0,0,0,0,0,0,0,0,0,0,0,0,0,0,0,0,0,0,0,0,0,0,0,0,0,0,0,0,0,0,0,0,0,0,0,0,0,0,0,0,0,0,0,0],"id":14,"left_children":[1,3,5,7,9,11,13,15,17,19,21,23,25,27,29,31,33,35,37,39,41,43,45,47,49,51,53,55,57,59,61,63,65,67,69,71,73,75,77,79,81,-1,-1,83,85,87,89,91,93,95,97,99,101,103,105,107,109,111,113,115,117,119,121,-1,-1,-1,-1,-1,-1,-1,-1,-1,-1,-1,-1,-1,-1,-1,-1,-1,-1,-1,-1,-1,-1,-1,-1,-1,-1,-1,-1,-1,-1,-1,-1,-1,-1,-1,-1,-1,-1,-1,-1,-1,-1,-1,-1,-1,-1,-1,-1,-1,-1,-1,-1,-1,-1,-1,-1,-1,-1,-1,-1],"loss_changes":[1.7949116E5,4.663008E5,2.267898E5,2.2711916E5,8.814313E5,4.2628503E5,6.4709644E5,3.961953E5,2.2673035E6,2.937304E6,1.5124072E5,1.1018168E6,4.2567594E5,2.2475994E5,2.8518947E5,2.3237003E5,3.0383184E5,1.221585E6,5.3029256E5,5.310337E5,1.771445E5,3.8941862E5,1.5678622E5,5.0570784E5,9.189549E5,2.0907675E5,3.4660156E5,1.7928792E6,3.0697966E5,3.1769938E5,8.8850906E5,4.0916612E5,5.674042E5,9.598455E6,2.0936556E5,2.990317E6,2.9485962E5,7.3979775E5,5.6169475E5,7.223674E5,8.539419E5,0E0,0E0,4.7916653E5,1.4777031E4,1.10356875E4,6.4727305E4,7.5746244E5,7.6842225E5,6.283445E5,4.431277E6,1.3922788E5,1.7698375E4,3.8811297E5,4.1989125E4,6.937801E5,4.415029E6,2.1340725E5,1.4783897E5,3.5750356E5,1.2861712E6,7.716745E5,4.7192984E5,0E0,0E0,0E0,0E0,0E0,0E0,0E0,0E0,0E0,0E0,0E0,0E0,0E0,0E0,0E0,0E0,0E0,0E0,0E0,0E0,0E0,0E0,0E0,0E0,0E0,0E0,0E0,0E0,0E0,0E0,0E0,0E0,0E0,0E0,0E0,0E0,0E0,0E0,0E0,0E0,0E0,0E0,0E0,0E0,0E0,0E0,0E0,0E0,0E0,0E0,0E0,0E0,0E0,0E0,0E0,0E0,0E0,0E0,0E0,0E0],"parents":[2147483647,0,0,1,1,2,2,3,3,4,4,5,5,6,6,7,7,8,8,9,9,10,10,11,11,12,12,13,13,14,14,15,15,16,16,17,17,18,18,19,19,20,20,21,21,22,22,23,23,24,24,25,25,26,26,27,27,28,28,29,29,30,30,31,31,32,32,33,33,34,34,35,35,36,36,37,37,38,38,39,39,40,40,43,43,44,44,45,45,46,46,47,47,48,48,49,49,50,50,51,51,52,52,53,53,54,54,55,55,56,56,57,57,58,58,59,59,60,60,61,61,62,62],"right_children":[2,4,6,8,10,12,14,16,18,20,22,24,26,28,30,32,34,36,38,40,42,44,46,48,50,52,54,56,58,60,62,64,66,68,70,72,74,76,78,80,82,-1,-1,84,86,88,90,92,94,96,98,100,102,104,106,108,110,112,114,116,118,120,122,-1,-1,-1,-1,-1,-1,-1,-1,-1,-1,-1,-1,-1,-1,-1,-1,-1,-1,-1,-1,-1,-1,-1,-1,-1,-1,-1,-1,-1,-1,-1,-1,-1,-1,-1,-1,-1,-1,-1,-1,-1,-1,-1,-1,-1,-1,-1,-1,-1,-1,-1,-1,-1,-1,-1,-1,-1,-1,-1,-1],"split_conditions":[1.4E2,1.38E2,1.14E2,2.09E2,1.25E2,7.9E1,1.4E2,1.86E2,2.3E2,1.14E2,1.58E2,7E1,1.81E2,2.49E2,1.66E2,2.4E1,9E1,8E1,7.4E1,3.8E1,1.16E2,1.48E2,1.62E2,1.44E2,2.49E2,1.7E2,1.13E2,2.44E2,2.56E2,1.63E2,1.7E2,5E1,2.5E1,8.9E1,1.07E2,7.5E1,2.24E2,2.61E2,2.49E2,2.4E1,4.3E1,1.2846166E1,2.0587318E1,1.44E2,1.51E2,1.61E2,2.3E2,4.2E1,2.29E2,2.34E2,2.63E2,1.66E2,9E1,2.09E2,2.46E2,1.32E2,1.16E2,1.32E2,1.16E2,2.63E2,2.65E2,2.39E2,2.29E2,9.652962E-1,1.078813E-1,-9.300985E-1,1.3948572E-3,-2.3380549E-1,2.3597128E1,-1.1267962E0,-3.933507E-1,6.4636946E-1,3.605757E0,-1.6351852E-1,6.520192E-1,-2.3443809E-1,6.1261135E-1,2.3513232E-1,-1.8009597E-1,1.5923994E0,8.335366E0,-5.7793884E0,9.4818276E-1,-1.9250707E-1,3.8523855E0,-2.2520747E0,-3.3301468E0,1.6124383E-1,9.0311295E-1,-3.0903244E-2,3.0495203E-1,-1.8661915E0,-2.6788917E-1,2.097755E-1,-1.816323E-1,7.0605433E-1,-3.4305093E-1,5.6800113E0,-7.436474E-1,-2.7634388E-1,8.6746866E-1,-4.7853705E-1,-6.9421345E-1,5.409849E-1,-5.4753173E-2,-3.637547E-1,-7.040158E-1,-2.3398955E-1,2.3258805E-1,7.143824E0,4.4348902E-1,-1.1172662E0,-1.7635813E-1,-7.592351E-1,1.6428027E-1,-5.7012264E-2,3.8598394E-1,-2.2663538E-1,3.8801674E1,3.5168153E-1,1.8767008E0,1.418315E-1,-3.2348145E-2],"split_indices":[1,1,0,0,0,0,0,0,0,0,0,0,1,1,1,1,1,1,1,0,0,0,0,1,1,1,0,1,1,1,1,0,1,1,1,1,0,0,0,0,0,0,0,0,0,0,0,0,1,1,1,1,0,1,1,0,0,0,0,0,0,0,1,0,0,0,0,0,0,0,0,0,0,0,0,0,0,0,0,0,0,0,0,0,0,0,0,0,0,0,0,0,0,0,0,0,0,0,0,0,0,0,0,0,0,0,0,0,0,0,0,0,0,0,0,0,0,0,0,0,0,0,0],"split_type":[0,0,0,0,0,0,0,0,0,0,0,0,0,0,0,0,0,0,0,0,0,0,0,0,0,0,0,0,0,0,0,0,0,0,0,0,0,0,0,0,0,0,0,0,0,0,0,0,0,0,0,0,0,0,0,0,0,0,0,0,0,0,0,0,0,0,0,0,0,0,0,0,0,0,0,0,0,0,0,0,0,0,0,0,0,0,0,0,0,0,0,0,0,0,0,0,0,0,0,0,0,0,0,0,0,0,0,0,0,0,0,0,0,0,0,0,0,0,0,0,0,0,0],"sum_hessian":[3.2935776E7,1.0278535E7,2.265724E7,9.880879E6,3.97656E5,4.437288E6,1.8219952E7,6.999016E6,2.881863E6,6.9649E4,3.28007E5,2.355872E6,2.081416E6,2.230355E6,1.5989598E7,6.608603E6,3.90413E5,3.15677E5,2.566186E6,6.8231E4,1.418E3,8.0816E4,2.47191E5,2.086309E6,2.69563E5,8.9655E5,1.184866E6,1.896907E6,3.33448E5,5.850489E6,1.0139109E7,4.87864E5,6.120739E6,2.15599E5,1.74814E5,1.55535E5,1.60142E5,1.120649E6,1.445537E6,7.028E3,6.1203E4,1.057E3,3.61E2,7.6128E4,4.688E3,3.3909E4,2.13282E5,2.60986E5,1.825323E6,2.2971E5,3.9853E4,7.28776E5,1.67774E5,1.012872E6,1.71994E5,1.846113E6,5.0794E4,9.0974E4,2.42474E5,4.80466E6,1.045829E6,1.84241E5,9.954868E6,5.6674E4,4.3119E5,5.943E4,6.061309E6,2.14068E5,1.531E3,4.8463E4,1.26351E5,1.13381E5,4.2154E4,7.5401E4,8.4741E4,1.01855E6,1.02099E5,1.036709E6,4.08828E5,5.031E3,1.997E3,1.747E3,5.9456E4,7.3395E4,2.733E3,2.029E3,2.659E3,1.913E3,3.1996E4,8.7734E4,1.25548E5,3.0174E4,2.30812E5,8.18007E5,1.007316E6,1.52125E5,7.7585E4,1.6477E4,2.3376E4,7.1907E5,9.706E3,4.7962E4,1.19812E5,1.10469E5,9.02403E5,1.28203E5,4.3791E4,3.55145E5,1.490968E6,1.1416E4,3.9378E4,3.5719E4,5.5255E4,1.6758E4,2.25716E5,4.634694E6,1.69966E5,1.045754E6,7.5E1,1.4675E5,3.7491E4,1.685302E6,8.269566E6],"tree_param":{"num_deleted":"0","num_feature":"2","num_nodes":"123","size_leaf_vector":"1"}},{"base_weights":[1.938318E-5,-4.9870068E-1,5.5519766E-3,-1.2974021E1,-7.872654E-2,1.0525811E0,-5.528671E-3,-3.9499164E0,-3.8554556E0,1.4645797E0,-5.975186E-1,1.6415882E1,3.6499333E-1,-2.1217258E0,1.4212746E-3,-1.0792983E1,1.8698366E0,-6.1802614E-1,8.882069E1,1.2366041E1,2.1301876E1,2.3124091E-1,9.897333E0,-2.6370664E0,1.4027896E1,8.7309235E-1,-6.747866E-3,-1.6302553E0,-8.668183E0,5.146796E0,1.1657176E0,3.6854494E-1,-2.545214E0,2.7017107E1,2.3814943E0,1.3492662E1,7.3038464E0,-1.7232944E0,6.7129344E-1,7.3461356E0,2.8853625E-1,-1.1455792E1,-2.1989684E0,1.8375492E1,-3.3667264E0,2.1086662E1,4.4425756E-1,-1.1073122E0,1.276985E-4,-3.844889E-1,-2.1118739E0,-9.513265E-2,9.330709E-1,-1.7829491E-1,7.3940673E0,-1.0750005E0,-5.2251E-1,2.0156043E0,2.716762E0,6.5033585E-1,-7.978323E-1,8.040877E-1,-1.6024105E-1,1.0666085E-1,-3.323718E-1,-2.4402163E0,-4.235942E0,-3.808788E-2,-1.0257268E0,-2.6599083E0,2.0097889E1,-2.5267544E0,2.4622564E-1,-1.9022778E0,-1.7884806E-1,5.409482E-1,-2.2902996E-3],"categories":[],"categories_nodes":[],"categories_segments":[],"categories_sizes":[],"default_left":[0,0,0,0,0,0,0,0,0,0,0,0,0,0,0,0,0,0,0,0,0,0,0,0,0,0,0,0,0,0,0,0,0,0,0,0,0,0,0,0,0,0,0,0,0,0,0,0,0,0,0,0,0,0,0,0,0,0,0,0,0,0,0,0,0,0,0,0,0,0,0,0,0,0,0,0,0],"id":15,"left_children":[1,3,5,7,9,11,13,-1,-1,15,17,19,21,23,25,27,29,31,33,35,-1,37,39,41,43,45,47,49,-1,-1,51,53,55,-1,-1,-1,57,59,61,-1,63,65,67,-1,-1,69,71,73,75,-1,-1,-1,-1,-1,-1,-1,-1,-1,-1,-1,-1,-1,-1,-1,-1,-1,-1,-1,-1,-1,-1,-1,-1,-1,-1,-1,-1],"loss_changes":[9.08769E4,1.8933134E6,3.7792056E5,1.08125E2,2.7990906E5,3.603487E6,4.7406966E5,0E0,0E0,4.3692838E5,4.7984656E5,3.2297978E6,4.162906E5,8.781749E5,2.287756E5,4.6683234E5,9.1636475E5,4.973583E5,5.2849375E3,2.245525E6,0E0,2.769476E5,6.333726E5,3.9501812E5,3.8915358E6,2.5857392E6,2.408537E5,3.5174775E3,0E0,0E0,2.3468534E5,4.0445775E6,7.387475E4,0E0,0E0,0E0,1.20143125E4,2.1555062E5,6.364795E5,0E0,2.5534901E2,4.270625E4,2.4626944E5,0E0,0E0,8.521668E6,9.7513506E5,5.2864775E5,4.4269412E5,0E0,0E0,0E0,0E0,0E0,0E0,0E0,0E0,0E0,0E0,0E0,0E0,0E0,0E0,0E0,0E0,0E0,0E0,0E0,0E0,0E0,0E0,0E0,0E0,0E0,0E0,0E0,0E0],"parents":[2147483647,0,0,1,1,2,2,3,3,4,4,5,5,6,6,9,9,10,10,11,11,12,12,13,13,14,14,15,15,16,16,17,17,18,18,19,19,21,21,22,22,23,23,24,24,25,25,26,26,27,27,30,30,31,31,32,32,36,36,37,37,38,38,40,40,41,41,42,42,45,45,46,46,47,47,48,48],