{"learner":{"attributes":{"scikit_learn":"{\"_estimator_type\": \"regressor\"}"},"feature_names":["PULocationID","DOLocationID","trip_distance","day_of_month","month","weekend","dow_sin","dow_cos","hour_sin","hour_cos"],"feature_types":["int","int","float","int","int","int","float","float","float","float"],"gradient_booster":{"model":{"gbtree_model_param":{"num_parallel_tree":"1","num_trees":"100"},"iteration_indptr":[0,1,2,3,4,5,6,7,8,9,10,11,12,13,14,15,16,17,18,19,20,21,22,23,24,25,26,27,28,29,30,31,32,33,34,35,36,37,38,39,40,41,42,43,44,45,46,47,48,49,50,51,52,53,54,55,56,57,58,59,60,61,62,63,64,65,66,67,68,69,70,71,72,73,74,75,76,77,78,79,80,81,82,83,84,85,86,87,88,89,90,91,92,93,94,95,96,97,98,99,100],"tree_info":[0,0,0,0,0,0,0,0,0,0,0,0,0,0,0,0,0,0,0,0,0,0,0,0,0,0,0,0,0,0,0,0,0,0,0,0,0,0,0,0,0,0,0,0,0,0,0,0,0,0,0,0,0,0,0,0,0,0,0,0,0,0,0,0,0,0,0,0,0,0,0,0,0,0,0,0,0,0,0,0,0,0,0,0,0,0,0,0,0,0,0,0,0,0,0,0,0,0,0,0],"trees":[{"base_weights":[6.1510145E-6,-2.1442207E2,3.253372E2,-3.443499E2,-8.6113625E1,1.8054161E2,4.8947775E2,-3.995018E2,-2.7866254E2,-3.5976387E1,-1.8370798E2,2.574867E2,5.5198444E1,5.641431E2,4.125656E2,-2.1913612E2,-4.2637906E2,-2.4647012E2,-3.4820407E2,-1.0263161E2,4.3036503E1,-2.3727913E2,-1.2410909E2,1.9026543E2,3.500391E2,9.402297E1,-6.936372E1,4.9246378E2,6.066239E2,2.9470444E2,5.1548126E2,-3.6322E2,-8.9561874E1,-4.828596E2,-3.8551913E2,-2.1705873E2,-3.135343E2,-3.288161E2,-4.1314517E2,-1.5397816E2,-4.8184063E1,-1.561887E1,1.07138596E2,-2.1337137E2,-3.170636E2,-9.524944E1,-2.1995229E2,1.2807553E2,2.6020306E2,2.8780722E2,4.2394662E2,3.0306252E1,1.7286414E2,-1.1888931E2,-1.3026501E1,5.324695E2,3.9157196E2,6.3972125E2,5.244444E2,3.509015E2,1.4796254E2,5.437689E2,4.2742218E2,-8.01927E1,-1.1928283E2,-1.8527502E1,-6.4243004E1,-1.5288408E2,-1.3629053E2,-1.08936806E2,-1.3154271E2,-8.154115E1,-4.7854813E1,-8.814028E1,-1.1449577E2,-9.25616E1,-1.2106005E2,-1.1736496E2,-1.3059439E2,-3.8634197E1,-6.76687E1,-4.0877924E0,-3.8578087E1,1.9032657E0,-2.8403818E1,3.8949734E1,-1.5009216E1,-5.6663734E1,-8.996026E1,-8.695248E1,-1.039531E2,-1.9900164E1,-5.5055817E1,-7.761948E1,-5.644279E1,4.657475E1,9.5721E0,8.64426E1,2.351922E1,9.634527E1,5.1464096E1,1.333952E2,3.5944073E1,-9.431575E-1,2.89052E1,6.356492E1,3.0738995E1,-4.972795E1,-2.4312437E1,9.435228E0,-1.8977139E1,1.6492574E2,8.1543205E1,1.3369334E2,4.78963E1,1.7740163E2,2.036622E2,1.72181E2,1.1229824E2,1.1776459E2,8.307722E1,2.6802666E1,5.9701912E1,1.4597867E2,1.7850919E2,9.426651E1,1.523028E2],"categories":[],"categories_nodes":[],"categories_segments":[],"categories_sizes":[],"default_left":[0,0,0,0,0,0,0,0,0,0,0,0,0,0,0,0,0,0,0,0,0,0,0,0,0,0,0,0,0,0,0,0,0,0,0,0,0,0,0,0,0,0,0,0,0,0,0,0,0,0,0,0,0,0,0,0,0,0,0,0,0,0,0,0,0,0,0,0,0,0,0,0,0,0,0,0,0,0,0,0,0,0,0,0,0,0,0,0,0,0,0,0,0,0,0,0,0,0,0,0,0,0,0,0,0,0,0,0,0,0,0,0,0,0,0,0,0,0,0,0,0,0,0,0,0,0,0],"id":0,"left_children":[1,3,5,7,9,11,13,15,17,19,21,23,25,27,29,31,33,35,37,39,41,43,45,47,49,51,53,55,57,59,61,63,65,67,69,71,73,75,77,79,81,83,85,87,89,91,93,95,97,99,101,103,105,107,109,111,113,115,117,119,121,123,125,-1,-1,-1,-1,-1,-1,-1,-1,-1,-1,-1,-1,-1,-1,-1,-1,-1,-1,-1,-1,-1,-1,-1,-1,-1,-1,-1,-1,-1,-1,-1,-1,-1,-1,-1,-1,-1,-1,-1,-1,-1,-1,-1,-1,-1,-1,-1,-1,-1,-1,-1,-1,-1,-1,-1,-1,-1,-1,-1,-1,-1,-1,-1,-1],"loss_changes":[2.2746382E12,3.2764238E11,3.078572E11,3.537699E10,4.838523E10,6.63754E10,3.4863972E10,2.5733104E10,9.977627E9,3.4404184E10,1.0714759E10,2.653071E10,1.2659853E10,9.37984E9,3.6274373E10,1.2852689E10,1.0661462E10,6.0091597E9,1.7755832E9,9.906082E9,1.1239033E10,3.3710817E9,4.3940516E9,1.0744054E10,8.251867E9,1.0025634E10,1.7356042E9,4.626645E9,5.2605747E9,1.1495948E10,3.9766262E9,1.075032E9,1.2555054E9,1.4814413E9,3.1791514E9,6.6714173E9,1.2483461E9,1.6453796E9,1.5745843E8,3.2892723E9,4.778812E9,2.7103575E9,5.094309E9,2.8807905E9,3.265413E8,3.116328E9,4.53462E8,3.4169385E9,5.905801E9,3.7757338E9,5.164155E9,2.4383813E9,2.4502886E9,5.872312E8,6.5016237E8,3.6976558E9,4.0815985E9,2.6116096E9,4.1257697E9,3.1055299E9,1.1550838E9,3.5411067E9,3.5262218E9,0E0,0E0,0E0,0E0,0E0,0E0,0E0,0E0,0E0,0E0,0E0,0E0,0E0,0E0,0E0,0E0,0E0,0E0,0E0,0E0,0E0,0E0,0E0,0E0,0E0,0E0,0E0,0E0,0E0,0E0,0E0,0E0,0E0,0E0,0E0,0E0,0E0,0E0,0E0,0E0,0E0,0E0,0E0,0E0,0E0,0E0,0E0,0E0,0E0,0E0,0E0,0E0,0E0,0E0,0E0,0E0,0E0,0E0,0E0,0E0,0E0,0E0,0E0,0E0],"parents":[2147483647,0,0,1,1,2,2,3,3,4,4,5,5,6,6,7,7,8,8,9,9,10,10,11,11,12,12,13,13,14,14,15,15,16,16,17,17,18,18,19,19,20,20,21,21,22,22,23,23,24,24,25,25,26,26,27,27,28,28,29,29,30,30,31,31,32,32,33,33,34,34,35,35,36,36,37,37,38,38,39,39,40,40,41,41,42,42,43,43,44,44,45,45,46,46,47,47,48,48,49,49,50,50,51,51,52,52,53,53,54,54,55,55,56,56,57,57,58,58,59,59,60,60,61,61,62,62],"right_children":[2,4,6,8,10,12,14,16,18,20,22,24,26,28,30,32,34,36,38,40,42,44,46,48,50,52,54,56,58,60,62,64,66,68,70,72,74,76,78,80,82,84,86,88,90,92,94,96,98,100,102,104,106,108,110,112,114,116,118,120,122,124,126,-1,-1,-1,-1,-1,-1,-1,-1,-1,-1,-1,-1,-1,-1,-1,-1,-1,-1,-1,-1,-1,-1,-1,-1,-1,-1,-1,-1,-1,-1,-1,-1,-1,-1,-1,-1,-1,-1,-1,-1,-1,-1,-1,-1,-1,-1,-1,-1,-1,-1,-1,-1,-1,-1,-1,-1,-1,-1,-1,-1,-1,-1,-1,-1],"split_conditions":[1.9E0,1.1E0,3E0,8E-1,6.123234E-17,6.123234E-17,6.123234E-17,1.8E-1,6.123234E-17,1.48E0,1.48E0,2.4E0,0E0,3.68E0,4.2E0,9E0,5.8E-1,2.34E2,0E0,4.3388373E-1,4.3388373E-1,0E0,0E0,4.3388373E-1,4.3388373E-1,2.4E0,2.4E0,1E0,5E-1,0E0,1.2246469E-16,1.32E2,1.2E1,4.7E-1,6.123234E-17,1.61E2,1E0,2.36E2,5E-1,2.36E2,2.34E2,5E-1,8.660254E-1,2.36E2,5E-1,2.36E2,1E0,5E-1,8.660254E-1,5E-1,9.659258E-1,9E0,6.234898E-1,1E0,5E-1,9.659258E-1,5E-1,1.42E2,1E0,6.234898E-1,3.48E0,1.42E2,5.43E0,-8.01927E1,-1.1928283E2,-1.8527502E1,-6.4243004E1,-1.5288408E2,-1.3629053E2,-1.08936806E2,-1.3154271E2,-8.154115E1,-4.7854813E1,-8.814028E1,-1.1449577E2,-9.25616E1,-1.2106005E2,-1.1736496E2,-1.3059439E2,-3.8634197E1,-6.76687E1,-4.0877924E0,-3.8578087E1,1.9032657E0,-2.8403818E1,3.8949734E1,-1.5009216E1,-5.6663734E1,-8.996026E1,-8.695248E1,-1.039531E2,-1.9900164E1,-5.5055817E1,-7.761948E1,-5.644279E1,4.657475E1,9.5721E0,8.64426E1,2.351922E1,9.634527E1,5.1464096E1,1.333952E2,3.5944073E1,-9.431575E-1,2.89052E1,6.356492E1,3.0738995E1,-4.972795E1,-2.4312437E1,9.435228E0,-1.8977139E1,1.6492574E2,8.1543205E1,1.3369334E2,4.78963E1,1.7740163E2,2.036622E2,1.72181E2,1.1229824E2,1.1776459E2,8.307722E1,2.6802666E1,5.9701912E1,1.4597867E2,1.7850919E2,9.426651E1,1.523028E2],"split_indices":[2,2,2,2,9,9,9,2,9,2,2,2,8,2,2,4,2,1,8,6,6,8,8,6,6,2,2,5,8,8,8,1,4,2,9,1,5,1,8,1,1,8,8,1,8,1,5,8,8,8,8,4,7,5,8,8,8,0,5,7,2,0,2,0,0,0,0,0,0,0,0,0,0,0,0,0,0,0,0,0,0,0,0,0,0,0,0,0,0,0,0,0,0,0,0,0,0,0,0,0,0,0,0,0,0,0,0,0,0,0,0,0,0,0,0,0,0,0,0,0,0,0,0,0,0,0,0],"split_type":[0,0,0,0,0,0,0,0,0,0,0,0,0,0,0,0,0,0,0,0,0,0,0,0,0,0,0,0,0,0,0,0,0,0,0,0,0,0,0,0,0,0,0,0,0,0,0,0,0,0,0,0,0,0,0,0,0,0,0,0,0,0,0,0,0,0,0,0,0,0,0,0,0,0,0,0,0,0,0,0,0,0,0,0,0,0,0,0,0,0,0,0,0,0,0,0,0,0,0,0,0,0,0,0,0,0,0,0,0,0,0,0,0,0,0,0,0,0,0,0,0,0,0,0,0,0,0],"sum_hessian":[3.2606864E7,1.9653624E7,1.295324E7,9.765187E6,9.888437E6,6.882174E6,6.071066E6,5.308286E6,4.456901E6,6.532494E6,3.355943E6,4.264377E6,2.617797E6,3.080524E6,2.990542E6,6.88431E5,4.619855E6,3.046575E6,1.410326E6,3.543337E6,2.989157E6,1.767343E6,1.5886E6,2.470236E6,1.794141E6,1.995747E6,6.2205E5,1.146316E6,1.934208E6,1.39405E6,1.596492E6,3.25964E5,3.62467E5,1.93924E6,2.680615E6,2.117804E6,9.28771E5,1.086085E6,3.24241E5,1.823598E6,1.719739E6,1.560893E6,1.428264E6,1.359859E6,4.07484E5,1.220956E6,3.67644E5,1.307545E6,1.162691E6,9.74008E5,8.20133E5,1.103742E6,8.92005E5,3.31037E5,2.91013E5,8.20834E5,3.25482E5,1.378869E6,5.55339E5,1.008014E6,3.86036E5,1.208329E6,3.88163E5,8.6032E4,2.39932E5,2.96334E5,6.6133E4,1.001233E6,9.38007E5,1.883887E6,7.96728E5,1.085282E6,1.032522E6,7.20153E5,2.08618E5,8.54255E5,2.3183E5,1.63015E5,1.61226E5,1.348819E6,4.74779E5,1.202804E6,5.16935E5,1.221547E6,3.39346E5,1.248056E6,1.80208E5,1.059776E6,3.00083E5,2.11746E5,1.95738E5,9.19686E5,3.0127E5,1.65669E5,2.01975E5,1.019478E6,2.88067E5,1.007815E6,1.54876E5,7.5692E5,2.17088E5,7.6786E5,5.2273E4,7.32664E5,3.71078E5,5.73916E5,3.18089E5,1.47889E5,1.83148E5,1.54346E5,1.36667E5,7.69792E5,5.1042E4,2.63942E5,6.154E4,6.16747E5,7.62122E5,4.17643E5,1.37696E5,6.44932E5,3.63082E5,1.79684E5,2.06352E5,5.71231E5,6.37098E5,1.6103E5,2.27133E5],"tree_param":{"num_deleted":"0","num_feature":"10","num_nodes":"127","size_leaf_vector":"1"}},{"base_weights":[1.0174157E-5,-1.4211137E2,2.4270064E2,-2.297568E2,-3.684092E1,1.50747E2,3.5747217E2,-2.7131097E2,-1.6913303E2,6.2861264E-1,-1.0864916E2,2.0801813E2,6.0558006E1,4.082707E2,3.069522E2,-1.5339569E2,-2.849089E2,-1.4393066E2,-2.2204819E2,-4.2246628E1,5.6661842E1,-1.4351332E2,-6.580475E1,1.6331679E2,2.8592557E2,1.0128547E2,-1.3636576E1,4.373548E2,3.5637473E2,2.4137169E2,3.8145337E2,-2.7379938E2,-7.286602E1,-3.236751E2,-2.4601044E2,-1.8251674E2,-1.0361891E2,-1.849517E2,-2.4447047E2,-7.0343346E1,1.3628249E1,8.3221375E1,-2.5565943E1,-9.620352E1,-1.7014275E2,-9.699666E0,-9.611333E1,1.9343369E2,7.419817E1,3.177704E2,1.9858261E2,5.839586E1,1.682648E2,-4.856452E1,3.5182568E1,4.2126544E2,5.12279E2,3.9449844E2,2.4868483E2,2.9907422E2,1.6117195E2,3.4213068E2,4.193986E2,-8.743324E1,-5.4129894E1,-4.631591E1,-1.2544396E1,-9.131146E1,-1.0953141E2,-6.795856E1,-8.627626E1,-6.197463E1,-4.112797E1,-2.6515524E1,-6.558981E1,-6.3394566E1,-4.053022E1,-7.8130844E1,-6.436565E1,-3.2291744E1,-9.387868E0,1.0233266E1,-2.6237907E1,1.54406805E1,4.4755836E1,4.472254E0,-4.09562E1,-3.8075912E1,-1.1085334E1,-4.6236626E1,-6.538062E1,-1.2728465E1,1.6324295E1,-2.2916368E1,-4.7141838E1,6.174276E1,-4.8239155E0,3.6397003E1,-1.633227E1,1.0175706E2,5.4726933E1,7.5526306E1,1.656657E1,2.7790722E1,-6.0778987E-2,3.889237E1,7.44326E1,-6.8191934E0,-3.1397705E1,2.1971336E1,-2.4203181E0,1.1060099E2,1.3537436E2,1.5408485E2,-1.3875069E2,1.2522364E2,8.470378E1,5.4550316E1,9.532809E1,7.962064E1,1.11389656E2,5.8966476E1,2.4947031E1,1.26688965E2,6.400507E1,1.3038129E2,9.032213E1],"categories":[],"categories_nodes":[],"categories_segments":[],"categories_sizes":[],"default_left":[0,0,0,0,0,0,0,0,0,0,0,0,0,0,0,0,0,0,0,0,0,0,0,0,0,0,0,0,0,0,0,0,0,0,0,0,0,0,0,0,0,0,0,0,0,0,0,0,0,0,0,0,0,0,0,0,0,0,0,0,0,0,0,0,0,0,0,0,0,0,0,0,0,0,0,0,0,0,0,0,0,0,0,0,0,0,0,0,0,0,0,0,0,0,0,0,0,0,0,0,0,0,0,0,0,0,0,0,0,0,0,0,0,0,0,0,0,0,0,0,0,0,0,0,0,0,0],"id":1,"left_children":[1,3,5,7,9,11,13,15,17,19,21,23,25,27,29,31,33,35,37,39,41,43,45,47,49,51,53,55,57,59,61,63,65,67,69,71,73,75,77,79,81,83,85,87,89,91,93,95,97,99,101,103,105,107,109,111,113,115,117,119,121,123,125,-1,-1,-1,-1,-1,-1,-1,-1,-1,-1,-1,-1,-1,-1,-1,-1,-1,-1,-1,-1,-1,-1,-1,-1,-1,-1,-1,-1,-1,-1,-1,-1,-1,-1,-1,-1,-1,-1,-1,-1,-1,-1,-1,-1,-1,-1,-1,-1,-1,-1,-1,-1,-1,-1,-1,-1,-1,-1,-1,-1,-1,-1,-1,-1],"loss_changes":[1.1246278E12,1.897436E11,1.2708446E11,2.8270068E10,2.513884E10,3.4531803E10,1.3745914E10,1.0675716E10,6.086197E9,1.4749847E10,4.785328E9,1.4239908E10,7.846054E9,4.0309883E9,1.3120864E10,6.675064E9,9.001959E9,4.808618E9,1.2246712E9,5.46034E9,5.812293E9,2.2252257E9,2.444091E9,6.973399E9,4.1463726E9,4.815624E9,1.5690609E9,2.0630405E9,3.9380337E9,6.6096005E9,1.8758042E9,4.54486E8,1.0442253E9,2.391081E9,2.4135762E9,1.7266033E9,2.648999E9,7.289692E8,4.3829248E8,3.3706772E9,2.4096645E9,4.2134405E9,2.917879E9,1.1577748E9,8.6529434E8,1.0578263E9,1.1233311E9,5.035057E9,3.9783142E9,3.1670845E9,3.0361754E9,2.0504317E9,2.0180152E9,7.773298E8,6.3166054E8,2.2217523E9,3.9460864E8,1.8204099E9,1.1580488E9,2.019967E9,1.6496978E9,6.374056E9,1.1510497E9,0E0,0E0,0E0,0E0,0E0,0E0,0E0,0E0,0E0,0E0,0E0,0E0,0E0,0E0,0E0,0E0,0E0,0E0,0E0,0E0,0E0,0E0,0E0,0E0,0E0,0E0,0E0,0E0,0E0,0E0,0E0,0E0,0E0,0E0,0E0,0E0,0E0,0E0,0E0,0E0,0E0,0E0,0E0,0E0,0E0,0E0,0E0,0E0,0E0,0E0,0E0,0E0,0E0,0E0,0E0,0E0,0E0,0E0,0E0,0E0,0E0,0E0,0E0,0E0],"parents":[2147483647,0,0,1,1,2,2,3,3,4,4,5,5,6,6,7,7,8,8,9,9,10,10,11,11,12,12,13,13,14,14,15,15,16,16,17,17,18,18,19,19,20,20,21,21,22,22,23,23,24,24,25,25,26,26,27,27,28,28,29,29,30,30,31,31,32,32,33,33,34,34,35,35,36,36,37,37,38,38,39,39,40,40,41,41,42,42,43,43,44,44,45,45,46,46,47,47,48,48,49,49,50,50,51,51,52,52,53,53,54,54,55,55,56,56,57,57,58,58,59,59,60,60,61,61,62,62],"right_children":[2,4,6,8,10,12,14,16,18,20,22,24,26,28,30,32,34,36,38,40,42,44,46,48,50,52,54,56,58,60,62,64,66,68,70,72,74,76,78,80,82,84,86,88,90,92,94,96,98,100,102,104,106,108,110,112,114,116,118,120,122,124,126,-1,-1,-1,-1,-1,-1,-1,-1,-1,-1,-1,-1,-1,-1,-1,-1,-1,-1,-1,-1,-1,-1,-1,-1,-1,-1,-1,-1,-1,-1,-1,-1,-1,-1,-1,-1,-1,-1,-1,-1,-1,-1,-1,-1,-1,-1,-1,-1,-1,-1,-1,-1,-1,-1,-1,-1,-1,-1,-1,-1,-1,-1,-1,-1],"split_conditions":[2E0,1.2E0,3.2E0,8.9E-1,6.123234E-17,6.123234E-17,6.123234E-17,1.8E-1,6.123234E-17,1.6E0,1.6E0,2.6E0,-2.5881904E-1,2.5881904E-1,4.68E0,8E0,6.7E-1,4.3388373E-1,-7.0710677E-1,9E0,1E0,-7.0710677E-1,-7.0710677E-1,1E0,1E0,2.6E0,2.6E0,6.19E0,1E0,-2.5881904E-1,1.42E2,2.38E2,-5E-1,2.34E2,2.31E2,9E0,8.660254E-1,9E0,9E0,4.3388373E-1,7.0710677E-1,9E0,2.5881904E-1,9E0,1.2246469E-16,9E0,1.2246469E-16,9.659258E-1,2.5881904E-1,8.660254E-1,2.5881904E-1,6.234898E-1,9E0,5E-1,1.2246469E-16,1.41E2,2.65E2,9.659258E-1,4.58E0,9E0,5E-1,1.32E2,7.0710677E-1,-8.743324E1,-5.4129894E1,-4.631591E1,-1.2544396E1,-9.131146E1,-1.0953141E2,-6.795856E1,-8.627626E1,-6.197463E1,-4.112797E1,-2.6515524E1,-6.558981E1,-6.3394566E1,-4.053022E1,-7.8130844E1,-6.436565E1,-3.2291744E1,-9.387868E0,1.0233266E1,-2.6237907E1,1.54406805E1,4.4755836E1,4.472254E0,-4.09562E1,-3.8075912E1,-1.1085334E1,-4.6236626E1,-6.538062E1,-1.2728465E1,1.6324295E1,-2.2916368E1,-4.7141838E1,6.174276E1,-4.8239155E0,3.6397003E1,-1.633227E1,1.0175706E2,5.4726933E1,7.5526306E1,1.656657E1,2.7790722E1,-6.0778987E-2,3.889237E1,7.44326E1,-6.8191934E0,-3.1397705E1,2.1971336E1,-2.4203181E0,1.1060099E2,1.3537436E2,1.5408485E2,-1.3875069E2,1.2522364E2,8.470378E1,5.4550316E1,9.532809E1,7.962064E1,1.11389656E2,5.8966476E1,2.4947031E1,1.26688965E2,6.400507E1,1.3038129E2,9.032213E1],"split_indices":[2,2,2,2,9,9,9,2,9,2,2,2,8,8,2,4,2,6,8,4,5,8,8,5,5,2,2,2,5,8,0,0,9,1,1,4,8,4,4,6,8,4,8,4,8,4,8,8,8,8,8,7,4,8,8,0,0,8,2,4,8,0,8,0,0,0,0,0,0,0,0,0,0,0,0,0,0,0,0,0,0,0,0,0,0,0,0,0,0,0,0,0,0,0,0,0,0,0,0,0,0,0,0,0,0,0,0,0,0,0,0,0,0,0,0,0,0,0,0,0,0,0,0,0,0,0,0],"split_type":[0,0,0,0,0,0,0,0,0,0,0,0,0,0,0,0,0,0,0,0,0,0,0,0,0,0,0,0,0,0,0,0,0,0,0,0,0,0,0,0,0,0,0,0,0,0,0,0,0,0,0,0,0,0,0,0,0,0,0,0,0,0,0,0,0,0,0,0,0,0,0,0,0,0,0,0,0,0,0,0,0,0,0,0,0,0,0,0,0,0,0,0,0,0,0,0,0,0,0,0,0,0,0,0,0,0,0,0,0,0,0,0,0,0,0,0,0,0,0,0,0,0,0,0,0,0,0],"sum_hessian":[3.2606864E7,2.0565124E7,1.2041741E7,1.1221988E7,9.343135E6,6.685443E6,5.356298E6,6.65818E6,4.563808E6,6.13953E6,3.203605E6,4.088924E6,2.596519E6,2.670782E6,2.685516E6,6.88431E5,5.969749E6,3.09143E6,1.472378E6,3.478142E6,2.661388E6,1.766298E6,1.437307E6,2.598165E6,1.490759E6,1.676333E6,9.20186E5,1.711562E6,9.5922E5,1.428269E6,1.257247E6,2.75907E5,4.12524E5,2.989955E6,2.979794E6,1.579522E6,1.511908E6,5.54687E5,9.17691E5,2.314363E6,1.163779E6,2.011632E6,6.49756E5,6.36139E5,1.130159E6,5.04119E5,9.33188E5,1.941911E6,6.56254E5,1.092453E6,3.98306E5,1.021943E6,6.5439E5,5.36409E5,3.83777E5,1.408998E6,3.02564E5,7.08425E5,2.50795E5,8.30636E5,5.97633E5,6.17422E5,6.39825E5,2.32051E5,4.3856E4,1.13788E5,2.98736E5,2.039625E6,9.5033E5,2.029044E6,9.5075E5,1.0325E6,5.47022E5,1.335076E6,1.76832E5,3.62812E5,1.91875E5,5.98369E5,3.19322E5,1.183776E6,1.130587E6,9.67702E5,1.96077E5,1.357969E6,6.53663E5,4.76091E5,1.73665E5,4.18954E5,2.17185E5,8.4643E5,2.83729E5,3.33749E5,1.7037E5,7.05237E5,2.27951E5,1.833604E6,1.08307E5,4.80302E5,1.75952E5,9.43185E5,1.49268E5,2.90544E5,1.07762E5,6.45038E5,3.76905E5,4.41043E5,2.13347E5,3.67268E5,1.69141E5,2.04149E5,1.79628E5,5.11584E5,8.97414E5,3.0215E5,4.14E2,5.8824E5,1.20185E5,1.27452E5,1.23343E5,5.66521E5,2.64115E5,4.11156E5,1.86477E5,3.80536E5,2.36886E5,5.66963E5,7.2862E4],"tree_param":{"num_deleted":"0","num_feature":"10","num_nodes":"127","size_leaf_vector":"1"}},{"base_weights":[2.141858E-5,-9.453276E1,1.807041E2,-1.545023E2,-1.1508415E1,1.2179167E2,2.6029056E2,-1.8468756E2,-1.0506297E2,2.9572336E1,-4.94834E1,1.5791049E2,4.282311E1,2.3406256E2,3.051941E2,-2.0849599E2,-1.4375345E2,-8.730597E1,-1.5214265E2,5.7694977E1,-5.3985104E1,1.7805669E0,-8.441147E1,1.7026373E2,-1.1909377E1,1.8453594E1,9.142435E1,2.7515564E2,1.924997E2,2.9345483E2,3.754088E2,-2.3412392E2,-1.8336505E2,-4.1085968E1,-1.5878548E2,-1.280464E2,-3.980034E1,-1.274244E2,-1.818453E2,3.3137188E1,1.08884125E2,-7.592787E0,-1.0908818E2,3.23063E1,-8.0215546E1,-6.877291E1,-1.4249362E2,1.405588E2,2.3499046E2,5.028883E0,-1.3166194E2,-9.176611E0,5.398393E1,1.3542812E2,6.1410538E1,2.2967014E2,3.0393765E2,2.253825E2,1.17147095E2,2.5443694E2,3.2992517E2,3.7798547E2,-5.759363E2,-5.432756E1,-7.2718575E1,-5.0227406E1,-6.590197E1,8.348012E0,-2.104557E1,-6.2451523E1,-4.1054546E1,-3.4526623E1,-5.6431637E1,-2.0892069E1,5.994492E0,-3.201787E1,-5.8409664E1,-4.9140003E1,-5.9831043E1,1.4319973E0,2.1872046E1,4.0928627E1,1.2736819E1,7.112939E0,-3.0852137E1,-4.5980476E1,-2.198494E1,-1.6494108E0,2.5493427E1,-3.283847E1,-1.2705022E1,-1.526382E1,-3.8952454E1,-4.8986134E1,-3.4394947E1,3.1728256E1,5.8179455E1,8.8564205E0,7.290104E1,1.0065567E1,-1.3255548E1,-4.5045704E1,-2.8066654E1,2.6193633E0,-1.852729E1,2.738344E1,8.912941E0,5.1932384E1,2.3300575E1,2.9120451E1,4.2708445E0,7.206483E1,1.3363034E0,8.16101E1,1.0500841E2,7.798822E1,4.9085297E1,1.8564821E1,4.7581047E1,1.00198395E2,4.511629E1,1.03555305E2,5.244499E1,1.2616857E2,1.04172516E2,-1.3564508E2,-2.6314105E2],"categories":[],"categories_nodes":[],"categories_segments":[],"categories_sizes":[],"default_left":[0,0,0,0,0,0,0,0,0,0,0,0,0,0,0,0,0,0,0,0,0,0,0,0,0,0,0,0,0,0,0,0,0,0,0,0,0,0,0,0,0,0,0,0,0,0,0,0,0,0,0,0,0,0,0,0,0,0,0,0,0,0,0,0,0,0,0,0,0,0,0,0,0,0,0,0,0,0,0,0,0,0,0,0,0,0,0,0,0,0,0,0,0,0,0,0,0,0,0,0,0,0,0,0,0,0,0,0,0,0,0,0,0,0,0,0,0,0,0,0,0,0,0,0,0,0,0],"id":2,"left_children":[1,3,5,7,9,11,13,15,17,19,21,23,25,27,29,31,33,35,37,39,41,43,45,47,49,51,53,55,57,59,61,63,65,67,69,71,73,75,77,79,81,83,85,87,89,91,93,95,97,99,101,103,105,107,109,111,113,115,117,119,121,123,125,-1,-1,-1,-1,-1,-1,-1,-1,-1,-1,-1,-1,-1,-1,-1,-1,-1,-1,-1,-1,-1,-1,-1,-1,-1,-1,-1,-1,-1,-1,-1,-1,-1,-1,-1,-1,-1,-1,-1,-1,-1,-1,-1,-1,-1,-1,-1,-1,-1,-1,-1,-1,-1,-1,-1,-1,-1,-1,-1,-1,-1,-1,-1,-1],"loss_changes":[5.570054E11,1.0658759E11,5.2508656E10,1.8549211E10,1.4006182E10,1.8355479E10,5.610275E9,7.521403E9,3.939205E9,1.0134198E10,8.3536364E9,9.263464E9,2.3920924E9,5.1361055E9,1.447723E9,3.1426642E9,4.3800044E9,6.622001E9,9.474519E8,4.0562463E9,2.7761976E9,4.7321236E9,2.52041E9,7.9144223E9,6.0737466E8,1.3205856E9,8.9081805E8,1.9795804E9,3.704451E9,2.1413888E9,6.169682E8,1.05967616E9,1.4258504E9,7.260295E8,2.682024E9,1.4334013E9,2.817848E9,9.8075136E8,1.8603827E8,2.4597302E9,1.9141171E9,1.7578995E9,7.8522266E8,2.7432968E9,5.6797926E8,2.388911E9,3.40779E8,5.240185E9,2.1318697E9,3.6824394E8,2.613024E7,7.125397E8,5.3272614E8,5.9523635E8,6.745234E8,1.3918884E9,1.3617316E9,2.2229197E9,1.04062464E9,6.0184904E9,1.8409472E9,3.282985E8,2.49568E7,0E0,0E0,0E0,0E0,0E0,0E0,0E0,0E0,0E0,0E0,0E0,0E0,0E0,0E0,0E0,0E0,0E0,0E0,0E0,0E0,0E0,0E0,0E0,0E0,0E0,0E0,0E0,0E0,0E0,0E0,0E0,0E0,0E0,0E0,0E0,0E0,0E0,0E0,0E0,0E0,0E0,0E0,0E0,0E0,0E0,0E0,0E0,0E0,0E0,0E0,0E0,0E0,0E0,0E0,0E0,0E0,0E0,0E0,0E0,0E0,0E0,0E0,0E0,0E0],"parents":[2147483647,0,0,1,1,2,2,3,3,4,4,5,5,6,6,7,7,8,8,9,9,10,10,11,11,12,12,13,13,14,14,15,15,16,16,17,17,18,18,19,19,20,20,21,21,22,22,23,23,24,24,25,25,26,26,27,27,28,28,29,29,30,30,31,31,32,32,33,33,34,34,35,35,36,36,37,37,38,38,39,39,40,40,41,41,42,42,43,43,44,44,45,45,46,46,47,47,48,48,49,49,50,50,51,51,52,52,53,53,54,54,55,55,56,56,57,57,58,58,59,59,60,60,61,61,62,62],"right_children":[2,4,6,8,10,12,14,16,18,20,22,24,26,28,30,32,34,36,38,40,42,44,46,48,50,52,54,56,58,60,62,64,66,68,70,72,74,76,78,80,82,84,86,88,90,92,94,96,98,100,102,104,106,108,110,112,114,116,118,120,122,124,126,-1,-1,-1,-1,-1,-1,-1,-1,-1,-1,-1,-1,-1,-1,-1,-1,-1,-1,-1,-1,-1,-1,-1,-1,-1,-1,-1,-1,-1,-1,-1,-1,-1,-1,-1,-1,-1,-1,-1,-1,-1,-1,-1,-1,-1,-1,-1,-1,-1,-1,-1,-1,-1,-1,-1,-1,-1,-1,-1,-1,-1,-1,-1,-1],"split_conditions":[2.1E0,1.28E0,3.39E0,9.5E-1,-2.5881904E-1,5E-1,5.3E0,9E0,2.34E2,1E0,-8.660254E-1,9.659258E-1,9E0,6.123234E-17,8.58E0,7E-1,1.8E-1,1.61E2,-2.5881904E-1,9E0,0E0,2.36E2,5E-1,9E0,1E0,2.7E0,-5E-1,1.4E2,0E0,1.42E2,2.65E2,1.8E-1,6.123234E-17,1.32E2,6E-1,2.38E2,9E0,1E0,-8.660254E-1,1.7E0,2.36E2,2.36E2,1.6E0,1.61E2,1.7E0,2.36E2,1.7E0,2.7E0,4.3E1,2.36E2,2.84E0,2.36E2,-5E-1,6.234898E-1,0E0,1.32E2,4.3388373E-1,6.234898E-1,1E0,1.32E2,2.62E2,1.21E2,8.660254E-1,-5.432756E1,-7.2718575E1,-5.0227406E1,-6.590197E1,8.348012E0,-2.104557E1,-6.2451523E1,-4.1054546E1,-3.4526623E1,-5.6431637E1,-2.0892069E1,5.994492E0,-3.201787E1,-5.8409664E1,-4.9140003E1,-5.9831043E1,1.4319973E0,2.1872046E1,4.0928627E1,1.2736819E1,7.112939E0,-3.0852137E1,-4.5980476E1,-2.198494E1,-1.6494108E0,2.5493427E1,-3.283847E1,-1.2705022E1,-1.526382E1,-3.8952454E1,-4.8986134E1,-3.4394947E1,3.1728256E1,5.8179455E1,8.8564205E0,7.290104E1,1.0065567E1,-1.3255548E1,-4.5045704E1,-2.8066654E1,2.6193633E0,-1.852729E1,2.738344E1,8.912941E0,5.1932384E1,2.3300575E1,2.9120451E1,4.2708445E0,7.206483E1,1.3363034E0,8.16101E1,1.0500841E2,7.798822E1,4.9085297E1,1.8564821E1,4.7581047E1,1.00198395E2,4.511629E1,1.03555305E2,5.244499E1,1.2616857E2,1.04172516E2,-1.3564508E2,-2.6314105E2],"split_indices":[2,2,2,2,9,9,2,4,1,5,8,8,4,9,2,2,2,1,9,4,8,1,8,4,5,2,8,1,8,0,0,2,9,1,2,0,4,5,8,2,0,1,2,1,2,1,2,2,1,0,2,1,8,7,6,1,6,7,5,0,0,1,8,0,0,0,0,0,0,0,0,0,0,0,0,0,0,0,0,0,0,0,0,0,0,0,0,0,0,0,0,0,0,0,0,0,0,0,0,0,0,0,0,0,0,0,0,0,0,0,0,0,0,0,0,0,0,0,0,0,0,0,0,0,0,0,0],"split_type":[0,0,0,0,0,0,0,0,0,0,0,0,0,0,0,0,0,0,0,0,0,0,0,0,0,0,0,0,0,0,0,0,0,0,0,0,0,0,0,0,0,0,0,0,0,0,0,0,0,0,0,0,0,0,0,0,0,0,0,0,0,0,0,0,0,0,0,0,0,0,0,0,0,0,0,0,0,0,0,0,0,0,0,0,0,0,0,0,0,0,0,0,0,0,0,0,0,0,0,0,0,0,0,0,0,0,0,0,0,0,0,0,0,0,0,0,0,0,0,0,0,0,0,0,0,0,0],"sum_hessian":[3.2606864E7,2.140772E7,1.1199145E7,1.2429634E7,8.978085E6,6.435435E6,4.76371E6,7.717625E6,4.712009E6,4.312687E6,4.665398E6,4.415749E6,2.019686E6,3.007213E6,1.756497E6,4.879542E6,2.838083E6,3.42152E6,1.290489E6,3.226691E6,1.085996E6,1.890585E6,2.774813E6,4.116315E6,2.99434E5,1.345187E6,6.74499E5,1.51215E6,1.495063E6,1.504897E6,2.516E5,2.415879E6,2.463663E6,3.62467E5,2.475616E6,1.841911E6,1.579609E6,7.04345E5,5.86144E5,2.180572E6,1.046119E6,5.89601E5,4.96395E5,1.377694E6,5.12891E5,2.186187E6,5.88626E5,2.821467E6,1.294848E6,2.6233E5,3.7104E4,7.56722E5,5.88465E5,2.73505E5,4.00994E5,5.8603E5,9.2612E5,1.040849E6,4.54214E5,7.27059E5,7.77838E5,2.50921E5,6.79E2,3.25964E5,2.089915E6,1.712035E6,7.51628E5,1.07528E5,2.54939E5,7.61426E5,1.71419E6,1.515045E6,3.26866E5,1.053673E6,5.25936E5,5.38629E5,1.65716E5,2.89345E5,2.96799E5,1.272804E6,9.07768E5,7.39487E5,3.06632E5,4.43762E5,1.45839E5,2.22208E5,2.74187E5,8.02042E5,5.75652E5,2.89381E5,2.2351E5,1.690779E6,4.95408E5,3.36973E5,2.51653E5,1.707932E6,1.113535E6,4.8602E4,1.246246E6,1.66077E5,9.6253E4,2.498E4,1.2124E4,5.64476E5,1.92246E5,2.32009E5,3.56456E5,1.65523E5,1.07982E5,2.28373E5,1.72621E5,5.59816E5,2.6214E4,5.4729E5,3.7883E5,6.67279E5,3.7357E5,1.94686E5,2.59528E5,4.1202E5,3.15039E5,7.08169E5,6.9669E4,1.05208E5,1.45713E5,4.83E2,1.96E2],"tree_param":{"num_deleted":"0","num_feature":"10","num_nodes":"127","size_leaf_vector":"1"}},{"base_weights":[1.2115284E-5,-8.102083E1,1.06487976E2,-1.2756151E2,-4.3474445E1,5.0672493E1,1.6456535E2,-1.440983E2,-9.8992E1,-1.6537075E1,-6.936173E1,8.085103E1,1.31739435E1,1.300742E2,1.9694327E2,-1.7302338E2,-1.3073001E2,-8.136456E1,-1.4083282E2,3.7032673E0,-7.855639E1,-3.3597015E1,-9.5041E1,4.436094E1,1.2263544E2,4.7365643E1,-1.4406309E1,1.6272685E2,7.132849E1,2.265667E2,1.6829788E2,-1.2676446E2,-1.8436574E2,-1.1810429E2,-1.6602243E2,-1.196578E2,-3.5293118E1,-9.869779E0,-1.5439908E2,1.7309456E1,-8.71032E1,-5.4888252E1,-1.685855E2,-1.3326883E1,-9.1180405E1,-1.20030945E2,-6.850671E1,2.1679747E1,9.0578384E1,1.4960258E2,3.765069E1,7.092519E1,-1.1575108E1,1.3963449E1,-4.3600246E1,1.8170065E2,8.127609E1,4.83923E1,1.1823305E2,2.5219731E2,1.9028156E2,1.4993498E2,2.1798582E2,-1.746184E1,-4.5404087E1,-6.7476234E1,-5.1305058E1,-4.5024315E1,-2.559942E1,-4.474604E1,-5.6728313E1,-4.749581E1,-2.3669699E1,-4.328021E0,-3.1608154E1,5.952416E1,-6.173256E1,-5.4481236E1,-3.9366158E1,9.481758E0,-2.3165977E1,-4.4899918E1,-1.2297262E1,-1.0586099E1,-3.3726624E1,-6.0824963E1,-3.7680622E1,-1.347086E1,7.902678E0,-4.548767E1,-2.3086037E1,-3.14863E1,-4.8012486E1,-2.6614567E1,-8.957253E0,2.012767E1,1.4216863E0,3.2680923E1,1.8005196E-2,2.4300306E1,5.2196453E1,1.7549852E1,-5.1703367E0,3.0785933E1,5.7252154E0,-1.216819E1,8.758018E0,1.2840837E1,-1.3912718E1,-6.992218E0,-2.2271158E1,5.26701E0,5.784685E1,3.3259735E1,-1.751532E1,-1.4696856E1,1.700961E1,4.107016E1,8.6343565E0,8.3480095E1,6.642027E1,6.6389404E1,4.4022003E1,5.4798923E1,3.624879E1,6.827348E1,1.9990364E1],"categories":[],"categories_nodes":[],"categories_segments":[],"categories_sizes":[],"default_left":[0,0,0,0,0,0,0,0,0,0,0,0,0,0,0,0,0,0,0,0,0,0,0,0,0,0,0,0,0,0,0,0,0,0,0,0,0,0,0,0,0,0,0,0,0,0,0,0,0,0,0,0,0,0,0,0,0,0,0,0,0,0,0,0,0,0,0,0,0,0,0,0,0,0,0,0,0,0,0,0,0,0,0,0,0,0,0,0,0,0,0,0,0,0,0,0,0,0,0,0,0,0,0,0,0,0,0,0,0,0,0,0,0,0,0,0,0,0,0,0,0,0,0,0,0,0,0],"id":3,"left_children":[1,3,5,7,9,11,13,15,17,19,21,23,25,27,29,31,33,35,37,39,41,43,45,47,49,51,53,55,57,59,61,63,65,67,69,71,73,75,77,79,81,83,85,87,89,91,93,95,97,99,101,103,105,107,109,111,113,115,117,119,121,123,125,-1,-1,-1,-1,-1,-1,-1,-1,-1,-1,-1,-1,-1,-1,-1,-1,-1,-1,-1,-1,-1,-1,-1,-1,-1,-1,-1,-1,-1,-1,-1,-1,-1,-1,-1,-1,-1,-1,-1,-1,-1,-1,-1,-1,-1,-1,-1,-1,-1,-1,-1,-1,-1,-1,-1,-1,-1,-1,-1,-1,-1,-1,-1,-1],"loss_changes":[2.8132373E11,3.2358506E10,4.5671547E10,3.906429E9,7.1471555E9,8.130312E9,7.710753E9,2.0250624E9,2.235777E9,6.305018E9,4.8000635E9,6.069549E9,3.0211374E9,6.4129843E9,3.0221107E9,8.68524E8,1.5959777E9,3.7627924E9,1.5964406E9,4.678806E9,2.6334054E9,2.5495703E9,2.017237E9,2.2275796E9,4.2530202E9,1.986283E9,1.4686877E9,3.3208689E9,1.2849347E9,1.6282337E9,1.6519905E9,5.493514E8,7.196549E8,2.764546E9,3.6727194E8,1.8353777E9,1.4154076E9,3.441604E9,5.1339674E8,4.4508124E9,1.4236372E9,1.1036001E9,3.7777306E8,2.023684E9,4.8905165E8,9.4504755E8,1.152427E9,1.0966458E9,1.1624637E9,2.356656E9,5.1152166E8,1.679105E9,4.8270048E8,1.5649864E9,5.433445E8,3.1818015E9,1.6777851E9,6.488531E8,6.549842E8,8.237056E8,9.787781E8,1.2593152E9,7.0931046E8,0E0,0E0,0E0,0E0,0E0,0E0,0E0,0E0,0E0,0E0,0E0,0E0,0E0,0E0,0E0,0E0,0E0,0E0,0E0,0E0,0E0,0E0,0E0,0E0,0E0,0E0,0E0,0E0,0E0,0E0,0E0,0E0,0E0,0E0,0E0,0E0,0E0,0E0,0E0,0E0,0E0,0E0,0E0,0E0,0E0,0E0,0E0,0E0,0E0,0E0,0E0,0E0,0E0,0E0,0E0,0E0,0E0,0E0,0E0,0E0,0E0,0E0,0E0,0E0],"parents":[2147483647,0,0,1,1,2,2,3,3,4,4,5,5,6,6,7,7,8,8,9,9,10,10,11,11,12,12,13,13,14,14,15,15,16,16,17,17,18,18,19,19,20,20,21,21,22,22,23,23,24,24,25,25,26,26,27,27,28,28,29,29,30,30,31,31,32,32,33,33,34,34,35,35,36,36,37,37,38,38,39,39,40,40,41,41,42,42,43,43,44,44,45,45,46,46,47,47,48,48,49,49,50,50,51,51,52,52,53,53,54,54,55,55,56,56,57,57,58,58,59,59,60,60,61,61,62,62],"right_children":[2,4,6,8,10,12,14,16,18,20,22,24,26,28,30,32,34,36,38,40,42,44,46,48,50,52,54,56,58,60,62,64,66,68,70,72,74,76,78,80,82,84,86,88,90,92,94,96,98,100,102,104,106,108,110,112,114,116,118,120,122,124,126,-1,-1,-1,-1,-1,-1,-1,-1,-1,-1,-1,-1,-1,-1,-1,-1,-1,-1,-1,-1,-1,-1,-1,-1,-1,-1,-1,-1,-1,-1,-1,-1,-1,-1,-1,-1,-1,-1,-1,-1,-1,-1,-1,-1,-1,-1,-1,-1,-1,-1,-1,-1,-1,-1,-1,-1,-1,-1,-1,-1,-1,-1,-1,-1],"split_conditions":[1.78E0,1E0,2.8E0,9E0,-2.5881904E-1,-1.8369701E-16,3.9E0,6E-1,2.34E2,1E0,-8.660254E-1,4.3388373E-1,-7.0710677E-1,5E-1,-2.5881904E-1,1.8E-1,2.36E2,1.61E2,1.8E-1,2.38E2,5E-1,2.36E2,1.37E0,9E0,7.0710677E-1,2.36E2,0E0,7.0710677E-1,9E0,6.234898E-1,6.64E0,1.32E2,4E-1,1.61E2,-2.5881904E-1,1.61E2,5E-1,2.34E2,7E-1,2.38E2,2.44E2,2.36E2,1.4E0,1.61E2,2.37E2,1.2246469E-16,9E0,-2.2252093E-1,7.0710677E-1,4E0,9.659258E-1,6.234898E-1,2.28E0,1.2246469E-16,-2.5881904E-1,4.3E1,1E0,4.3E1,1.2246469E-16,5E-1,5E-1,-2.5881904E-1,2.62E2,-1.746184E1,-4.5404087E1,-6.7476234E1,-5.1305058E1,-4.5024315E1,-2.559942E1,-4.474604E1,-5.6728313E1,-4.749581E1,-2.3669699E1,-4.328021E0,-3.1608154E1,5.952416E1,-6.173256E1,-5.4481236E1,-3.9366158E1,9.481758E0,-2.3165977E1,-4.4899918E1,-1.2297262E1,-1.0586099E1,-3.3726624E1,-6.0824963E1,-3.7680622E1,-1.347086E1,7.902678E0,-4.548767E1,-2.3086037E1,-3.14863E1,-4.8012486E1,-2.6614567E1,-8.957253E0,2.012767E1,1.4216863E0,3.2680923E1,1.8005196E-2,2.4300306E1,5.2196453E1,1.7549852E1,-5.1703367E0,3.0785933E1,5.7252154E0,-1.216819E1,8.758018E0,1.2840837E1,-1.3912718E1,-6.992218E0,-2.2271158E1,5.26701E0,5.784685E1,3.3259735E1,-1.751532E1,-1.4696856E1,1.700961E1,4.107016E1,8.6343565E0,8.3480095E1,6.642027E1,6.6389404E1,4.4022003E1,5.4798923E1,3.624879E1,6.827348E1,1.9990364E1],"split_indices":[2,2,2,4,9,9,2,2,1,5,8,6,8,9,8,2,0,1,2,1,8,1,2,4,8,1,6,8,4,7,2,1,2,0,9,0,9,0,2,0,1,1,2,1,1,8,4,7,8,4,8,7,2,8,8,1,5,1,8,9,9,9,0,0,0,0,0,0,0,0,0,0,0,0,0,0,0,0,0,0,0,0,0,0,0,0,0,0,0,0,0,0,0,0,0,0,0,0,0,0,0,0,0,0,0,0,0,0,0,0,0,0,0,0,0,0,0,0,0,0,0,0,0,0,0,0,0],"split_type":[0,0,0,0,0,0,0,0,0,0,0,0,0,0,0,0,0,0,0,0,0,0,0,0,0,0,0,0,0,0,0,0,0,0,0,0,0,0,0,0,0,0,0,0,0,0,0,0,0,0,0,0,0,0,0,0,0,0,0,0,0,0,0,0,0,0,0,0,0,0,0,0,0,0,0,0,0,0,0,0,0,0,0,0,0,0,0,0,0,0,0,0,0,0,0,0,0,0,0,0,0,0,0,0,0,0,0,0,0,0,0,0,0,0,0,0,0,0,0,0,0,0,0,0,0,0,0],"sum_hessian":[3.2606864E7,1.8517736E7,1.4089128E7,8.268501E6,1.0249235E7,7.184469E6,6.904659E6,5.237115E6,3.031386E6,5.022748E6,5.226487E6,3.980773E6,3.203696E6,3.34323E6,3.561429E6,1.655369E6,3.581746E6,2.132832E6,8.98554E5,3.78688E6,1.235868E6,2.184305E6,3.042182E6,2.125013E6,1.85576E6,1.430402E6,1.773294E6,2.148839E6,1.194391E6,1.750822E6,1.810607E6,3.25964E5,1.329405E6,2.638012E6,9.43734E5,1.164736E6,9.68096E5,8.4343E4,8.14211E5,3.293406E6,4.93474E5,9.78601E5,2.57267E5,1.615595E6,5.6871E5,1.566681E6,1.475501E6,1.425467E6,6.99546E5,1.408741E6,4.47019E5,1.021923E6,4.08479E5,8.99342E5,8.73952E5,1.742845E6,4.05994E5,8.02146E5,3.92245E5,1.026049E6,7.24773E5,1.322034E6,4.88573E5,8.6032E4,2.39932E5,3.29213E5,1.000192E6,1.335222E6,1.30279E6,5.45154E5,3.9858E5,5.97745E5,5.66991E5,7.4595E5,2.22146E5,4.088E4,4.3463E4,3.74568E5,4.39643E5,2.860753E6,4.32653E5,2.09386E5,2.84088E5,7.29924E5,2.48677E5,1.43336E5,1.13931E5,8.9956E5,7.16035E5,1.08352E5,4.60358E5,1.137905E6,4.28776E5,9.68894E5,5.06607E5,3.87285E5,1.038182E6,5.81593E5,1.17953E5,3.69439E5,1.039302E6,3.23959E5,1.2306E5,6.34191E5,3.87732E5,2.3874E5,1.69739E5,6.08505E5,2.90837E5,5.25729E5,3.48223E5,1.10599E5,1.632246E6,3.35015E5,7.0979E4,6.3043E4,7.39103E5,3.24521E5,6.7724E4,5.55663E5,4.70386E5,4.23262E5,3.01511E5,6.2229E5,6.99744E5,4.59453E5,2.912E4],"tree_param":{"num_deleted":"0","num_feature":"10","num_nodes":"127","size_leaf_vector":"1"}},{"base_weights":[7.0308365E-6,-4.529106E1,9.641273E1,-7.502764E1,8.864227E-1,7.087773E1,1.3322713E2,-9.624715E1,-5.6844162E1,-1.65935E1,3.5783585E1,9.985262E1,3.8916462E1,1.04215904E2,1.5512569E2,-4.495563E1,-1.0262191E2,-4.5005222E1,-9.2401665E1,1.3467561E1,-3.491926E1,5.294636E1,-1.3143162E1,1.228583E2,3.693547E1,7.155407E1,1.5511711E1,1.5164244E2,3.16404E0,1.6406464E2,5.4801495E1,-1.07712036E2,-1.2954363E1,-9.157781E1,-1.4409508E2,-7.8641304E1,-1.0953878E1,-7.182989E1,-1.0875586E2,-1.6348083E1,4.7365623E1,-1.3914419E1,-5.867625E1,1.7412369E1,9.728831E1,-5.8566708E1,9.218845E0,1.3172618E2,-3.455185E0,8.185344E1,-2.6460974E1,4.6242275E1,1.2504128E2,6.730499E1,2.8898172E0,1.3642685E2,2.4714653E2,-9.852946E1,1.3048993E2,1.6883842E2,6.395722E1,6.0398144E1,-5.785693E2,-4.0654152E1,-1.4795387E1,1.45870905E1,-1.1540626E1,-3.515759E1,-1.9683607E1,-5.402159E1,-4.0555695E1,-1.7954933E1,-3.2341606E1,3.1091878E0,-1.676547E1,-1.6584911E1,-3.7059013E1,-3.802312E1,-2.3931782E1,-1.646684E1,-1.0121262E0,1.8206343E1,-1.1014566E1,2.4988594E0,-1.4685166E1,-1.3850615E1,-2.4113556E1,1.0495725E1,-1.2638381E1,3.431857E1,-1.2070432E1,-9.97415E0,-3.054627E1,1.5457118E1,-1.1617702E1,2.8559494E1,4.7039814E1,-1.5099972E1,1.5847782E1,3.3707012E1,1.4245958E1,-4.4806242E-1,-2.6323856E1,2.122764E1,2.2649827E0,4.1397346E1,1.163958E1,3.0485655E1,-2.1165292E-1,-9.088267E0,5.6814785E0,5.012566E1,3.2868263E1,8.250286E1,5.2781857E1,-4.4085423E1,2.033695E1,2.9668749E1,6.5618996E1,5.699262E1,4.29973E1,1.31902685E1,4.3856205E1,9.580704E0,4.767131E1,-2.2225272E2,-1.3826962E2],"categories":[],"categories_nodes":[],"categories_segments":[],"categories_sizes":[],"default_left":[0,0,0,0,0,0,0,0,0,0,0,0,0,0,0,0,0,0,0,0,0,0,0,0,0,0,0,0,0,0,0,0,0,0,0,0,0,0,0,0,0,0,0,0,0,0,0,0,0,0,0,0,0,0,0,0,0,0,0,0,0,0,0,0,0,0,0,0,0,0,0,0,0,0,0,0,0,0,0,0,0,0,0,0,0,0,0,0,0,0,0,0,0,0,0,0,0,0,0,0,0,0,0,0,0,0,0,0,0,0,0,0,0,0,0,0,0,0,0,0,0,0,0,0,0,0,0],"id":4,"left_children":[1,3,5,7,9,11,13,15,17,19,21,23,25,27,29,31,33,35,37,39,41,43,45,47,49,51,53,55,57,59,61,63,65,67,69,71,73,75,77,79,81,83,85,87,89,91,93,95,97,99,101,103,105,107,109,111,113,115,117,119,121,123,125,-1,-1,-1,-1,-1,-1,-1,-1,-1,-1,-1,-1,-1,-1,-1,-1,-1,-1,-1,-1,-1,-1,-1,-1,-1,-1,-1,-1,-1,-1,-1,-1,-1,-1,-1,-1,-1,-1,-1,-1,-1,-1,-1,-1,-1,-1,-1,-1,-1,-1,-1,-1,-1,-1,-1,-1,-1,-1,-1,-1,-1,-1,-1,-1],"loss_changes":[1.4238228E11,3.0463746E10,9.797001E9,5.2069253E9,5.301032E9,5.69864E9,2.7115766E9,2.0362281E9,3.059284E9,3.1896714E9,2.435358E9,4.671736E9,2.2350894E9,8.79882E9,2.1812183E9,1.3825661E9,2.5370952E9,6.244555E9,6.107146E8,2.2163272E9,1.7950121E9,3.3829955E9,7.650265E8,2.6473103E9,2.4608612E9,1.6543662E9,1.1139681E9,1.8156933E9,7.5932605E9,1.0672456E9,7.0539437E8,3.7743974E8,7.1633734E8,2.9092905E9,3.7334835E8,1.5031276E9,2.59507E9,6.877724E8,5.27232E8,5.834035E8,1.1494746E9,1.4878835E9,4.5818624E8,1.2471214E9,2.247081E9,2.7210528E8,1.0236682E9,2.0225475E9,4.0904976E8,5.3022822E8,5.483602E8,7.868169E8,4.3837286E8,7.792141E8,7.2966406E8,8.877384E8,3.4063462E8,2.6257262E9,7.259361E8,1.149526E9,1.670826E8,5.530166E8,3.2940736E7,0E0,0E0,0E0,0E0,0E0,0E0,0E0,0E0,0E0,0E0,0E0,0E0,0E0,0E0,0E0,0E0,0E0,0E0,0E0,0E0,0E0,0E0,0E0,0E0,0E0,0E0,0E0,0E0,0E0,0E0,0E0,0E0,0E0,0E0,0E0,0E0,0E0,0E0,0E0,0E0,0E0,0E0,0E0,0E0,0E0,0E0,0E0,0E0,0E0,0E0,0E0,0E0,0E0,0E0,0E0,0E0,0E0,0E0,0E0,0E0,0E0,0E0,0E0,0E0],"parents":[2147483647,0,0,1,1,2,2,3,3,4,4,5,5,6,6,7,7,8,8,9,9,10,10,11,11,12,12,13,13,14,14,15,15,16,16,17,17,18,18,19,19,20,20,21,21,22,22,23,23,24,24,25,25,26,26,27,27,28,28,29,29,30,30,31,31,32,32,33,33,34,34,35,35,36,36,37,37,38,38,39,39,40,40,41,41,42,42,43,43,44,44,45,45,46,46,47,47,48,48,49,49,50,50,51,51,52,52,53,53,54,54,55,55,56,56,57,57,58,58,59,59,60,60,61,61,62,62],"right_children":[2,4,6,8,10,12,14,16,18,20,22,24,26,28,30,32,34,36,38,40,42,44,46,48,50,52,54,56,58,60,62,64,66,68,70,72,74,76,78,80,82,84,86,88,90,92,94,96,98,100,102,104,106,108,110,112,114,116,118,120,122,124,126,-1,-1,-1,-1,-1,-1,-1,-1,-1,-1,-1,-1,-1,-1,-1,-1,-1,-1,-1,-1,-1,-1,-1,-1,-1,-1,-1,-1,-1,-1,-1,-1,-1,-1,-1,-1,-1,-1,-1,-1,-1,-1,-1,-1,-1,-1,-1,-1,-1,-1,-1,-1,-1,-1,-1,-1,-1,-1,-1,-1,-1,-1,-1,-1],"split_conditions":[2.2E0,1.35E0,3.57E0,8.5E-1,9E0,-1.8369701E-16,1.41E2,1.8E-1,2.36E2,-5E-1,2.36E2,1E0,-7.0710677E-1,1.32E2,2.62E2,7E0,5E-1,1.61E2,-5E-1,4.3388373E-1,-7.0710677E-1,1.61E2,1.61E2,2.61E2,0E0,9E0,-7.818315E-1,1.13E2,6.9E0,9.659258E-1,2.65E2,2.09E2,1.32E2,4.3388373E-1,5E-1,1.25E2,6.123234E-17,1E0,2.46E2,3E0,2.38E2,6.234898E-1,6.234898E-1,2.36E2,8.660254E-1,1.42E2,2.36E2,1.58E2,2.63E2,-7.818315E-1,7.0710677E-1,6.234898E-1,1E0,1.2246469E-16,5E0,7E1,2.5881904E-1,1.4E2,9.55E0,5E-1,6.9E0,2.46E2,6.64E0,-4.0654152E1,-1.4795387E1,1.45870905E1,-1.1540626E1,-3.515759E1,-1.9683607E1,-5.402159E1,-4.0555695E1,-1.7954933E1,-3.2341606E1,3.1091878E0,-1.676547E1,-1.6584911E1,-3.7059013E1,-3.802312E1,-2.3931782E1,-1.646684E1,-1.0121262E0,1.8206343E1,-1.1014566E1,2.4988594E0,-1.4685166E1,-1.3850615E1,-2.4113556E1,1.0495725E1,-1.2638381E1,3.431857E1,-1.2070432E1,-9.97415E0,-3.054627E1,1.5457118E1,-1.1617702E1,2.8559494E1,4.7039814E1,-1.5099972E1,1.5847782E1,3.3707012E1,1.4245958E1,-4.4806242E-1,-2.6323856E1,2.122764E1,2.2649827E0,4.1397346E1,1.163958E1,3.0485655E1,-2.1165292E-1,-9.088267E0,5.6814785E0,5.012566E1,3.2868263E1,8.250286E1,5.2781857E1,-4.4085423E1,2.033695E1,2.9668749E1,6.5618996E1,5.699262E1,4.29973E1,1.31902685E1,4.3856205E1,9.580704E0,4.767131E1,-2.2225272E2,-1.3826962E2],"split_indices":[2,2,2,2,4,9,0,2,0,9,1,5,8,0,0,4,9,0,9,6,8,1,0,0,8,4,6,0,2,8,0,1,1,6,2,0,9,5,0,4,1,7,7,0,8,0,0,0,0,6,8,7,7,8,4,0,8,0,2,9,2,1,2,0,0,0,0,0,0,0,0,0,0,0,0,0,0,0,0,0,0,0,0,0,0,0,0,0,0,0,0,0,0,0,0,0,0,0,0,0,0,0,0,0,0,0,0,0,0,0,0,0,0,0,0,0,0,0,0,0,0,0,0,0,0,0,0],"split_type":[0,0,0,0,0,0,0,0,0,0,0,0,0,0,0,0,0,0,0,0,0,0,0,0,0,0,0,0,0,0,0,0,0,0,0,0,0,0,0,0,0,0,0,0,0,0,0,0,0,0,0,0,0,0,0,0,0,0,0,0,0,0,0,0,0,0,0,0,0,0,0,0,0,0,0,0,0,0,0,0,0,0,0,0,0,0,0,0,0,0,0,0,0,0,0,0,0,0,0,0,0,0,0,0,0,0,0,0,0,0,0,0,0,0,0,0,0,0,0,0,0,0,0,0,0,0,0],"sum_hessian":[3.2606864E7,2.2185128E7,1.0421737E7,1.3494908E7,8.690219E6,6.153549E6,4.268188E6,6.227556E6,7.267352E6,5.790013E6,2.900206E6,3.227561E6,2.925988E6,1.83594E6,2.432248E6,6.88431E5,5.539125E6,5.452075E6,1.815277E6,2.192878E6,3.597135E6,2.147052E6,7.53154E5,2.363387E6,8.64174E5,1.221968E6,1.70402E6,1.249509E6,5.86431E5,2.233262E6,1.98986E5,2.32494E5,4.55937E5,4.374279E6,1.164846E6,2.742761E6,2.709314E6,8.03973E5,1.011304E6,1.166693E6,1.026185E6,1.909152E6,1.687983E6,1.191905E6,9.55147E5,2.4846E5,5.04694E5,2.208349E6,1.55038E5,5.05801E5,3.58373E5,8.29449E5,3.92519E5,3.33895E5,1.370125E6,1.077798E6,1.71711E5,3.26033E5,2.60398E5,2.131612E6,1.0165E5,1.97244E5,1.742E3,1.57504E5,7.499E4,1.3357E5,3.22367E5,2.202048E6,2.172231E6,2.31205E5,9.33641E5,1.668004E6,1.074757E6,1.8375E6,8.71814E5,6.09047E5,1.94926E5,6.24017E5,3.87287E5,2.93833E5,8.7286E5,8.8583E5,1.40355E5,1.167759E6,7.41393E5,1.070837E6,6.17146E5,9.20283E5,2.71622E5,8.49478E5,1.05669E5,1.56722E5,9.1738E4,2.68116E5,2.36578E5,8.98856E5,1.309493E6,8.4585E4,7.0453E4,2.67962E5,2.37839E5,2.54636E5,1.03737E5,5.07734E5,3.21715E5,3.41274E5,5.1245E4,2.21925E5,1.1197E5,4.46623E5,9.23502E5,5.03366E5,5.74432E5,1.23416E5,4.8295E4,2.52516E5,7.3517E4,1.91746E5,6.8652E4,1.165804E6,9.65808E5,8.1773E4,1.9877E4,1.53029E5,4.4215E4,7.3E2,1.012E3],"tree_param":{"num_deleted":"0","num_feature":"10","num_nodes":"127","size_leaf_vector":"1"}},{"base_weights":[1.9637755E-6,-4.349671E1,5.0537075E1,-6.1518314E1,-2.348591E1,1.6812994E1,7.7060234E1,-5.2560112E1,-9.727221E1,-3.709473E1,3.1108108E0,3.259436E0,4.4389595E1,6.19959E1,1.1052803E2,-6.583699E1,-2.9354113E1,-8.10534E1,-1.5268225E2,-2.7205404E1,-6.7413925E1,1.2213571E1,-5.42722E1,1.4208702E1,-2.9117207E1,6.3383778E1,1.4852881E1,5.121412E1,1.10393974E2,1.3210748E2,8.683057E1,-5.6053642E1,-8.795362E1,-1.53547325E1,-6.640186E1,-6.0358284E1,-1.3310721E2,-1.6592244E2,-1.172557E2,-5.327858E1,-4.7050634E-1,-1.27643074E2,-5.8594296E1,3.2341343E1,-1.9511417E1,-3.829988E1,-1.2010983E2,1.8581701E1,-1.0383088E2,-9.3728165E1,-2.300197E1,7.647805E1,8.366997E0,3.2618477E1,-3.2875122E1,6.886409E1,2.425734E1,1.5255733E2,9.841193E1,1.542813E2,1.00168755E2,1.1274545E2,5.9897816E1,-1.94761E1,1.5831032E1,-2.7218092E1,-2.3556335E0,-1.3649708E1,5.165693E0,2.125118E1,-2.3675749E1,-1.4264413E1,-2.6583702E1,-1.0468033E1,-4.399078E1,-3.5720806E1,-5.1314335E1,-3.8752373E1,-2.946609E1,-1.0921528E1,-2.2609325E1,2.811949E1,-2.4315662E0,-2.9129833E1,-5.7312523E1,-2.235104E1,-7.890824E0,1.5785636E1,-3.0338657E0,1.0457369E0,-1.9243532E1,-4.8832455E0,-2.2619637E1,-3.2560658E1,-5.0494026E1,1.4680003E-2,1.2992089E1,-5.8884117E1,-2.5109203E1,-3.2202194E1,-1.3224664E1,-1.835924E1,-3.7092624E0,2.8846735E1,6.976388E0,1.0187883E1,-1.1996492E1,2.0297477E0,2.2313347E1,-6.240207E0,-2.087603E1,2.2824245E1,-2.0354898E0,1.5693878E0,1.8167316E1,6.1185802E1,4.1055767E1,3.7496838E1,2.2069897E1,4.038716E1,5.4821705E1,3.7596985E1,1.820843E1,4.1913815E1,1.5698628E1,1.0152409E1,2.6683E1],"categories":[],"categories_nodes":[],"categories_segments":[],"categories_sizes":[],"default_left":[0,0,0,0,0,0,0,0,0,0,0,0,0,0,0,0,0,0,0,0,0,0,0,0,0,0,0,0,0,0,0,0,0,0,0,0,0,0,0,0,0,0,0,0,0,0,0,0,0,0,0,0,0,0,0,0,0,0,0,0,0,0,0,0,0,0,0,0,0,0,0,0,0,0,0,0,0,0,0,0,0,0,0,0,0,0,0,0,0,0,0,0,0,0,0,0,0,0,0,0,0,0,0,0,0,0,0,0,0,0,0,0,0,0,0,0,0,0,0,0,0,0,0,0,0,0,0],"id":5,"left_children":[1,3,5,7,9,11,13,15,17,19,21,23,25,27,29,31,33,35,37,39,41,43,45,47,49,51,53,55,57,59,61,63,65,67,69,71,73,75,77,79,81,83,85,87,89,91,93,95,97,99,101,103,105,107,109,111,113,115,117,119,121,123,125,-1,-1,-1,-1,-1,-1,-1,-1,-1,-1,-1,-1,-1,-1,-1,-1,-1,-1,-1,-1,-1,-1,-1,-1,-1,-1,-1,-1,-1,-1,-1,-1,-1,-1,-1,-1,-1,-1,-1,-1,-1,-1,-1,-1,-1,-1,-1,-1,-1,-1,-1,-1,-1,-1,-1,-1,-1,-1,-1,-1,-1,-1,-1,-1],"loss_changes":[7.16763E10,6.319651E9,1.3491085E10,2.953171E9,3.005548E9,2.4817828E9,4.2565837E9,2.2716436E9,1.6601436E9,1.6470277E9,1.4681361E9,1.5782186E9,1.2275661E9,3.0380872E9,1.3401211E9,1.0147533E9,1.3916234E9,1.5394324E9,1.9617894E8,2.8872827E9,7.1765914E8,1.5490372E9,4.0466112E8,1.7172833E9,4.445339E8,9.593631E8,7.26138E8,2.2654198E9,5.3586125E8,9.713623E8,8.717578E8,3.137403E9,3.195177E8,1.9121178E9,1.2640932E9,3.7008563E8,5.401416E8,7.309722E7,2.5806592E7,7.814702E8,1.4708369E9,3.341445E8,6.054131E8,1.2776988E9,9.6655494E8,2.5301594E8,4.1898496E7,1.4699999E9,2.211977E8,6.573677E7,4.176148E8,1.1265766E9,3.1683472E8,6.7374995E8,1.0297024E8,1.570899E9,1.3011885E9,1.8943334E8,5.4541875E8,4.5284557E8,5.58079E8,1.0370847E9,4.635392E8,0E0,0E0,0E0,0E0,0E0,0E0,0E0,0E0,0E0,0E0,0E0,0E0,0E0,0E0,0E0,0E0,0E0,0E0,0E0,0E0,0E0,0E0,0E0,0E0,0E0,0E0,0E0,0E0,0E0,0E0,0E0,0E0,0E0,0E0,0E0,0E0,0E0,0E0,0E0,0E0,0E0,0E0,0E0,0E0,0E0,0E0,0E0,0E0,0E0,0E0,0E0,0E0,0E0,0E0,0E0,0E0,0E0,0E0,0E0,0E0,0E0,0E0,0E0,0E0],"parents":[2147483647,0,0,1,1,2,2,3,3,4,4,5,5,6,6,7,7,8,8,9,9,10,10,11,11,12,12,13,13,14,14,15,15,16,16,17,17,18,18,19,19,20,20,21,21,22,22,23,23,24,24,25,25,26,26,27,27,28,28,29,29,30,30,31,31,32,32,33,33,34,34,35,35,36,36,37,37,38,38,39,39,40,40,41,41,42,42,43,43,44,44,45,45,46,46,47,47,48,48,49,49,50,50,51,51,52,52,53,53,54,54,55,55,56,56,57,57,58,58,59,59,60,60,61,61,62,62],"right_children":[2,4,6,8,10,12,14,16,18,20,22,24,26,28,30,32,34,36,38,40,42,44,46,48,50,52,54,56,58,60,62,64,66,68,70,72,74,76,78,80,82,84,86,88,90,92,94,96,98,100,102,104,106,108,110,112,114,116,118,120,122,124,126,-1,-1,-1,-1,-1,-1,-1,-1,-1,-1,-1,-1,-1,-1,-1,-1,-1,-1,-1,-1,-1,-1,-1,-1,-1,-1,-1,-1,-1,-1,-1,-1,-1,-1,-1,-1,-1,-1,-1,-1,-1,-1,-1,-1,-1,-1,-1,-1,-1,-1,-1,-1,-1,-1,-1,-1,-1,-1,-1,-1,-1,-1,-1,-1],"split_conditions":[1.69E0,1.05E0,2.5E0,5E-1,9E0,9E0,9E0,9E0,1E0,2.36E2,7.0710677E-1,2.36E2,6.234898E-1,5.6E0,-2.5881904E-1,2.33E2,2.36E2,-2.5881904E-1,7.0710677E-1,1.61E2,7.9E1,6.234898E-1,1E0,2.62E2,6.8E1,5E-1,5E-1,6.234898E-1,7.4E1,5E-1,-2.5881904E-1,2.3E2,2.64E2,1.61E2,1.8E-1,2.34E2,1.8E-1,1.8E-1,8E-1,1.14E2,5.2E1,7.1E1,2.46E2,2.31E2,6.123234E-17,-2.5881904E-1,9.659258E-1,1.61E2,7.5E1,2.49E2,2.37E2,2.36E2,-2.5881904E-1,4.3388373E-1,2.36E2,8.660254E-1,4.3388373E-1,1.32E2,6.123234E-17,4.3388373E-1,6.234898E-1,1E0,3.99E0,-1.94761E1,1.5831032E1,-2.7218092E1,-2.3556335E0,-1.3649708E1,5.165693E0,2.125118E1,-2.3675749E1,-1.4264413E1,-2.6583702E1,-1.0468033E1,-4.399078E1,-3.5720806E1,-5.1314335E1,-3.8752373E1,-2.946609E1,-1.0921528E1,-2.2609325E1,2.811949E1,-2.4315662E0,-2.9129833E1,-5.7312523E1,-2.235104E1,-7.890824E0,1.5785636E1,-3.0338657E0,1.0457369E0,-1.9243532E1,-4.8832455E0,-2.2619637E1,-3.2560658E1,-5.0494026E1,1.4680003E-2,1.2992089E1,-5.8884117E1,-2.5109203E1,-3.2202194E1,-1.3224664E1,-1.835924E1,-3.7092624E0,2.8846735E1,6.976388E0,1.0187883E1,-1.1996492E1,2.0297477E0,2.2313347E1,-6.240207E0,-2.087603E1,2.2824245E1,-2.0354898E0,1.5693878E0,1.8167316E1,6.1185802E1,4.1055767E1,3.7496838E1,2.2069897E1,4.038716E1,5.4821705E1,3.7596985E1,1.820843E1,4.1913815E1,1.5698628E1,1.0152409E1,2.6683E1],"split_indices":[2,2,2,8,4,4,4,4,5,0,8,1,7,2,8,1,0,9,9,0,1,7,5,0,0,8,9,7,1,9,9,1,0,0,2,0,2,2,2,0,1,1,0,1,9,9,8,1,1,1,1,1,9,6,1,8,6,0,9,6,7,5,2,0,0,0,0,0,0,0,0,0,0,0,0,0,0,0,0,0,0,0,0,0,0,0,0,0,0,0,0,0,0,0,0,0,0,0,0,0,0,0,0,0,0,0,0,0,0,0,0,0,0,0,0,0,0,0,0,0,0,0,0,0,0,0,0],"split_type":[0,0,0,0,0,0,0,0,0,0,0,0,0,0,0,0,0,0,0,0,0,0,0,0,0,0,0,0,0,0,0,0,0,0,0,0,0,0,0,0,0,0,0,0,0,0,0,0,0,0,0,0,0,0,0,0,0,0,0,0,0,0,0,0,0,0,0,0,0,0,0,0,0,0,0,0,0,0,0,0,0,0,0,0,0,0,0,0,0,0,0,0,0,0,0,0,0,0,0,0,0,0,0,0,0,0,0,0,0,0,0,0,0,0,0,0,0,0,0,0,0,0,0,0,0,0,0],"sum_hessian":[3.2606864E7,1.752408E7,1.5082785E7,9.220316E6,8.303763E6,6.640024E6,8.442761E6,7.373E6,1.847316E6,5.493095E6,2.810668E6,4.451948E6,2.188076E6,5.822137E6,2.620624E6,4.689811E6,2.683189E6,1.429033E6,4.18283E5,4.142064E6,1.351031E6,2.425852E6,3.84816E5,3.326858E6,1.12509E6,1.331699E6,8.56377E5,4.761423E6,1.060714E6,1.371605E6,1.249019E6,3.251504E6,1.438307E6,1.947341E6,7.35848E5,1.022513E6,4.0652E5,3.04483E5,1.138E5,2.096983E6,2.045081E6,1.72566E5,1.178465E6,1.484205E6,9.41647E5,3.09687E5,7.5129E4,3.208012E6,1.18846E5,9.7278E4,1.027812E6,1.075681E6,2.56018E5,6.24079E5,2.32298E5,2.877425E6,1.883998E6,2.34727E5,8.25987E5,8.09557E5,5.62048E5,6.36536E5,6.12483E5,3.006539E6,2.44965E5,1.390175E6,4.8132E4,1.011386E6,9.35955E5,6.1505E4,6.74343E5,7.03536E5,3.18977E5,4.9218E4,3.57302E5,3.0026E4,2.74457E5,6.9978E4,4.3822E4,1.18877E6,9.08213E5,1.53319E5,1.891762E6,1.16461E5,5.6105E4,7.89499E5,3.88966E5,1.004449E6,4.79756E5,6.2145E5,3.20197E5,1.94331E5,1.15356E5,6.0585E4,1.4544E4,1.833624E6,1.374388E6,2.1252E4,9.7594E4,7.6344E4,2.0934E4,2.23896E5,8.03916E5,7.85329E5,2.90352E5,1.67413E5,8.8605E4,3.85452E5,2.38627E5,1.74806E5,5.7492E4,2.626832E6,2.50593E5,1.236116E6,6.47882E5,5.4935E4,1.79792E5,3.99082E5,4.26905E5,4.78816E5,3.30741E5,3.43288E5,2.1876E5,4.40096E5,1.9644E5,3.22855E5,2.89628E5],"tree_param":{"num_deleted":"0","num_feature":"10","num_nodes":"127","size_leaf_vector":"1"}},{"base_weights":[-2.728576E-6,-2.1663355E1,5.035531E1,-3.7268257E1,3.077086E0,1.1041323E1,5.82717E1,-3.14193E1,-7.357768E1,1.3615357E1,-2.7929264E1,2.9318518E1,-1.4473262E1,7.7777374E1,4.0430744E1,-2.2291456E1,-5.7375954E1,-6.3215534E1,-1.1838695E2,-1.1500605E1,3.9482986E1,-9.42352E1,-1.6847515E1,4.203136E1,-1.3571049E0,-3.06156E1,1.662224E1,5.496965E1,1.0770347E2,2.102391E1,6.695819E1,-4.0297047E1,-2.475162E0,-3.6452057E1,-7.823314E1,2.4124807E1,-6.838366E1,-1.3086966E2,-8.655213E1,1.1608698E1,-4.5743977E1,6.432074E1,-4.022867E0,-5.3802917E1,-1.8255957E2,6.401378E1,-2.2199041E1,2.1344536E1,6.468304E1,3.2037457E1,-4.821935E1,-4.7699146E1,-2.9311182E0,4.770808E1,-1.8954382E1,6.628302E1,4.074197E0,1.2555733E2,5.809296E1,-7.8429115E1,2.6968704E1,7.725928E1,6.555711E0,-7.2997985E0,-1.774308E1,2.1101532E0,-1.9214983E1,-7.468256E0,-1.996728E1,-6.9681764E-1,-2.5062643E1,-3.7629986E-1,3.705615E1,-1.1338828E1,-2.517979E1,-4.2069187E1,-3.284969E1,-3.1411081E1,-1.9967554E1,-6.9472094E0,8.187635E0,-1.0053517E1,-2.109076E1,9.807664E0,2.9469164E1,6.96958E-1,-3.8997696E1,-4.0880714E1,-7.063011E0,-7.497851E1,-3.8206852E1,1.3103821E1,3.1084312E1,-2.758861E-1,-1.4387889E1,-4.2762814E1,8.270359E0,2.5695654E1,1.1426788E1,1.7649748E1,-2.8256383E0,-2.0758312E1,4.951606E0,-6.163439E1,-1.3491317E1,-8.622777E0,6.3231964E0,4.9771547E0,2.2236612E1,-1.392733E1,3.8450663E0,3.105746E1,1.6278082E1,1.06772175E1,-1.3509269E1,-2.591158E1,3.8417484E1,5.829711E0,2.46149E1,-3.6940838E1,-1.2386676E1,1.1186848E1,-9.575634E0,1.5360006E1,2.9452318E1,-4.0948704E-1,3.1764421E1],"categories":[],"categories_nodes":[],"categories_segments":[],"categories_sizes":[],"default_left":[0,0,0,0,0,0,0,0,0,0,0,0,0,0,0,0,0,0,0,0,0,0,0,0,0,0,0,0,0,0,0,0,0,0,0,0,0,0,0,0,0,0,0,0,0,0,0,0,0,0,0,0,0,0,0,0,0,0,0,0,0,0,0,0,0,0,0,0,0,0,0,0,0,0,0,0,0,0,0,0,0,0,0,0,0,0,0,0,0,0,0,0,0,0,0,0,0,0,0,0,0,0,0,0,0,0,0,0,0,0,0,0,0,0,0,0,0,0,0,0,0,0,0,0,0,0,0],"id":6,"left_children":[1,3,5,7,9,11,13,15,17,19,21,23,25,27,29,31,33,35,37,39,41,43,45,47,49,51,53,55,57,59,61,63,65,67,69,71,73,75,77,79,81,83,85,87,89,91,93,95,97,99,101,103,105,107,109,111,113,115,117,119,121,123,125,-1,-1,-1,-1,-1,-1,-1,-1,-1,-1,-1,-1,-1,-1,-1,-1,-1,-1,-1,-1,-1,-1,-1,-1,-1,-1,-1,-1,-1,-1,-1,-1,-1,-1,-1,-1,-1,-1,-1,-1,-1,-1,-1,-1,-1,-1,-1,-1,-1,-1,-1,-1,-1,-1,-1,-1,-1,-1,-1,-1,-1,-1,-1,-1],"loss_changes":[3.556968E10,8.801927E9,3.0525604E9,2.9690737E9,2.881357E9,7.66645E8,2.8411494E9,2.8528271E9,9.005998E8,4.2758195E9,1.6435843E9,3.7353235E8,3.4441184E8,2.6620314E9,2.195204E9,3.178499E9,1.367126E9,7.11084E8,1.4475366E8,2.6424248E9,3.50342E9,1.14386E9,8.293379E8,3.173244E8,4.392E8,2.136168E8,2.5931037E8,1.2744238E9,1.4940938E9,1.4559256E9,1.1209349E9,1.4042849E9,2.4831027E9,5.4414054E8,6.3224934E8,2.2200963E8,7.073761E8,5.233408E7,3.7232256E7,1.087073E9,4.041838E8,2.2135337E9,9.4192544E8,5.482983E8,3.740352E8,9.579245E7,9.8536474E8,3.6100394E8,1.8025318E8,1.8203312E8,1.5853786E8,1.2019366E8,1.0681028E8,1.0285117E8,9.542712E7,8.107781E8,6.229457E8,6.5746944E8,4.134546E8,2.3062157E8,1.4122332E9,8.388342E8,2.064952E8,0E0,0E0,0E0,0E0,0E0,0E0,0E0,0E0,0E0,0E0,0E0,0E0,0E0,0E0,0E0,0E0,0E0,0E0,0E0,0E0,0E0,0E0,0E0,0E0,0E0,0E0,0E0,0E0,0E0,0E0,0E0,0E0,0E0,0E0,0E0,0E0,0E0,0E0,0E0,0E0,0E0,0E0,0E0,0E0,0E0,0E0,0E0,0E0,0E0,0E0,0E0,0E0,0E0,0E0,0E0,0E0,0E0,0E0,0E0,0E0,0E0,0E0,0E0,0E0],"parents":[2147483647,0,0,1,1,2,2,3,3,4,4,5,5,6,6,7,7,8,8,9,9,10,10,11,11,12,12,13,13,14,14,15,15,16,16,17,17,18,18,19,19,20,20,21,21,22,22,23,23,24,24,25,25,26,26,27,27,28,28,29,29,30,30,31,31,32,32,33,33,34,34,35,35,36,36,37,37,38,38,39,39,40,40,41,41,42,42,43,43,44,44,45,45,46,46,47,47,48,48,49,49,50,50,51,51,52,52,53,53,54,54,55,55,56,56,57,57,58,58,59,59,60,60,61,61,62,62],"right_children":[2,4,6,8,10,12,14,16,18,20,22,24,26,28,30,32,34,36,38,40,42,44,46,48,50,52,54,56,58,60,62,64,66,68,70,72,74,76,78,80,82,84,86,88,90,92,94,96,98,100,102,104,106,108,110,112,114,116,118,120,122,124,126,-1,-1,-1,-1,-1,-1,-1,-1,-1,-1,-1,-1,-1,-1,-1,-1,-1,-1,-1,-1,-1,-1,-1,-1,-1,-1,-1,-1,-1,-1,-1,-1,-1,-1,-1,-1,-1,-1,-1,-1,-1,-1,-1,-1,-1,-1,-1,-1,-1,-1,-1,-1,-1,-1,-1,-1,-1,-1,-1,-1,-1,-1,-1,-1],"split_conditions":[2.28E0,1.4E0,3E0,7.0710677E-1,2.36E2,6.234898E-1,-1.8369701E-16,5E-1,1E0,1.58E2,7.9E1,7.0710677E-1,4.3388373E-1,4.3388373E-1,3.8E0,4.3388373E-1,0E0,1.8E-1,5E-1,1.25E2,6.123234E-17,7.1E1,1.4E2,3.3E0,0E0,3.99E0,-1.8369701E-16,7.0710677E-1,7.0710677E-1,4.3E1,5E-1,6.234898E-1,2.38E2,6.234898E-1,1.8E-1,2.38E2,-5E-1,2.34E2,9E-1,6.8E1,2.32E2,4.3388373E-1,2.62E2,4.3E1,7.5E1,9E0,-2.5881904E-1,4.3E1,-2.5881904E-1,0E0,5.15E0,1.3E1,1.42E2,3.07E0,2E0,-2.2252093E-1,1E0,1.2E1,2.9E0,1.44E2,1.2246469E-16,1.41E2,9.55E0,-7.2997985E0,-1.774308E1,2.1101532E0,-1.9214983E1,-7.468256E0,-1.996728E1,-6.9681764E-1,-2.5062643E1,-3.7629986E-1,3.705615E1,-1.1338828E1,-2.517979E1,-4.2069187E1,-3.284969E1,-3.1411081E1,-1.9967554E1,-6.9472094E0,8.187635E0,-1.0053517E1,-2.109076E1,9.807664E0,2.9469164E1,6.96958E-1,-3.8997696E1,-4.0880714E1,-7.063011E0,-7.497851E1,-3.8206852E1,1.3103821E1,3.1084312E1,-2.758861E-1,-1.4387889E1,-4.2762814E1,8.270359E0,2.5695654E1,1.1426788E1,1.7649748E1,-2.8256383E0,-2.0758312E1,4.951606E0,-6.163439E1,-1.3491317E1,-8.622777E0,6.3231964E0,4.9771547E0,2.2236612E1,-1.392733E1,3.8450663E0,3.105746E1,1.6278082E1,1.06772175E1,-1.3509269E1,-2.591158E1,3.8417484E1,5.829711E0,2.46149E1,-3.6940838E1,-1.2386676E1,1.1186848E1,-9.575634E0,1.5360006E1,2.9452318E1,-4.0948704E-1,3.1764421E1],"split_indices":[2,2,4,8,0,7,9,9,5,0,1,9,6,6,2,6,6,2,9,0,9,1,1,2,6,2,9,8,8,1,8,7,1,7,2,0,9,1,2,0,1,6,1,1,1,4,9,1,8,8,2,1,0,2,4,7,5,1,2,0,8,0,2,0,0,0,0,0,0,0,0,0,0,0,0,0,0,0,0,0,0,0,0,0,0,0,0,0,0,0,0,0,0,0,0,0,0,0,0,0,0,0,0,0,0,0,0,0,0,0,0,0,0,0,0,0,0,0,0,0,0,0,0,0,0,0,0],"split_type":[0,0,0,0,0,0,0,0,0,0,0,0,0,0,0,0,0,0,0,0,0,0,0,0,0,0,0,0,0,0,0,0,0,0,0,0,0,0,0,0,0,0,0,0,0,0,0,0,0,0,0,0,0,0,0,0,0,0,0,0,0,0,0,0,0,0,0,0,0,0,0,0,0,0,0,0,0,0,0,0,0,0,0,0,0,0,0,0,0,0,0,0,0,0,0,0,0,0,0,0,0,0,0,0,0,0,0,0,0,0,0,0,0,0,0,0,0,0,0,0,0,0,0,0,0,0,0],"sum_hessian":[3.2606864E7,2.2798656E7,9.808207E6,1.3980518E7,8.818139E6,1.643977E6,8.16423E6,1.2040894E7,1.939624E6,6.581317E6,2.236822E6,9.57837E5,6.8614E5,3.900154E6,4.264076E6,8.908247E6,3.132647E6,1.575331E6,3.64293E5,3.339174E6,3.242143E6,3.20307E5,1.916515E6,6.7719E5,2.80647E5,4.51669E5,2.34471E5,2.213313E6,1.686841E6,2.462542E6,1.801534E6,4.667362E6,4.240885E6,1.563824E6,1.568823E6,8.8008E4,1.487323E6,2.61682E5,1.02611E5,1.99371E6,1.345464E6,2.063868E6,1.178275E6,2.19725E5,1.00582E5,1.18964E5,1.797551E6,3.53947E5,3.23243E5,1.63871E5,1.16776E5,2.79311E5,1.72358E5,1.25133E5,1.09338E5,1.810797E6,4.02516E5,1.240432E6,4.46409E5,1.38895E5,2.323647E6,1.539061E6,2.62473E5,2.526899E6,2.140463E6,3.673575E6,5.6731E5,1.130004E6,4.3382E5,1.02548E5,1.466275E6,7.0108E4,1.79E4,5.0126E5,9.86063E5,1.81969E5,7.9713E4,5.3781E4,4.883E4,6.19792E5,1.373918E6,8.98124E5,4.4734E5,1.067855E6,9.96013E5,1.121764E6,5.6511E4,5.8981E4,1.60744E5,4.5298E4,5.5284E4,7.8604E4,4.036E4,9.84396E5,8.13155E5,1.2948E4,3.40999E5,1.80733E5,1.4251E5,9.9536E4,6.4335E4,8.8195E4,2.8581E4,4.747E3,2.74564E5,8.306E4,8.9298E4,5.7452E4,6.7681E4,5.8638E4,5.07E4,4.41913E5,1.368884E6,2.45165E5,1.57351E5,1.4467E4,1.225965E6,1.70792E5,2.75617E5,6.3026E4,7.5869E4,1.97713E6,3.46517E5,6.85261E5,8.538E5,2.43089E5,1.9384E4],"tree_param":{"num_deleted":"0","num_feature":"10","num_nodes":"127","size_leaf_vector":"1"}},{"base_weights":[-1.0665516E-5,-2.2194006E1,2.5017569E1,-3.947905E1,-1.1131535E1,1.05796385E1,4.47772E1,-1.2156321E1,-6.2601883E1,1.9971207E1,-3.9971306E1,-9.085897E1,1.330176E1,2.3908535E1,5.9384014E1,-2.688099E1,1.1450891E2,-8.34982E1,-5.440015E1,6.495815E0,1.1572045E2,-2.8997133E1,-5.3882355E1,-5.637012E1,-1.218706E2,2.503479E1,-1.0606762E1,5.851252E1,-5.223533E1,6.714212E1,-1.0172756E1,-8.006126E1,-1.0186779E1,1.2941252E2,-2.337077E1,-1.0716305E2,-5.3114765E1,-4.8805046E1,-1.1111177E2,3.0796934E1,-2.4203915E1,1.3331271E2,-2.2899372E1,2.309306E2,-3.5456543E1,-1.0399872E2,-4.4292507E1,-1.1441613E2,-2.394644E1,-1.260757E2,1.29217005E1,2.0894754E1,1.2904387E2,2.5714939E0,-2.6863754E1,3.5511417E1,1.07093E2,-1.26563255E2,1.6552557E1,3.810618E1,7.8326836E1,-7.671217E0,-4.8858978E2,-5.7545902E1,-2.0282717E1,7.39108E1,-5.9868326E0,4.664266E1,1.1859036E1,5.8487396E0,-1.757059E1,-3.1642807E0,-3.9649216E1,7.139369E1,-2.6312098E1,-1.7160826E1,1.0643627E1,-4.6715942E1,-2.3471146E1,1.2514253E1,-1.3065586E1,-4.7476765E1,-5.3827696E0,3.55008E1,8.537061E1,1.2653099E1,-1.8721498E1,7.6097786E1,-7.08893E1,-1.1481645E1,1.6722467E1,-3.479649E1,2.72958E0,-1.4511132E1,7.1400223E0,-4.341691E1,-2.2352707E1,-1.9492376E1,1.1799376E0,-4.71893E1,-3.393547E1,3.7187374E1,-2.5692267E0,8.651633E0,-7.2107315E0,4.9163555E1,5.874338E0,5.2199616E0,-1.2973886E1,-1.1791448E1,-1.524532E0,1.4926913E1,-1.851845E1,2.5406311E1,4.4839775E1,-1.18251495E2,-1.7861856E1,-6.145859E0,2.408504E1,6.9647603E0,4.4596985E1,2.7334824E1,1.2853204E1,-6.5391893E0,1.4437553E1,-1.7659955E2,-1.089168E2],"categories":[],"categories_nodes":[],"categories_segments":[],"categories_sizes":[],"default_left":[0,0,0,0,0,0,0,0,0,0,0,0,0,0,0,0,0,0,0,0,0,0,0,0,0,0,0,0,0,0,0,0,0,0,0,0,0,0,0,0,0,0,0,0,0,0,0,0,0,0,0,0,0,0,0,0,0,0,0,0,0,0,0,0,0,0,0,0,0,0,0,0,0,0,0,0,0,0,0,0,0,0,0,0,0,0,0,0,0,0,0,0,0,0,0,0,0,0,0,0,0,0,0,0,0,0,0,0,0,0,0,0,0,0,0,0,0,0,0,0,0,0,0,0,0,0,0],"id":7,"left_children":[1,3,5,7,9,11,13,15,17,19,21,23,25,27,29,31,33,35,37,39,41,43,45,47,49,51,53,55,57,59,61,63,65,67,69,71,73,75,77,79,81,83,85,87,89,91,93,95,97,99,101,103,105,107,109,111,113,115,117,119,121,123,125,-1,-1,-1,-1,-1,-1,-1,-1,-1,-1,-1,-1,-1,-1,-1,-1,-1,-1,-1,-1,-1,-1,-1,-1,-1,-1,-1,-1,-1,-1,-1,-1,-1,-1,-1,-1,-1,-1,-1,-1,-1,-1,-1,-1,-1,-1,-1,-1,-1,-1,-1,-1,-1,-1,-1,-1,-1,-1,-1,-1,-1,-1,-1,-1],"loss_changes":[1.8104637E10,3.3039114E9,4.3730043E9,4.2599844E9,9.450439E9,2.44563E9,1.9726746E9,5.764536E9,6.259159E8,6.540261E9,8.345569E8,2.4755674E8,2.419592E9,7.0209275E9,2.054316E9,2.4581965E9,6.61428E8,7.4015334E8,8.322007E8,3.315081E9,1.5250611E9,5.1308564E9,1.1586304E9,2.0625283E8,6.908224E7,2.4914383E9,6.0831846E8,2.0471173E9,4.2568527E9,1.1122647E9,4.5716813E8,9.205934E8,5.281776E9,6.80469E8,4.737631E7,1.3977928E9,4.5386015E9,1.6896353E9,3.453673E8,2.0131958E9,1.6478988E9,1.2570921E9,1.810673E8,7.869742E8,7.656712E8,5.2505293E8,5.618957E8,4.749197E7,8.042986E7,4.779597E7,8.799525E6,1.986121E9,8.445637E8,1.06545126E9,3.4449114E8,1.7222619E9,5.588685E8,7.1775416E9,1.02069715E9,1.5677924E9,1.1220091E9,2.9952368E8,2.474864E7,0E0,0E0,0E0,0E0,0E0,0E0,0E0,0E0,0E0,0E0,0E0,0E0,0E0,0E0,0E0,0E0,0E0,0E0,0E0,0E0,0E0,0E0,0E0,0E0,0E0,0E0,0E0,0E0,0E0,0E0,0E0,0E0,0E0,0E0,0E0,0E0,0E0,0E0,0E0,0E0,0E0,0E0,0E0,0E0,0E0,0E0,0E0,0E0,0E0,0E0,0E0,0E0,0E0,0E0,0E0,0E0,0E0,0E0,0E0,0E0,0E0,0E0,0E0,0E0],"parents":[2147483647,0,0,1,1,2,2,3,3,4,4,5,5,6,6,7,7,8,8,9,9,10,10,11,11,12,12,13,13,14,14,15,15,16,16,17,17,18,18,19,19,20,20,21,21,22,22,23,23,24,24,25,25,26,26,27,27,28,28,29,29,30,30,31,31,32,32,33,33,34,34,35,35,36,36,37,37,38,38,39,39,40,40,41,41,42,42,43,43,44,44,45,45,46,46,47,47,48,48,49,49,50,50,51,51,52,52,53,53,54,54,55,55,56,56,57,57,58,58,59,59,60,60,61,61,62,62],"right_children":[2,4,6,8,10,12,14,16,18,20,22,24,26,28,30,32,34,36,38,40,42,44,46,48,50,52,54,56,58,60,62,64,66,68,70,72,74,76,78,80,82,84,86,88,90,92,94,96,98,100,102,104,106,108,110,112,114,116,118,120,122,124,126,-1,-1,-1,-1,-1,-1,-1,-1,-1,-1,-1,-1,-1,-1,-1,-1,-1,-1,-1,-1,-1,-1,-1,-1,-1,-1,-1,-1,-1,-1,-1,-1,-1,-1,-1,-1,-1,-1,-1,-1,-1,-1,-1,-1,-1,-1,-1,-1,-1,-1,-1,-1,-1,-1,-1,-1,-1,-1,-1,-1,-1,-1,-1,-1],"split_conditions":[1.66E0,1.61E2,2.9E0,1.07E2,2.31E2,4.3E1,1.42E2,9.2E1,7.6E-1,2.3E2,2.31E2,2.4E1,2.31E2,1.32E2,2.61E2,9E1,8.660254E-1,1.58E2,1.51E2,1.66E2,8.660254E-1,1.8E-1,5E-1,-2.5881904E-1,9.659258E-1,2.3E2,-1.8369701E-16,9E1,5.3E0,9E1,2.65E2,1.8E-1,1.8E-1,5E-1,-2.5881904E-1,1.07E2,1.8E-1,1.44E2,1.58E2,8.660254E-1,1.7E2,1.2E1,-2.5881904E-1,2.64E2,2.3E2,2.64E2,2.64E2,1.61E2,1.42E2,3.3E1,7.5E1,7.0710677E-1,5E-1,1E0,2.46E2,8.7E1,4.48E0,1.37E2,8E0,6.64E0,2.38E2,2.36E2,7.56E0,-5.7545902E1,-2.0282717E1,7.39108E1,-5.9868326E0,4.664266E1,1.1859036E1,5.8487396E0,-1.757059E1,-3.1642807E0,-3.9649216E1,7.139369E1,-2.6312098E1,-1.7160826E1,1.0643627E1,-4.6715942E1,-2.3471146E1,1.2514253E1,-1.3065586E1,-4.7476765E1,-5.3827696E0,3.55008E1,8.537061E1,1.2653099E1,-1.8721498E1,7.6097786E1,-7.08893E1,-1.1481645E1,1.6722467E1,-3.479649E1,2.72958E0,-1.4511132E1,7.1400223E0,-4.341691E1,-2.2352707E1,-1.9492376E1,1.1799376E0,-4.71893E1,-3.393547E1,3.7187374E1,-2.5692267E0,8.651633E0,-7.2107315E0,4.9163555E1,5.874338E0,5.2199616E0,-1.2973886E1,-1.1791448E1,-1.524532E0,1.4926913E1,-1.851845E1,2.5406311E1,4.4839775E1,-1.18251495E2,-1.7861856E1,-6.145859E0,2.408504E1,6.9647603E0,4.4596985E1,2.7334824E1,1.2853204E1,-6.5391893E0,1.4437553E1,-1.7659955E2,-1.089168E2],"split_indices":[2,1,2,1,1,1,0,1,2,1,0,1,1,0,0,0,8,0,1,1,8,2,2,9,8,1,9,0,2,1,0,2,2,9,9,0,2,1,1,8,1,4,9,1,0,0,1,0,0,1,0,8,8,5,1,0,2,0,2,2,1,1,2,0,0,0,0,0,0,0,0,0,0,0,0,0,0,0,0,0,0,0,0,0,0,0,0,0,0,0,0,0,0,0,0,0,0,0,0,0,0,0,0,0,0,0,0,0,0,0,0,0,0,0,0,0,0,0,0,0,0,0,0,0,0,0,0],"split_type":[0,0,0,0,0,0,0,0,0,0,0,0,0,0,0,0,0,0,0,0,0,0,0,0,0,0,0,0,0,0,0,0,0,0,0,0,0,0,0,0,0,0,0,0,0,0,0,0,0,0,0,0,0,0,0,0,0,0,0,0,0,0,0,0,0,0,0,0,0,0,0,0,0,0,0,0,0,0,0,0,0,0,0,0,0,0,0,0,0,0,0,0,0,0,0,0,0,0,0,0,0,0,0,0,0,0,0,0,0,0,0,0,0,0,0,0,0,0,0,0,0,0,0,0,0,0,0],"sum_hessian":[3.2606864E7,1.7278492E7,1.5328372E7,6.742841E6,1.0535651E7,8.85686E6,6.471512E6,3.09073E6,3.652111E6,5.068953E6,5.466698E6,2.31463E5,8.625397E6,2.664607E6,3.806905E6,2.768855E6,3.21875E5,1.029401E6,2.62271E6,4.443581E6,6.25372E5,3.055932E6,2.410766E6,1.09589E5,1.21874E5,5.785957E6,2.83944E6,1.832031E6,8.32576E5,3.424904E6,3.82001E5,6.61526E5,2.107329E6,2.90477E5,3.1398E4,5.7868E5,4.50721E5,2.387194E6,2.35516E5,2.480266E6,1.963315E6,5.54944E5,7.0428E4,7.41E4,2.981832E6,3.87209E5,2.023557E6,3.9275E4,7.0314E4,1.18187E5,3.687E3,5.564467E6,2.2149E5,1.568214E6,1.271226E6,1.243351E6,5.8868E5,4.00173E5,4.32403E5,9.52412E5,2.472492E6,3.80015E5,1.986E3,6.6317E4,5.95209E5,7.73E4,2.030029E6,2.25181E5,6.5296E4,1.4157E4,1.7241E4,1.18961E5,4.59719E5,4.7872E4,4.02849E5,2.170895E6,2.16299E5,9.9924E4,1.35592E5,2.1627E6,3.17566E5,8.761E4,1.875705E6,5.04948E5,4.9996E4,2.6604E4,4.3824E4,7.0663E4,3.437E3,2.89253E6,8.9302E4,3.50095E5,3.7114E4,1.909218E6,1.14339E5,2.2321E4,1.6954E4,2.8448E4,4.1866E4,3.466E4,8.3527E4,5.97E2,3.09E3,4.728446E6,8.36021E5,1.6802E5,5.347E4,1.184776E6,3.83438E5,8.09098E5,4.62128E5,1.084482E6,1.58869E5,3.85071E5,2.03609E5,8.015E4,3.20023E5,2.7347E5,1.58933E5,8.39358E5,1.13054E5,1.817427E6,6.55065E5,3.03243E5,7.6772E4,1.103E3,8.83E2],"tree_param":{"num_deleted":"0","num_feature":"10","num_nodes":"127","size_leaf_vector":"1"}},{"base_weights":[-1.4619457E-5,-2.1403957E1,1.3536731E1,-4.0356255E1,-1.2233585E1,2.5453718E1,-4.696853E0,-3.2401108E1,-5.3318325E1,-3.2490013E1,-2.5868275E0,3.2893154E1,-4.945198E0,-3.0382238E1,3.931651E0,-5.394137E1,-2.7039402E1,-4.460162E1,-6.89256E1,-3.2157486E1,-4.2731763E2,1.5514886E1,-1.4555997E1,1.066607E1,4.4803257E1,1.1755329E1,-3.246172E1,-4.572935E1,-1.5092784E1,-8.528739E0,2.6174913E1,-5.3634933E1,-3.3854605E2,-3.8055496E1,-1.7575888E1,-5.81833E1,-3.1029627E1,-1.3012938E1,-6.9956604E1,-1.2522738E1,-3.6912796E1,1.6224272E2,-4.697778E2,-1.5302188E1,4.8519424E1,-1.724073E0,-4.6515236E1,2.6854792E1,-3.264266E0,5.3654762E1,1.42961645E1,-3.21525E0,4.4020153E1,-3.7909496E1,1.920123E1,-5.478317E1,-2.681979E1,-5.9881264E1,-1.1864082E1,-1.639574E1,2.5394175E1,4.8458557E1,-1.3503928E0,-9.800409E0,-1.745141E1,5.5523975E1,-1.17827934E2,-1.5362325E1,-9.949648E0,-3.4928782E0,-1.2848891E1,-1.825443E1,-1.356539E0,-1.9614693E1,-7.8127036E0,1.9450525E1,-7.177304E0,-2.2130466E1,-1.6956749E1,2.0952988E1,-9.446786E0,-2.204571E1,-8.8884735E0,-9.913375E1,1.0223111E2,-1.486516E2,-5.0469208E1,1.7991599E0,-1.1801821E1,1.7776329E1,-7.4129405E0,3.8714123E0,-7.671377E0,-1.7675043E1,-1.2249034E1,2.0593822E0,1.3518787E1,7.1626105E0,-9.832709E0,1.9065678E1,8.656899E0,1.2454253E1,-6.33728E0,4.382728E0,-1.0769373E1,5.181451E0,1.8516804E1,-1.442187E1,-5.298465E0,8.374266E0,-3.0997162E1,-1.7197495E1,9.4046897E-1,-2.7621202E0,-1.6306063E1,-2.888694E1,-2.0966861E0,5.692685E-1,-7.931524E0,-1.8380681E0,-8.894929E0,1.4929463E1,3.5457253E0,1.7483366E1,-9.893802E-1,5.252582E0,-1.0625973E1],"categories":[],"categories_nodes":[],"categories_segments":[],"categories_sizes":[],"default_left":[0,0,0,0,0,0,0,0,0,0,0,0,0,0,0,0,0,0,0,0,0,0,0,0,0,0,0,0,0,0,0,0,0,0,0,0,0,0,0,0,0,0,0,0,0,0,0,0,0,0,0,0,0,0,0,0,0,0,0,0,0,0,0,0,0,0,0,0,0,0,0,0,0,0,0,0,0,0,0,0,0,0,0,0,0,0,0,0,0,0,0,0,0,0,0,0,0,0,0,0,0,0,0,0,0,0,0,0,0,0,0,0,0,0,0,0,0,0,0,0,0,0,0,0,0,0,0],"id":8,"left_children":[1,3,5,7,9,11,13,15,17,19,21,23,25,27,29,31,33,35,37,39,41,43,45,47,49,51,53,55,57,59,61,63,65,67,69,71,73,75,77,79,81,83,85,87,89,91,93,95,97,99,101,103,105,107,109,111,113,115,117,119,121,123,125,-1,-1,-1,-1,-1,-1,-1,-1,-1,-1,-1,-1,-1,-1,-1,-1,-1,-1,-1,-1,-1,-1,-1,-1,-1,-1,-1,-1,-1,-1,-1,-1,-1,-1,-1,-1,-1,-1,-1,-1,-1,-1,-1,-1,-1,-1,-1,-1,-1,-1,-1,-1,-1,-1,-1,-1,-1,-1,-1,-1,-1,-1,-1,-1],"loss_changes":[9.447504E9,2.1955364E9,4.3402025E9,4.247588E8,1.6635715E9,2.7317806E9,1.7497019E9,2.948119E8,2.1312717E8,3.605614E8,1.249472E9,2.569046E9,1.0913892E9,4.6582835E8,1.6379052E9,4.4351616E7,2.130784E8,1.852905E8,3.2362752E7,2.5621171E8,5.7927104E7,2.3346716E9,1.4236539E9,7.635474E8,1.7062625E9,7.1388416E8,2.5246195E8,1.6961702E8,1.438094E8,1.010845E9,1.3014679E9,4.833664E7,1.5600768E7,6.074189E7,1.6472637E8,7.18455E7,8.613958E7,8.636871E6,2.822272E7,8.35796E8,5.885302E8,1.3834135E7,1.6642976E7,6.0774054E8,8.71308E8,8.641039E8,7.01161E7,5.6997645E8,1.4575642E9,1.2020951E9,1.3699881E9,5.881025E8,2.2180218E8,1.6698445E8,9.134971E7,9.862963E7,1.5555896E8,1.2877102E8,1.8604774E8,4.1847827E8,2.3590102E8,5.9591834E8,6.099291E8,0E0,0E0,0E0,0E0,0E0,0E0,0E0,0E0,0E0,0E0,0E0,0E0,0E0,0E0,0E0,0E0,0E0,0E0,0E0,0E0,0E0,0E0,0E0,0E0,0E0,0E0,0E0,0E0,0E0,0E0,0E0,0E0,0E0,0E0,0E0,0E0,0E0,0E0,0E0,0E0,0E0,0E0,0E0,0E0,0E0,0E0,0E0,0E0,0E0,0E0,0E0,0E0,0E0,0E0,0E0,0E0,0E0,0E0,0E0,0E0,0E0,0E0,0E0,0E0],"parents":[2147483647,0,0,1,1,2,2,3,3,4,4,5,5,6,6,7,7,8,8,9,9,10,10,11,11,12,12,13,13,14,14,15,15,16,16,17,17,18,18,19,19,20,20,21,21,22,22,23,23,24,24,25,25,26,26,27,27,28,28,29,29,30,30,31,31,32,32,33,33,34,34,35,35,36,36,37,37,38,38,39,39,40,40,41,41,42,42,43,43,44,44,45,45,46,46,47,47,48,48,49,49,50,50,51,51,52,52,53,53,54,54,55,55,56,56,57,57,58,58,59,59,60,60,61,61,62,62],"right_children":[2,4,6,8,10,12,14,16,18,20,22,24,26,28,30,32,34,36,38,40,42,44,46,48,50,52,54,56,58,60,62,64,66,68,70,72,74,76,78,80,82,84,86,88,90,92,94,96,98,100,102,104,106,108,110,112,114,116,118,120,122,124,126,-1,-1,-1,-1,-1,-1,-1,-1,-1,-1,-1,-1,-1,-1,-1,-1,-1,-1,-1,-1,-1,-1,-1,-1,-1,-1,-1,-1,-1,-1,-1,-1,-1,-1,-1,-1,-1,-1,-1,-1,-1,-1,-1,-1,-1,-1,-1,-1,-1,-1,-1,-1,-1,-1,-1,-1,-1,-1,-1,-1,-1,-1,-1,-1],"split_conditions":[1.3E0,5E0,6.234898E-1,6.234898E-1,7E-1,5E-1,4E0,6E-1,-1.8369701E-16,2.65E2,-5E-1,5E0,-2.5881904E-1,2.3E0,4.3388373E-1,2.65E2,3E0,3E0,2E0,1.8E-1,2.49E2,4.3388373E-1,-2.5881904E-1,-1.8369701E-16,8.660254E-1,2.76E0,6.19E0,3E0,4E0,3.99E0,-1.8369701E-16,1.8E-1,2.23E2,9E0,5E-1,3.1E1,5E-1,7E1,0E0,9E1,4E-1,1.12E2,1.8E-1,1E0,2.38E2,6.234898E-1,9E-1,1.5E1,0E0,2.2E1,0E0,2.31E2,1.4E2,9E0,2.62E2,3.1E1,-1.8369701E-16,2.5881904E-1,-1.8369701E-16,-1.8369701E-16,-5E-1,2.38E2,-5E-1,-9.800409E0,-1.745141E1,5.5523975E1,-1.17827934E2,-1.5362325E1,-9.949648E0,-3.4928782E0,-1.2848891E1,-1.825443E1,-1.356539E0,-1.9614693E1,-7.8127036E0,1.9450525E1,-7.177304E0,-2.2130466E1,-1.6956749E1,2.0952988E1,-9.446786E0,-2.204571E1,-8.8884735E0,-9.913375E1,1.0223111E2,-1.486516E2,-5.0469208E1,1.7991599E0,-1.1801821E1,1.7776329E1,-7.4129405E0,3.8714123E0,-7.671377E0,-1.7675043E1,-1.2249034E1,2.0593822E0,1.3518787E1,7.1626105E0,-9.832709E0,1.9065678E1,8.656899E0,1.2454253E1,-6.33728E0,4.382728E0,-1.0769373E1,5.181451E0,1.8516804E1,-1.442187E1,-5.298465E0,8.374266E0,-3.0997162E1,-1.7197495E1,9.4046897E-1,-2.7621202E0,-1.6306063E1,-2.888694E1,-2.0966861E0,5.692685E-1,-7.931524E0,-1.8380681E0,-8.894929E0,1.4929463E1,3.5457253E0,1.7483366E1,-9.893802E-1,5.252582E0,-1.0625973E1],"split_indices":[2,4,7,7,2,8,4,2,9,0,9,4,9,2,6,0,4,4,3,2,1,6,8,9,9,2,2,4,3,2,9,2,1,3,8,3,2,0,8,0,2,1,2,5,0,7,2,3,6,3,6,0,1,4,0,3,9,9,9,9,8,0,8,0,0,0,0,0,0,0,0,0,0,0,0,0,0,0,0,0,0,0,0,0,0,0,0,0,0,0,0,0,0,0,0,0,0,0,0,0,0,0,0,0,0,0,0,0,0,0,0,0,0,0,0,0,0,0,0,0,0,0,0,0,0,0,0],"split_type":[0,0,0,0,0,0,0,0,0,0,0,0,0,0,0,0,0,0,0,0,0,0,0,0,0,0,0,0,0,0,0,0,0,0,0,0,0,0,0,0,0,0,0,0,0,0,0,0,0,0,0,0,0,0,0,0,0,0,0,0,0,0,0,0,0,0,0,0,0,0,0,0,0,0,0,0,0,0,0,0,0,0,0,0,0,0,0,0,0,0,0,0,0,0,0,0,0,0,0,0,0,0,0,0,0,0,0,0,0,0,0,0,0,0,0,0,0,0,0,0,0,0,0,0,0,0,0],"sum_hessian":[3.2606864E7,1.2632573E7,1.9974292E7,4.119288E6,8.513285E6,1.2079469E7,7.894822E6,2.55266E6,1.566628E6,2.746382E6,5.766903E6,9.704513E6,2.374956E6,1.985216E6,5.909606E6,5.08757E5,2.043903E6,1.005216E6,5.61412E5,2.744072E6,2.31E3,2.295411E6,3.471492E6,3.385803E6,6.31871E6,1.477949E6,8.97007E5,9.90739E5,9.94477E5,3.787755E6,2.121851E6,5.08211E5,5.46E2,9.44475E5,1.099428E6,5.02427E5,5.02789E5,1.0165E4,5.51247E5,5.3501E5,2.209062E6,1.55E2,2.155E3,1.187043E6,1.108368E6,2.476968E6,9.94524E5,1.565964E6,1.819839E6,4.897671E6,1.421039E6,1.009535E6,4.68414E5,8.11442E5,8.5565E4,6.69962E5,3.20777E5,6.6868E4,9.27609E5,3.074706E6,7.13049E5,1.172572E6,9.49279E5,9.04E4,4.17811E5,5.1E1,4.95E2,2.55979E5,6.88496E5,8.90274E5,2.09154E5,4.78657E5,2.377E4,6.3739E4,4.3905E5,1.249E3,8.916E3,4.29408E5,1.21839E5,1.00138E5,4.34872E5,3.66915E5,1.842147E6,4.1E1,1.14E2,1.985E3,1.7E2,6.29364E5,5.57679E5,9.66661E5,1.41707E5,1.535211E6,9.41757E5,3.12602E5,6.81922E5,7.46448E5,8.19516E5,9.48015E5,8.71824E5,3.500541E6,1.39713E6,8.03561E5,6.17478E5,6.53262E5,3.56273E5,1.86545E5,2.81869E5,5.40259E5,2.71183E5,7.9885E4,5.68E3,6.41796E5,2.8166E4,1.95635E5,1.25142E5,3.9605E4,2.7263E4,4.77107E5,4.50502E5,1.732452E6,1.342254E6,2.55092E5,4.57957E5,9.85585E5,1.86987E5,6.11041E5,3.38238E5],"tree_param":{"num_deleted":"0","num_feature":"10","num_nodes":"127","size_leaf_vector":"1"}},{"base_weights":[-2.1034957E-5,-8.912546E0,2.102838E1,-2.0531518E0,-2.3753942E1,1.2601474E1,3.958508E1,-1.8904228E1,1.8360106E1,4.2430645E1,-2.5491617E1,9.154783E0,6.0671272E1,4.2900337E1,-3.0937695E1,-4.049618E0,-4.14E1,7.981743E1,1.1383852E1,2.199919E2,-8.4388176E1,-3.953104E1,-1.709797E1,-7.973072E1,1.0989764E1,6.658872E1,-4.346386E1,2.54771E1,5.8863125E1,-4.7411484E1,5.784141E1,-2.2588198E1,1.2526617E1,-1.07234665E2,-3.807435E1,-1.3263024E1,1.0191054E2,-7.596903E1,1.5723993E1,1.7068057E2,3.2083615E2,-1.3284183E2,5.105047E1,-3.2559296E1,-9.191026E1,1.445534E1,-2.4607769E1,-1.16948006E2,-5.0223747E1,2.6250164E1,7.032736E-1,9.311802E1,4.6907696E1,-8.4877884E1,3.1731316E1,5.731994E1,-1.8160763E1,2.7946949E1,6.901181E1,-7.502503E1,-7.135638E0,1.6408301E2,3.759801E1,-1.6763138E1,-2.6724033E0,7.2078896E1,2.2288682E0,-1.0976965E1,-9.131953E1,-1.0455378E1,-2.5722715E1,9.514402E1,-8.2832775E0,4.5838882E1,2.0285368E1,4.500901E1,-3.523963E1,8.125528E0,-6.0711813E0,7.258721E1,4.060036E1,7.059586E1,1.1891399E2,-4.9400295E1,-3.2327602E1,2.8181038E1,-1.02675995E2,-1.4337774E1,5.68491E0,-3.2531846E0,-2.9588669E1,1.1841188E1,-1.3653754E1,-5.8826355E1,-6.5680795E0,-1.5146642E1,-3.995717E1,-1.8611165E0,-2.8210085E1,1.2833213E1,-4.4706926E0,5.8277626E0,-3.8733752E0,1.0665371E1,3.0774792E1,8.650436E0,2.22026E1,-1.0463482E1,-3.853488E1,2.6129135E1,4.2329347E-1,1.0638141E1,3.016096E1,-2.494126E1,3.898444E0,1.7055101E1,-6.5255833E0,2.3482159E1,1.28476E1,-1.7973074E1,-5.2999767E1,2.0663013E1,-7.4784546E0,2.1687124E1,5.7550556E1,1.1979338E1,-5.8057583E1],"categories":[],"categories_nodes":[],"categories_segments":[],"categories_sizes":[],"default_left":[0,0,0,0,0,0,0,0,0,0,0,0,0,0,0,0,0,0,0,0,0,0,0,0,0,0,0,0,0,0,0,0,0,0,0,0,0,0,0,0,0,0,0,0,0,0,0,0,0,0,0,0,0,0,0,0,0,0,0,0,0,0,0,0,0,0,0,0,0,0,0,0,0,0,0,0,0,0,0,0,0,0,0,0,0,0,0,0,0,0,0,0,0,0,0,0,0,0,0,0,0,0,0,0,0,0,0,0,0,0,0,0,0,0,0,0,0,0,0,0,0,0,0,0,0,0,0],"id":9,"left_children":[1,3,5,7,9,11,13,15,17,19,21,23,25,27,29,31,33,35,37,39,41,43,45,47,49,51,53,55,57,59,61,63,65,67,69,71,73,75,77,79,81,83,85,87,89,91,93,95,97,99,101,103,105,107,109,111,113,115,117,119,121,123,125,-1,-1,-1,-1,-1,-1,-1,-1,-1,-1,-1,-1,-1,-1,-1,-1,-1,-1,-1,-1,-1,-1,-1,-1,-1,-1,-1,-1,-1,-1,-1,-1,-1,-1,-1,-1,-1,-1,-1,-1,-1,-1,-1,-1,-1,-1,-1,-1,-1,-1,-1,-1,-1,-1,-1,-1,-1,-1,-1,-1,-1,-1,-1,-1],"loss_changes":[6.111053E9,2.3313667E9,1.5177958E9,5.387525E9,8.325043E8,1.10591E9,7.086966E8,2.8670182E9,3.036543E9,4.170147E9,8.311982E8,1.01586125E9,2.7519296E8,8.0519066E8,1.9904994E8,1.5879496E9,7.4707405E8,1.4847473E9,2.411401E9,3.8363853E8,7.0896646E8,9.63754E8,1.04601766E9,1.3834048E8,9.579224E8,2.2062938E8,7.478241E7,1.9234556E9,4.7404544E8,1.2767195E8,4.5807856E7,1.1108653E9,3.166737E9,2.285378E9,4.990336E8,6.565843E8,1.0182052E9,2.823422E9,2.4756234E9,1.3052506E8,1.6359654E8,6.3499904E7,4.8017818E8,1.827575E9,1.688489E8,1.2730697E9,1.659564E9,6.0130304E7,1.355159E8,1.6711754E9,9.291673E8,9.805376E7,1.1882125E8,3.373067E7,1.4317593E7,7.560013E8,1.1821631E9,5.363691E8,2.7587994E8,1.0461626E8,6.315315E7,8.670376E6,9.65684E6,0E0,0E0,0E0,0E0,0E0,0E0,0E0,0E0,0E0,0E0,0E0,0E0,0E0,0E0,0E0,0E0,0E0,0E0,0E0,0E0,0E0,0E0,0E0,0E0,0E0,0E0,0E0,0E0,0E0,0E0,0E0,0E0,0E0,0E0,0E0,0E0,0E0,0E0,0E0,0E0,0E0,0E0,0E0,0E0,0E0,0E0,0E0,0E0,0E0,0E0,0E0,0E0,0E0,0E0,0E0,0E0,0E0,0E0,0E0,0E0,0E0,0E0,0E0,0E0],"parents":[2147483647,0,0,1,1,2,2,3,3,4,4,5,5,6,6,7,7,8,8,9,9,10,10,11,11,12,12,13,13,14,14,15,15,16,16,17,17,18,18,19,19,20,20,21,21,22,22,23,23,24,24,25,25,26,26,27,27,28,28,29,29,30,30,31,31,32,32,33,33,34,34,35,35,36,36,37,37,38,38,39,39,40,40,41,41,42,42,43,43,44,44,45,45,46,46,47,47,48,48,49,49,50,50,51,51,52,52,53,53,54,54,55,55,56,56,57,57,58,58,59,59,60,60,61,61,62,62],"right_children":[2,4,6,8,10,12,14,16,18,20,22,24,26,28,30,32,34,36,38,40,42,44,46,48,50,52,54,56,58,60,62,64,66,68,70,72,74,76,78,80,82,84,86,88,90,92,94,96,98,100,102,104,106,108,110,112,114,116,118,120,122,124,126,-1,-1,-1,-1,-1,-1,-1,-1,-1,-1,-1,-1,-1,-1,-1,-1,-1,-1,-1,-1,-1,-1,-1,-1,-1,-1,-1,-1,-1,-1,-1,-1,-1,-1,-1,-1,-1,-1,-1,-1,-1,-1,-1,-1,-1,-1,-1,-1,-1,-1,-1,-1,-1,-1,-1,-1,-1,-1,-1,-1,-1,-1,-1,-1],"split_conditions":[2.3E0,2.31E2,9E0,1.58E2,1.8E-1,7.2E0,2.62E2,1.25E2,7.4E1,2.31E2,1.61E2,2.5E1,2.62E2,1.58E2,2.46E2,1.61E2,1.37E2,4.5E1,3.9E-1,1.61E2,2.64E2,2.62E2,1.66E2,3.8E0,-2.5881904E-1,-2.5881904E-1,1.4E2,1.32E2,9E1,3.57E0,2.56E2,6.8E1,1.8E-1,1.32E2,1.51E2,1.8E-1,5E1,1.58E2,5E-1,9E0,2.38E2,8E0,2.65E2,2.46E2,7.1E1,5E-1,1.7E2,1.3E1,-2.5881904E-1,1E0,-7.0710677E-1,2E0,1.42E2,6.123234E-17,-1.8369701E-16,9E1,1.4E2,7.4E1,2.38E2,2.33E2,7.1E1,4.3E0,2.65E2,-1.6763138E1,-2.6724033E0,7.2078896E1,2.2288682E0,-1.0976965E1,-9.131953E1,-1.0455378E1,-2.5722715E1,9.514402E1,-8.2832775E0,4.5838882E1,2.0285368E1,4.500901E1,-3.523963E1,8.125528E0,-6.0711813E0,7.258721E1,4.060036E1,7.059586E1,1.1891399E2,-4.9400295E1,-3.2327602E1,2.8181038E1,-1.02675995E2,-1.4337774E1,5.68491E0,-3.2531846E0,-2.9588669E1,1.1841188E1,-1.3653754E1,-5.8826355E1,-6.5680795E0,-1.5146642E1,-3.995717E1,-1.8611165E0,-2.8210085E1,1.2833213E1,-4.4706926E0,5.8277626E0,-3.8733752E0,1.0665371E1,3.0774792E1,8.650436E0,2.22026E1,-1.0463482E1,-3.853488E1,2.6129135E1,4.2329347E-1,1.0638141E1,3.016096E1,-2.494126E1,3.898444E0,1.7055101E1,-6.5255833E0,2.3482159E1,1.28476E1,-1.7973074E1,-5.2999767E1,2.0663013E1,-7.4784546E0,2.1687124E1,5.7550556E1,1.1979338E1,-5.8057583E1],"split_indices":[2,0,4,0,2,2,0,0,1,1,1,0,1,0,1,1,0,1,2,1,0,0,1,2,9,8,0,0,1,2,1,0,2,0,0,2,1,1,9,4,0,4,0,0,1,8,1,0,9,5,8,4,1,9,9,0,0,1,1,1,1,2,0,0,0,0,0,0,0,0,0,0,0,0,0,0,0,0,0,0,0,0,0,0,0,0,0,0,0,0,0,0,0,0,0,0,0,0,0,0,0,0,0,0,0,0,0,0,0,0,0,0,0,0,0,0,0,0,0,0,0,0,0,0,0,0,0],"split_type":[0,0,0,0,0,0,0,0,0,0,0,0,0,0,0,0,0,0,0,0,0,0,0,0,0,0,0,0,0,0,0,0,0,0,0,0,0,0,0,0,0,0,0,0,0,0,0,0,0,0,0,0,0,0,0,0,0,0,0,0,0,0,0,0,0,0,0,0,0,0,0,0,0,0,0,0,0,0,0,0,0,0,0,0,0,0,0,0,0,0,0,0,0,0,0,0,0,0,0,0,0,0,0,0,0,0,0,0,0,0,0,0,0,0,0,0,0,0,0,0,0,0,0,0,0,0,0],"sum_hessian":[3.2606864E7,2.2900768E7,9.706095E6,1.5662075E7,7.238694E6,6.674909E6,3.031186E6,8.579624E6,7.082451E6,1.85189E5,7.053505E6,6.228328E6,4.46581E5,2.895089E6,1.36097E5,5.167425E6,3.412199E6,7.21998E5,6.360453E6,7.7158E4,1.08031E5,2.639166E6,4.414339E6,1.25978E5,6.10235E6,4.22569E5,2.4012E4,1.384224E6,1.510865E6,1.14796E5,2.1301E4,2.439325E6,2.7281E6,1.64078E5,3.248121E6,1.38497E5,5.83501E5,3.01061E5,6.059392E6,5.1821E4,2.5337E4,7.9566E4,2.8465E4,2.329154E6,3.10012E5,8.48647E5,3.565692E6,5.5709E4,7.0269E4,2.457119E6,3.645231E6,1.79971E5,2.42598E5,1.5484E4,8.528E3,8.00265E5,5.83959E5,3.73393E5,1.137472E6,6.8103E4,4.6693E4,3.408E3,1.7893E4,7.10475E5,1.72885E6,5.9721E4,2.668379E6,1.20797E5,4.3281E4,3.042409E6,2.05712E5,5.763E3,1.32734E5,2.34915E5,3.48586E5,4.6703E4,2.54358E5,4.60466E6,1.454732E6,1.7177E4,3.4644E4,1.1886E4,1.3451E4,3.5067E4,4.4499E4,2.5667E4,2.798E3,1.797547E6,5.31607E5,2.3727E4,2.86285E5,5.98843E5,2.49804E5,5.5557E4,3.510135E6,1.0942E4,4.4767E4,3.5051E4,3.5218E4,1.75307E6,7.04049E5,1.534709E6,2.110522E6,2.5412E4,1.54559E5,1.45542E5,9.7056E4,7.211E3,8.273E3,3.017E3,5.511E3,5.31452E5,2.68813E5,1.89255E5,3.94704E5,2.3609E5,1.37303E5,8.4027E5,2.97202E5,5.9288E4,8.815E3,8.856E3,3.7837E4,7.92E2,2.616E3,1.7715E4,1.78E2],"tree_param":{"num_deleted":"0","num_feature":"10","num_nodes":"127","size_leaf_vector":"1"}},{"base_weights":[-1.6477712E-5,-4.383492E0,2.3988472E1,-2.651095E1,-1.9571103E-1,3.8036137E1,9.528913E0,-1.9551975E1,-3.6868866E1,8.665864E0,-1.2367433E1,6.1289906E1,2.577941E1,3.4818653E1,2.9607906E0,-3.4584908E1,-1.3996112E1,-3.8553043E1,3.872172E-1,-6.7154894E0,2.5326168E1,2.1226336E1,-1.9306564E1,-2.4478674E1,6.5198425E1,3.2740772E1,-2.2781004E1,1.1624136E1,7.070457E1,-3.5239826E1,1.8023909E1,-4.870077E1,-2.43745E1,-5.759766E0,-2.474034E1,-4.4866634E1,-3.1785292E1,3.9487026E1,-3.9888832E1,2.1205504E0,-2.3995249E1,-2.231031E-1,3.9521328E1,3.953497E1,-2.1834188E1,-1.5113534E1,-4.7953922E1,-4.7740878E2,-2.0040222E1,1.3377985E2,5.8373238E1,7.005174E1,2.5999407E1,-2.8144295E1,3.8407146E1,-4.5283695E1,3.6696293E1,8.141211E1,2.7740412E1,-2.5635727E1,-1.1160388E2,2.8762989E1,-1.7019123E1,-1.9026804E1,-1.0498898E1,-6.6592374E0,-1.673508E1,-5.0345263E0,8.356902E0,-5.6446514E0,-1.2123667E1,-1.5675462E1,-8.45274E0,-6.028906E0,-1.4620017E1,3.1143239E0,2.4193424E1,-8.047056E0,-1.7538008E1,3.3035495E0,-4.848515E0,3.207206E-1,-1.7829052E1,2.0733716E0,-2.9245419E1,2.3324953E1,1.1230414E0,1.6777025E1,-4.9835486E0,-1.3704047E1,-4.4547772E0,-2.4867747E0,-1.0167445E1,-1.2108917E1,-2.2081598E1,-1.3055736E2,-4.0076865E2,-9.378845E0,1.884825E1,3.0684246E1,4.987519E1,2.1531633E1,9.488451E0,-1.0999978E1,2.1818146E1,-2.49895E1,8.5930605E0,-4.4693615E1,-7.6015854E0,1.725161E1,-8.17911E0,-2.1964497E1,-4.9048977E0,1.3395457E1,-8.102356E0,4.0067226E1,2.2693905E1,5.5040846E0,4.862013E1,-1.6136593E1,1.538071E0,-2.6273985E1,-7.25508E1,6.1926107E0,2.1124886E1,-5.57145E1,1.6619254E0],"categories":[],"categories_nodes":[],"categories_segments":[],"categories_sizes":[],"default_left":[0,0,0,0,0,0,0,0,0,0,0,0,0,0,0,0,0,0,0,0,0,0,0,0,0,0,0,0,0,0,0,0,0,0,0,0,0,0,0,0,0,0,0,0,0,0,0,0,0,0,0,0,0,0,0,0,0,0,0,0,0,0,0,0,0,0,0,0,0,0,0,0,0,0,0,0,0,0,0,0,0,0,0,0,0,0,0,0,0,0,0,0,0,0,0,0,0,0,0,0,0,0,0,0,0,0,0,0,0,0,0,0,0,0,0,0,0,0,0,0,0,0,0,0,0,0,0],"id":10,"left_children":[1,3,5,7,9,11,13,15,17,19,21,23,25,27,29,31,33,35,37,39,41,43,45,47,49,51,53,55,57,59,61,63,65,67,69,71,73,75,77,79,81,83,85,87,89,91,93,95,97,99,101,103,105,107,109,111,113,115,117,119,121,123,125,-1,-1,-1,-1,-1,-1,-1,-1,-1,-1,-1,-1,-1,-1,-1,-1,-1,-1,-1,-1,-1,-1,-1,-1,-1,-1,-1,-1,-1,-1,-1,-1,-1,-1,-1,-1,-1,-1,-1,-1,-1,-1,-1,-1,-1,-1,-1,-1,-1,-1,-1,-1,-1,-1,-1,-1,-1,-1,-1,-1,-1,-1,-1,-1],"loss_changes":[3.4287084E9,2.5546888E9,1.02328704E9,3.1623936E8,2.5004012E9,7.282916E8,4.1235674E8,2.191778E8,1.1062656E8,3.4377078E9,2.2767447E9,2.9566413E8,5.656562E8,4.2601088E8,1.1339689E9,1.0206285E8,1.6956048E8,7.207501E7,1.2008687E8,1.065013E9,2.335554E9,1.3182065E9,9.723297E8,7.72687E7,3.948347E8,3.6810944E8,6.885144E7,4.435673E8,9.243552E7,4.087349E8,5.318925E8,5.996493E7,2.8097024E7,4.0187357E8,7.720288E7,1.0756723E8,1.6128422E8,4.6350836E7,9.112656E6,7.502196E8,2.0960477E9,1.5959924E9,5.662065E9,1.079544E9,8.308605E7,9.048632E8,2.0124134E8,1.2937352E7,3.5405776E7,7.807245E7,2.7492173E8,6.394675E7,3.5822765E8,6.5391584E7,2.1207512E7,7.68375E7,1.0936659E8,4.834989E7,5.057977E7,4.2874474E8,1.9477402E8,3.6594458E8,1.2616795E9,0E0,0E0,0E0,0E0,0E0,0E0,0E0,0E0,0E0,0E0,0E0,0E0,0E0,0E0,0E0,0E0,0E0,0E0,0E0,0E0,0E0,0E0,0E0,0E0,0E0,0E0,0E0,0E0,0E0,0E0,0E0,0E0,0E0,0E0,0E0,0E0,0E0,0E0,0E0,0E0,0E0,0E0,0E0,0E0,0E0,0E0,0E0,0E0,0E0,0E0,0E0,0E0,0E0,0E0,0E0,0E0,0E0,0E0,0E0,0E0,0E0,0E0,0E0,0E0],"parents":[2147483647,0,0,1,1,2,2,3,3,4,4,5,5,6,6,7,7,8,8,9,9,10,10,11,11,12,12,13,13,14,14,15,15,16,16,17,17,18,18,19,19,20,20,21,21,22,22,23,23,24,24,25,25,26,26,27,27,28,28,29,29,30,30,31,31,32,32,33,33,34,34,35,35,36,36,37,37,38,38,39,39,40,40,41,41,42,42,43,43,44,44,45,45,46,46,47,47,48,48,49,49,50,50,51,51,52,52,53,53,54,54,55,55,56,56,57,57,58,58,59,59,60,60,61,61,62,62],"right_children":[2,4,6,8,10,12,14,16,18,20,22,24,26,28,30,32,34,36,38,40,42,44,46,48,50,52,54,56,58,60,62,64,66,68,70,72,74,76,78,80,82,84,86,88,90,92,94,96,98,100,102,104,106,108,110,112,114,116,118,120,122,124,126,-1,-1,-1,-1,-1,-1,-1,-1,-1,-1,-1,-1,-1,-1,-1,-1,-1,-1,-1,-1,-1,-1,-1,-1,-1,-1,-1,-1,-1,-1,-1,-1,-1,-1,-1,-1,-1,-1,-1,-1,-1,-1,-1,-1,-1,-1,-1,-1,-1,-1,-1,-1,-1,-1,-1,-1,-1,-1,-1,-1,-1,-1,-1,-1],"split_conditions":[3.3E0,3E0,-2.5881904E-1,6.234898E-1,-1.8369701E-16,-1.8369701E-16,7.4E1,9E0,3.1E1,4.3388373E-1,-7.818315E-1,2.5E1,1E0,4.3E1,1.4E2,2E0,-2.5881904E-1,2E0,-2.5881904E-1,2.5881904E-1,1.61E2,0E0,1E0,1.3E1,7E1,-7.818315E-1,8E0,4.39E0,8.660254E-1,1.37E2,2.44E2,6E0,9.659258E-1,1E0,1E0,2.3E1,2E1,1.44E0,5E-1,2.31E2,1E0,1.45E2,2.31E2,2.36E2,9E-1,-2.5881904E-1,8.660254E-1,9.55E0,6.9E0,4.12E0,1E0,1.2E1,2.5E1,2.5E1,2.31E2,-1.8369701E-16,4.2E1,4.5E1,9.55E0,9E1,2.62E2,6.4E0,2.46E2,-1.9026804E1,-1.0498898E1,-6.6592374E0,-1.673508E1,-5.0345263E0,8.356902E0,-5.6446514E0,-1.2123667E1,-1.5675462E1,-8.45274E0,-6.028906E0,-1.4620017E1,3.1143239E0,2.4193424E1,-8.047056E0,-1.7538008E1,3.3035495E0,-4.848515E0,3.207206E-1,-1.7829052E1,2.0733716E0,-2.9245419E1,2.3324953E1,1.1230414E0,1.6777025E1,-4.9835486E0,-1.3704047E1,-4.4547772E0,-2.4867747E0,-1.0167445E1,-1.2108917E1,-2.2081598E1,-1.3055736E2,-4.0076865E2,-9.378845E0,1.884825E1,3.0684246E1,4.987519E1,2.1531633E1,9.488451E0,-1.0999978E1,2.1818146E1,-2.49895E1,8.5930605E0,-4.4693615E1,-7.6015854E0,1.725161E1,-8.17911E0,-2.1964497E1,-4.9048977E0,1.3395457E1,-8.102356E0,4.0067226E1,2.2693905E1,5.5040846E0,4.862013E1,-1.6136593E1,1.538071E0,-2.6273985E1,-7.25508E1,6.1926107E0,2.1124886E1,-5.57145E1,1.6619254E0],"split_indices":[2,4,8,7,9,9,1,3,3,6,6,0,7,1,1,4,8,4,9,8,1,8,7,1,0,6,2,2,8,1,1,3,9,5,5,3,3,2,9,1,5,1,1,1,2,8,9,2,2,2,5,1,0,0,1,9,1,1,2,1,0,2,1,0,0,0,0,0,0,0,0,0,0,0,0,0,0,0,0,0,0,0,0,0,0,0,0,0,0,0,0,0,0,0,0,0,0,0,0,0,0,0,0,0,0,0,0,0,0,0,0,0,0,0,0,0,0,0,0,0,0,0,0,0,0,0,0],"split_type":[0,0,0,0,0,0,0,0,0,0,0,0,0,0,0,0,0,0,0,0,0,0,0,0,0,0,0,0,0,0,0,0,0,0,0,0,0,0,0,0,0,0,0,0,0,0,0,0,0,0,0,0,0,0,0,0,0,0,0,0,0,0,0,0,0,0,0,0,0,0,0,0,0,0,0,0,0,0,0,0,0,0,0,0,0,0,0,0,0,0,0,0,0,0,0,0,0,0,0,0,0,0,0,0,0,0,0,0,0,0,0,0,0,0,0,0,0,0,0,0,0,0,0,0,0,0,0],"sum_hessian":[3.2606864E7,2.7569096E7,5.037768E6,4.387318E6,2.3181778E7,2.555278E6,2.48249E6,2.62423E6,1.763088E6,1.3415023E7,9.766755E6,8.81973E5,1.673305E6,5.11813E5,1.970677E6,7.08144E5,1.916086E6,1.686834E6,7.6254E4,6.975244E6,6.439779E6,1.672044E6,8.094711E6,3.844E4,8.43533E5,1.463505E6,2.098E5,3.1088E5,2.00933E5,5.57312E5,1.413365E6,2.97226E5,4.10918E5,1.084629E6,8.31457E5,8.72696E5,8.14138E5,3.8692E4,3.7562E4,4.615235E6,2.360009E6,2.300038E6,4.139741E6,1.173213E6,4.98831E5,7.061187E6,1.033524E6,3.72E2,3.8068E4,7.6348E4,7.67185E5,2.2396E5,1.239545E6,1.92893E5,1.6907E4,9.5077E4,2.15803E5,1.60846E5,4.0087E4,4.95052E5,6.226E4,1.081833E6,3.31532E5,1.43292E5,1.53934E5,3.84284E5,2.6634E4,8.16814E5,2.67815E5,6.03357E5,2.281E5,6.05007E5,2.67689E5,4.81828E5,3.3231E5,2.2665E4,1.6027E4,2.2051E4,1.5511E4,3.105114E6,1.510121E6,1.382278E6,9.77731E5,2.142856E6,1.57182E5,2.001328E6,2.138413E6,9.0814E5,2.65073E5,1.13012E5,3.85819E5,5.179026E6,1.882161E6,7.97521E5,2.36003E5,3.56E2,1.6E1,3.3528E4,4.54E3,3.8756E4,3.7592E4,5.1112E5,2.56065E5,5.477E3,2.18483E5,2.9278E4,1.210267E6,4.376E3,1.88517E5,1.3098E4,3.809E3,4.8376E4,4.6701E4,1.91846E5,2.3957E4,1.6012E4,1.44834E5,3.7468E4,2.619E3,2.5849E5,2.36562E5,5.2565E4,9.695E3,9.05327E5,1.76506E5,3.9104E4,2.92428E5],"tree_param":{"num_deleted":"0","num_feature":"10","num_nodes":"127","size_leaf_vector":"1"}},{"base_weights":[-3.1947806E-5,-1.3115411E1,6.495063E0,-1.8906475E1,-2.8355243E0,1.0485036E-1,1.9787735E1,8.08829E0,-2.0595459E1,-1.6120876E1,8.964115E0,2.7879446E0,-2.7198936E1,2.799352E1,-3.020765E0,-6.58111E1,2.5929579E1,-3.154443E1,-1.5725523E1,-8.698941E0,-3.590473E1,1.5302372E1,-1.6960419E1,-2.1329693E1,6.215623E0,-1.7901402E1,-7.234553E1,4.581239E0,3.497135E1,2.448266E1,-3.372506E1,-2.3495181E2,-3.0831656E1,3.1235583E2,1.460036E1,-4.7914898E1,-2.3589724E1,7.8950734E0,-1.946754E1,-2.4185313E-1,-2.2336197E1,-2.6119898E1,-6.964663E1,3.1078352E1,-3.734971E0,-9.06837E0,-4.3488605E1,-3.6174633E1,-2.2162037E0,1.2151374E1,-1.1017556E1,-8.809462E0,-5.023948E1,-8.3371E1,-3.5325237E1,-9.585232E1,2.967159E1,4.4786392E1,1.48377285E1,3.2495777E1,-1.7979357E1,-6.4727776E1,-4.6354294E0,-6.432879E1,-8.773509E1,-1.5893264E1,-1.8487163E0,1.3777655E2,4.0887283E1,-1.1607309E1,1.5444897E1,-3.6323174E1,-1.1292845E1,3.6460186E1,-8.332489E0,8.6527214E1,-3.6163685E-1,-1.1279559E1,-4.8094864E0,8.381266E0,-2.0757365E0,-4.3257384E0,-1.15126295E1,-6.0229096E0,-1.516793E1,-3.0141623E1,-1.289298E1,3.012071E0,1.668291E1,-3.983942E0,6.5610056E0,5.5346256E-1,-1.0808062E1,-1.590979E1,-5.272743E0,-5.699591E0,-1.4556379E1,1.2839927E1,-1.8332032E0,7.393105E0,-3.1609634E-1,-1.0268809E1,-6.2613237E-1,-1.4100142E0,-1.7885096E1,-9.844057E0,-2.5658201E1,-3.3247986E1,-2.2424124E1,-1.3218804E1,4.0599337E0,-2.3010195E1,-5.7394E1,4.7138925E0,1.7533619E1,1.5369319E1,6.030305E-1,1.1329375E1,-1.8307029E0,6.52104E0,1.6606285E1,-2.0824818E1,1.4817069E0,-2.5423436E0,-2.503641E1,9.8708935E0,-1.3206021E1],"categories":[],"categories_nodes":[],"categories_segments":[],"categories_sizes":[],"default_left":[0,0,0,0,0,0,0,0,0,0,0,0,0,0,0,0,0,0,0,0,0,0,0,0,0,0,0,0,0,0,0,0,0,0,0,0,0,0,0,0,0,0,0,0,0,0,0,0,0,0,0,0,0,0,0,0,0,0,0,0,0,0,0,0,0,0,0,0,0,0,0,0,0,0,0,0,0,0,0,0,0,0,0,0,0,0,0,0,0,0,0,0,0,0,0,0,0,0,0,0,0,0,0,0,0,0,0,0,0,0,0,0,0,0,0,0,0,0,0,0,0,0,0,0,0,0,0],"id":11,"left_children":[1,3,5,7,9,11,13,15,17,19,21,23,25,27,29,31,33,35,37,39,41,43,45,47,49,51,53,55,57,59,61,63,65,67,69,71,73,75,77,79,81,83,85,87,89,91,93,95,97,99,101,103,105,107,109,111,113,115,117,119,121,123,125,-1,-1,-1,-1,-1,-1,-1,-1,-1,-1,-1,-1,-1,-1,-1,-1,-1,-1,-1,-1,-1,-1,-1,-1,-1,-1,-1,-1,-1,-1,-1,-1,-1,-1,-1,-1,-1,-1,-1,-1,-1,-1,-1,-1,-1,-1,-1,-1,-1,-1,-1,-1,-1,-1,-1,-1,-1,-1,-1,-1,-1,-1,-1,-1],"loss_changes":[2.7776364E9,6.429143E8,1.8523771E9,3.1496218E8,6.100498E8,1.0789075E9,1.3250898E9,5.363052E8,3.4665114E8,2.687855E8,3.3865987E8,1.1085414E9,5.531231E8,8.506035E8,1.5818783E9,4.680193E8,1.0632475E9,2.6063155E8,3.9773235E8,1.5352394E8,1.6487392E8,4.9738714E8,8.477081E7,4.7346483E8,1.2010058E9,3.2127338E8,9.184794E7,3.0125745E9,7.9266304E8,3.362085E8,7.982355E8,1.5933504E7,3.5811684E7,3.2238157E8,6.195241E8,4.9187302E8,8.1810605E8,1.5710397E9,2.4198618E8,1.545987E8,6.4701216E7,5.717829E7,9.228723E7,4.673913E8,1.8341587E8,9.181135E7,2.2959056E7,1.9917286E8,1.2788424E8,1.4406072E9,6.2352794E8,1.7807851E8,1.4745485E8,4.1046656E7,2.2046416E7,4.3686835E8,3.8418746E8,7.4339994E8,6.311213E8,2.0443034E8,1.8492234E8,4.5136333E8,6.751162E8,0E0,0E0,0E0,0E0,0E0,0E0,0E0,0E0,0E0,0E0,0E0,0E0,0E0,0E0,0E0,0E0,0E0,0E0,0E0,0E0,0E0,0E0,0E0,0E0,0E0,0E0,0E0,0E0,0E0,0E0,0E0,0E0,0E0,0E0,0E0,0E0,0E0,0E0,0E0,0E0,0E0,0E0,0E0,0E0,0E0,0E0,0E0,0E0,0E0,0E0,0E0,0E0,0E0,0E0,0E0,0E0,0E0,0E0,0E0,0E0,0E0,0E0,0E0,0E0],"parents":[2147483647,0,0,1,1,2,2,3,3,4,4,5,5,6,6,7,7,8,8,9,9,10,10,11,11,12,12,13,13,14,14,15,15,16,16,17,17,18,18,19,19,20,20,21,21,22,22,23,23,24,24,25,25,26,26,27,27,28,28,29,29,30,30,31,31,32,32,33,33,34,34,35,35,36,36,37,37,38,38,39,39,40,40,41,41,42,42,43,43,44,44,45,45,46,46,47,47,48,48,49,49,50,50,51,51,52,52,53,53,54,54,55,55,56,56,57,57,58,58,59,59,60,60,61,61,62,62],"right_children":[2,4,6,8,10,12,14,16,18,20,22,24,26,28,30,32,34,36,38,40,42,44,46,48,50,52,54,56,58,60,62,64,66,68,70,72,74,76,78,80,82,84,86,88,90,92,94,96,98,100,102,104,106,108,110,112,114,116,118,120,122,124,126,-1,-1,-1,-1,-1,-1,-1,-1,-1,-1,-1,-1,-1,-1,-1,-1,-1,-1,-1,-1,-1,-1,-1,-1,-1,-1,-1,-1,-1,-1,-1,-1,-1,-1,-1,-1,-1,-1,-1,-1,-1,-1,-1,-1,-1,-1,-1,-1,-1,-1,-1,-1,-1,-1,-1,-1,-1,-1,-1,-1,-1,-1,-1,-1],"split_conditions":[1.16E0,9E0,9E0,5E1,7.5E-1,8.660254E-1,2.2E1,5E1,1.44E2,2.5881904E-1,5E-1,2E0,1E0,6E0,1.1E1,1.8E-1,1.8E-1,1.4E2,1.07E2,6.234898E-1,-1.8369701E-16,-1.8369701E-16,1E0,1.9E1,7E0,7E0,5E-1,1E1,5E-1,1E0,2.7E1,7E0,4.5E1,4.3E1,4.5E1,2.7E-1,1.8E-1,1.8E-1,5E-1,1.8E-1,6.123234E-17,1E0,1E0,4.3388373E-1,1.2E1,-2.5881904E-1,2.34E2,0E0,2E1,-1.8369701E-16,1E1,2.5881904E-1,2.31E2,3E0,5.98E0,1E0,1.2E1,8.660254E-1,0E0,2.7E0,1E1,2.3E1,1.2E1,-6.432879E1,-8.773509E1,-1.5893264E1,-1.8487163E0,1.3777655E2,4.0887283E1,-1.1607309E1,1.5444897E1,-3.6323174E1,-1.1292845E1,3.6460186E1,-8.332489E0,8.6527214E1,-3.6163685E-1,-1.1279559E1,-4.8094864E0,8.381266E0,-2.0757365E0,-4.3257384E0,-1.15126295E1,-6.0229096E0,-1.516793E1,-3.0141623E1,-1.289298E1,3.012071E0,1.668291E1,-3.983942E0,6.5610056E0,5.5346256E-1,-1.0808062E1,-1.590979E1,-5.272743E0,-5.699591E0,-1.4556379E1,1.2839927E1,-1.8332032E0,7.393105E0,-3.1609634E-1,-1.0268809E1,-6.2613237E-1,-1.4100142E0,-1.7885096E1,-9.844057E0,-2.5658201E1,-3.3247986E1,-2.2424124E1,-1.3218804E1,4.0599337E0,-2.3010195E1,-5.7394E1,4.7138925E0,1.7533619E1,1.5369319E1,6.030305E-1,1.1329375E1,-1.8307029E0,6.52104E0,1.6606285E1,-2.0824818E1,1.4817069E0,-2.5423436E0,-2.503641E1,9.8708935E0,-1.3206021E1],"split_indices":[2,4,4,1,2,8,3,0,1,8,8,4,5,3,4,2,2,0,0,7,9,9,5,3,4,4,9,4,9,7,3,4,1,1,1,2,2,2,2,2,9,5,5,6,4,9,1,6,3,9,3,9,0,4,2,7,4,8,6,2,4,3,4,0,0,0,0,0,0,0,0,0,0,0,0,0,0,0,0,0,0,0,0,0,0,0,0,0,0,0,0,0,0,0,0,0,0,0,0,0,0,0,0,0,0,0,0,0,0,0,0,0,0,0,0,0,0,0,0,0,0,0,0,0,0,0,0],"split_type":[0,0,0,0,0,0,0,0,0,0,0,0,0,0,0,0,0,0,0,0,0,0,0,0,0,0,0,0,0,0,0,0,0,0,0,0,0,0,0,0,0,0,0,0,0,0,0,0,0,0,0,0,0,0,0,0,0,0,0,0,0,0,0,0,0,0,0,0,0,0,0,0,0,0,0,0,0,0,0,0,0,0,0,0,0,0,0,0,0,0,0,0,0,0,0,0,0,0,0,0,0,0,0,0,0,0,0,0,0,0,0,0,0,0,0,0,0,0,0,0,0,0,0,0,0,0,0],"sum_hessian":[3.2606864E7,1.0799569E7,2.1807296E7,6.908013E6,3.891556E6,1.4727376E7,7.079919E6,4.06764E5,6.501249E6,1.830535E6,2.061021E6,1.3409636E7,1.31774E6,5.206708E6,1.873211E6,7.9105E4,3.27659E5,2.001443E6,4.499806E6,1.331153E6,4.99382E5,1.656119E6,4.04902E5,1.668665E6,1.1740971E7,1.092708E6,2.25032E5,1.195505E6,4.011203E6,9.8811E5,8.85101E5,1.3555E4,6.555E4,1.2466E4,3.15193E5,6.54501E5,1.346942E6,6.15378E5,3.884428E6,8.21626E5,5.09527E5,3.87122E5,1.1226E5,9.05633E5,7.50486E5,3.12065E5,9.2837E4,9.39207E5,7.29458E5,8.733E6,3.007971E6,8.52911E5,2.39797E5,1.73391E5,5.1641E4,2.38963E5,9.56542E5,2.696615E6,1.314588E6,8.31244E5,1.56866E5,4.28461E5,4.5664E5,9.993E3,3.562E3,3.4541E4,3.1009E4,6.795E3,5.671E3,1.28919E5,1.86274E5,8.0578E4,5.73923E5,3.7755E4,1.309187E6,1.9335E4,5.96043E5,6.18844E5,3.265584E6,1.57393E5,6.64233E5,3.4114E5,1.68387E5,3.10374E5,7.6748E4,5.2072E4,6.0188E4,4.87529E5,4.18104E5,5.46694E5,2.03792E5,2.2214E5,8.9925E4,6.7847E4,2.499E4,3.92786E5,5.46421E5,5.8082E4,6.71376E5,4.487605E6,4.245395E6,8.35738E5,2.172233E6,7.89089E5,6.3822E4,1.60527E5,7.927E4,4.1442E4,1.31949E5,4.3807E4,7.834E3,1.99034E5,3.9929E4,6.44087E5,3.12455E5,2.343538E6,3.53077E5,6.27524E5,6.87064E5,5.65213E5,2.66031E5,4.835E4,1.08516E5,1.07012E5,3.21449E5,2.338E5,2.2284E5],"tree_param":{"num_deleted":"0","num_feature":"10","num_nodes":"127","size_leaf_vector":"1"}},{"base_weights":[-2.7424308E-5,-2.3472679E0,2.5432018E1,-5.1397335E1,-1.0362718E0,5.453856E1,1.788068E1,8.247914E1,-5.709164E1,3.5838966E1,-3.2963495E0,4.186246E1,9.002505E1,-9.000441E0,3.1943573E1,-2.5472466E2,2.9535257E2,-3.0252348E1,-6.984008E1,-2.0238384E1,5.437955E1,-2.9262144E1,-2.1258922E-1,4.4991955E1,-7.202494E1,1.3812518E2,7.320964E1,-1.9239433E1,2.6923265E1,1.3806686E2,2.7190475E1,-1.8507767E2,-3.6366953E2,4.1472656E2,1.8890254E2,-4.9005695E1,1.5661623E1,-2.7248877E2,-5.235627E1,-3.0256903E1,5.825893E1,-2.1810116E1,6.423304E1,2.1822486E0,-4.4028957E1,1.035501E2,-2.1596093E0,4.1975273E1,1.472867E2,-1.7099052E2,2.1408513E0,1.4612646E2,-4.2849514E1,4.712496E1,1.1371052E2,-3.1825016E1,3.507204E1,7.178932E1,-2.7108505E1,1.6395226E2,1.008849E2,3.7955883E1,1.2127058E1,-7.187708E1,-4.778887E1,-1.2622922E2,-9.120221E1,5.9712788E1,1.40309E2,-2.4849494E0,7.236872E1,-1.2634908E1,-3.5253063E1,-1.0933779E1,8.5939865E0,-9.621023E1,-6.2275616E1,3.2457013E0,-2.0855892E1,-2.657689E1,-6.5686173E0,-2.3755905E1,2.1416582E1,-7.126004E1,-1.0688674E0,2.3581661E1,-4.134853E-1,-1.9539217E1,5.376939E0,-3.241337E1,-5.5150356E0,3.688011E1,1.1572637E1,-7.6741414E0,4.794173E-2,1.8822971E1,7.561113E0,4.9105347E1,2.6099857E1,-7.391111E1,-3.778403E1,-1.6045547E1,1.1957038E1,2.5226986E1,4.9304676E1,9.395568E0,-8.3423355E1,4.2220917E0,3.1593035E1,6.2420063E1,3.1113878E1,9.778378E0,-1.2689116E1,2.28535E1,-1.4647319E1,2.0514915E0,2.6021046E1,-1.5320013E1,6.03705E0,5.329838E1,3.1482155E1,2.0054396E1,4.5027245E1,1.4575037E1,6.155661E0,4.0963044E0,-2.63064E1],"categories":[],"categories_nodes":[],"categories_segments":[],"categories_sizes":[],"default_left":[0,0,0,0,0,0,0,0,0,0,0,0,0,0,0,0,0,0,0,0,0,0,0,0,0,0,0,0,0,0,0,0,0,0,0,0,0,0,0,0,0,0,0,0,0,0,0,0,0,0,0,0,0,0,0,0,0,0,0,0,0,0,0,0,0,0,0,0,0,0,0,0,0,0,0,0,0,0,0,0,0,0,0,0,0,0,0,0,0,0,0,0,0,0,0,0,0,0,0,0,0,0,0,0,0,0,0,0,0,0,0,0,0,0,0,0,0,0,0,0,0,0,0,0,0,0,0],"id":12,"left_children":[1,3,5,7,9,11,13,15,17,19,21,23,25,27,29,31,33,35,37,39,41,43,45,47,49,51,53,55,57,59,61,63,65,67,69,71,73,75,77,79,81,83,85,87,89,91,93,95,97,99,101,103,105,107,109,111,113,115,117,119,121,123,125,-1,-1,-1,-1,-1,-1,-1,-1,-1,-1,-1,-1,-1,-1,-1,-1,-1,-1,-1,-1,-1,-1,-1,-1,-1,-1,-1,-1,-1,-1,-1,-1,-1,-1,-1,-1,-1,-1,-1,-1,-1,-1,-1,-1,-1,-1,-1,-1,-1,-1,-1,-1,-1,-1,-1,-1,-1,-1,-1,-1,-1,-1,-1,-1],"loss_changes":[1.9464709E9,1.9195978E9,6.0556326E8,5.924128E8,2.423105E9,2.55296E8,8.26973E8,2.275915E9,2.5504102E8,1.7457408E9,2.1936243E9,1.4904454E8,1.2080717E8,2.7637133E8,7.2445504E8,9.303366E7,2.4690202E8,2.0668586E8,1.7904906E9,3.2810294E8,9.4732646E8,1.3503649E9,4.947136E9,1.2558752E8,8.208938E7,5.603341E7,1.1692595E8,3.9967808E8,4.0400813E8,5.9241856E7,2.2292109E8,1.0484176E7,1.6168192E7,1.045696E8,1.0603014E8,8.042963E7,4.7101656E7,1.2552678E8,5.0443686E8,1.8045818E8,8.522122E7,5.688296E8,1.0536673E9,9.846669E8,3.2487316E9,5.680312E8,1.3057193E9,1.3769773E8,1.1510592E7,1.6236288E7,1.3416661E7,4.187411E7,2.8603412E7,1.2947096E8,4.0880576E7,3.2024346E8,3.793748E8,8.839674E7,8.555631E7,2.9345408E7,4.2317616E7,1.4856627E8,8.734711E7,0E0,0E0,0E0,0E0,0E0,0E0,0E0,0E0,0E0,0E0,0E0,0E0,0E0,0E0,0E0,0E0,0E0,0E0,0E0,0E0,0E0,0E0,0E0,0E0,0E0,0E0,0E0,0E0,0E0,0E0,0E0,0E0,0E0,0E0,0E0,0E0,0E0,0E0,0E0,0E0,0E0,0E0,0E0,0E0,0E0,0E0,0E0,0E0,0E0,0E0,0E0,0E0,0E0,0E0,0E0,0E0,0E0,0E0,0E0,0E0,0E0,0E0,0E0,0E0],"parents":[2147483647,0,0,1,1,2,2,3,3,4,4,5,5,6,6,7,7,8,8,9,9,10,10,11,11,12,12,13,13,14,14,15,15,16,16,17,17,18,18,19,19,20,20,21,21,22,22,23,23,24,24,25,25,26,26,27,27,28,28,29,29,30,30,31,31,32,32,33,33,34,34,35,35,36,36,37,37,38,38,39,39,40,40,41,41,42,42,43,43,44,44,45,45,46,46,47,47,48,48,49,49,50,50,51,51,52,52,53,53,54,54,55,55,56,56,57,57,58,58,59,59,60,60,61,61,62,62],"right_children":[2,4,6,8,10,12,14,16,18,20,22,24,26,28,30,32,34,36,38,40,42,44,46,48,50,52,54,56,58,60,62,64,66,68,70,72,74,76,78,80,82,84,86,88,90,92,94,96,98,100,102,104,106,108,110,112,114,116,118,120,122,124,126,-1,-1,-1,-1,-1,-1,-1,-1,-1,-1,-1,-1,-1,-1,-1,-1,-1,-1,-1,-1,-1,-1,-1,-1,-1,-1,-1,-1,-1,-1,-1,-1,-1,-1,-1,-1,-1,-1,-1,-1,-1,-1,-1,-1,-1,-1,-1,-1,-1,-1,-1,-1,-1,-1,-1,-1,-1,-1,-1,-1,-1,-1,-1,-1],"split_conditions":[4.39E0,4.3E1,7.4E1,1.8E-1,5.2E1,4.8E1,1.42E2,4.3E1,1.32E2,4.5E1,1E2,2.62E2,1.07E2,7.56E0,1.45E2,9E0,1.51E2,9E1,1.4E2,2.76E0,6.8E1,7.4E1,1.07E2,2.49E2,6.64E0,9.55E0,1.86E2,2.36E2,1.25E2,1.51E2,6.234898E-1,1.3E1,2.5E1,1.2E1,1.2E1,8.7E1,-7.0710677E-1,1.37E2,1.2E1,6.8E1,6.8E1,1.8E-1,2.38E2,7.5E1,7.9E1,5E-1,1.4E2,-2.5881904E-1,2.55E2,2.63E2,2.63E2,4.3E1,6.8E1,7.56E0,2.09E2,7E1,2.61E2,3E0,9.55E0,5E-1,1.44E2,0E0,2.65E2,-7.187708E1,-4.778887E1,-1.2622922E2,-9.120221E1,5.9712788E1,1.40309E2,-2.4849494E0,7.236872E1,-1.2634908E1,-3.5253063E1,-1.0933779E1,8.5939865E0,-9.621023E1,-6.2275616E1,3.2457013E0,-2.0855892E1,-2.657689E1,-6.5686173E0,-2.3755905E1,2.1416582E1,-7.126004E1,-1.0688674E0,2.3581661E1,-4.134853E-1,-1.9539217E1,5.376939E0,-3.241337E1,-5.5150356E0,3.688011E1,1.1572637E1,-7.6741414E0,4.794173E-2,1.8822971E1,7.561113E0,4.9105347E1,2.6099857E1,-7.391111E1,-3.778403E1,-1.6045547E1,1.1957038E1,2.5226986E1,4.9304676E1,9.395568E0,-8.3423355E1,4.2220917E0,3.1593035E1,6.2420063E1,3.1113878E1,9.778378E0,-1.2689116E1,2.28535E1,-1.4647319E1,2.0514915E0,2.6021046E1,-1.5320013E1,6.03705E0,5.329838E1,3.1482155E1,2.0054396E1,4.5027245E1,1.4575037E1,6.155661E0,4.0963044E0,-2.63064E1],"split_indices":[2,1,1,2,1,1,1,0,0,1,1,0,0,2,1,4,0,0,0,2,0,1,1,0,2,2,0,0,1,0,7,0,0,1,1,0,9,0,1,0,0,2,0,0,1,8,1,8,0,0,0,0,1,2,0,0,0,4,2,8,1,8,1,0,0,0,0,0,0,0,0,0,0,0,0,0,0,0,0,0,0,0,0,0,0,0,0,0,0,0,0,0,0,0,0,0,0,0,0,0,0,0,0,0,0,0,0,0,0,0,0,0,0,0,0,0,0,0,0,0,0,0,0,0,0,0,0],"split_type":[0,0,0,0,0,0,0,0,0,0,0,0,0,0,0,0,0,0,0,0,0,0,0,0,0,0,0,0,0,0,0,0,0,0,0,0,0,0,0,0,0,0,0,0,0,0,0,0,0,0,0,0,0,0,0,0,0,0,0,0,0,0,0,0,0,0,0,0,0,0,0,0,0,0,0,0,0,0,0,0,0,0,0,0,0,0,0,0,0,0,0,0,0,0,0,0,0,0,0,0,0,0,0,0,0,0,0,0,0,0,0,0,0,0,0,0,0,0,0,0,0,0,0,0,0,0,0],"sum_hessian":[3.2606864E7,2.9851712E7,2.755151E6,7.77097E5,2.9074616E7,5.67546E5,2.187605E6,3.1704E4,7.45393E5,1.679068E6,2.7395548E7,4.18173E5,1.49373E5,7.51369E5,1.436236E6,1.2269E4,1.9435E4,2.4004E5,5.05353E5,4.17204E5,1.261864E6,2.908178E6,2.448737E7,4.0699E5,1.1183E4,3.8691E4,1.10682E5,5.84714E5,1.66655E5,6.1568E4,1.374668E6,7.486E3,4.783E3,9.16E3,1.0275E4,1.70429E5,6.9611E4,4.0136E4,4.65217E5,3.69984E5,4.722E4,1.44506E5,1.117358E6,9.2931E5,1.978868E6,4.51021E5,2.4036348E7,3.95333E5,1.1657E4,4.79E3,6.393E3,3.7053E4,1.638E3,6.7324E4,4.3358E4,4.7471E5,1.10004E5,9.105E4,7.5605E4,3.6296E4,2.5272E4,8.01708E5,5.7296E5,2.401E3,5.085E3,2.441E3,2.342E3,1.807E3,7.353E3,2.155E3,8.12E3,1.54857E5,1.5572E4,1.3886E4,5.5725E4,2.3027E4,1.7109E4,9.9388E4,3.65829E5,4.6384E4,3.236E5,4.117E3,4.3103E4,1.1269E4,1.33237E5,9.16577E5,2.00781E5,1.76128E5,7.53182E5,5.66009E5,1.412859E6,3.47386E5,1.03635E5,2.165876E6,2.1870472E7,1.76622E5,2.18711E5,9.163E3,2.494E3,1.79E3,3E3,2.583E3,3.81E3,8.414E3,2.8639E4,1.246E3,3.92E2,4.2936E4,2.4388E4,4.152E3,3.9206E4,6.6378E4,4.08332E5,7.383E4,3.6174E4,1.7034E4,7.4016E4,5.0161E4,2.5444E4,2.9452E4,6.844E3,1.494E4,1.0332E4,4.98114E5,3.03594E5,5.64326E5,8.634E3],"tree_param":{"num_deleted":"0","num_feature":"10","num_nodes":"127","size_leaf_vector":"1"}},{"base_weights":[-1.757396E-5,5.844942E0,-9.080321E0,9.916414E0,-1.0910654E1,-1.4344179E1,-1.1149405E-1,1.6018736E1,-4.2013154E0,1.5660648E1,-1.394126E1,-1.6043715E1,2.7604824E1,1.2307985E1,-1.2058396E1,1.137201E1,8.527361E1,-9.11013E0,2.335794E1,-3.2718685E0,7.766384E1,-2.167714E1,-3.6109593E0,6.255063E0,-1.8668798E1,-6.927988E1,5.0506973E1,-1.1450826E1,1.9668085E1,-4.830124E0,-3.6888523E1,1.445734E1,-2.9100086E1,1.2752735E2,9.548986E0,-1.1069284E1,5.058071E1,-1.3731418E2,3.5998325E1,8.721105E0,-7.9015656E1,1.16626335E2,7.643083E0,-1.6576838E1,-3.283199E1,-2.6532522E1,4.065756E0,-1.1543211E1,5.261267E1,-3.3775433E1,-1.2138384E1,-5.4991703E1,-9.998905E1,3.1979618E1,7.4277336E1,-5.9539956E-1,-4.2001675E1,4.339295E1,4.6824746E0,-2.2532297E1,3.5943527E0,-4.3123703E1,2.5274315E0,1.1491824E0,1.2185224E1,2.237555E1,-1.1106048E1,4.175276E1,2.537314E-1,-6.0647097E0,2.6120436E1,-1.6699443E0,-1.4299972E1,1.6025528E1,-6.471871E1,-3.7763676E1,-8.928056E1,1.6691746E1,2.9661865E0,-8.247885E0,5.88231E0,-3.423599E1,4.969241E0,1.3122548E1,4.2445435E1,-1.8511282E1,7.822016E0,-1.06585455E1,-2.538615E0,-6.021095E0,-1.2320073E1,-1.0241526E1,5.441015E0,7.582462E0,-5.540764E0,-3.971085E-1,-1.8512356E1,2.8340948E-1,1.9506641E1,-6.4226465E0,-1.4095935E1,5.0330436E-1,-6.5932393E0,-1.46302395E1,-2.22882E1,-3.6741096E1,-1.829976E1,1.487616E1,3.7034729E0,2.4190027E1,2.222407E0,-3.8197653E0,3.343454E1,-1.8524305E1,-1.5064535E0,3.314461E0,2.118096E1,-4.3567875E1,2.2258193E0,-2.0416916E1,-5.2178464E0,-2.1394644E0,6.2498436E0,-1.1592062E1,-2.285271E1,9.373579E0,-3.047465E0],"categories":[],"categories_nodes":[],"categories_segments":[],"categories_sizes":[],"default_left":[0,0,0,0,0,0,0,0,0,0,0,0,0,0,0,0,0,0,0,0,0,0,0,0,0,0,0,0,0,0,0,0,0,0,0,0,0,0,0,0,0,0,0,0,0,0,0,0,0,0,0,0,0,0,0,0,0,0,0,0,0,0,0,0,0,0,0,0,0,0,0,0,0,0,0,0,0,0,0,0,0,0,0,0,0,0,0,0,0,0,0,0,0,0,0,0,0,0,0,0,0,0,0,0,0,0,0,0,0,0,0,0,0,0,0,0,0,0,0,0,0,0,0,0,0,0,0],"id":13,"left_children":[1,3,5,7,9,11,13,15,17,19,21,23,25,27,29,31,33,35,37,39,41,43,45,47,49,51,53,55,57,59,61,63,65,67,69,71,73,75,77,79,81,83,85,87,89,91,93,95,97,99,101,103,105,107,109,111,113,115,117,119,121,123,125,-1,-1,-1,-1,-1,-1,-1,-1,-1,-1,-1,-1,-1,-1,-1,-1,-1,-1,-1,-1,-1,-1,-1,-1,-1,-1,-1,-1,-1,-1,-1,-1,-1,-1,-1,-1,-1,-1,-1,-1,-1,-1,-1,-1,-1,-1,-1,-1,-1,-1,-1,-1,-1,-1,-1,-1,-1,-1,-1,-1,-1,-1,-1,-1],"loss_changes":[1.730577E9,1.3533148E9,6.0284896E8,1.3749254E9,3.1228666E8,5.736799E8,7.0072045E8,3.5859082E9,6.51593E8,4.6606205E8,2.781804E8,4.5268224E8,6.952037E8,4.0491056E8,4.320279E8,1.303935E9,2.2417997E9,4.7810147E8,1.478954E9,2.7629392E8,2.5337363E8,1.1324218E8,2.6228146E8,6.720425E8,6.8256384E8,2.6278624E7,1.1160032E8,1.8162694E8,6.2853395E8,2.7803882E8,1.3338662E8,2.6973071E9,6.074157E8,6.636114E8,5.789899E8,7.9716966E8,9.819421E7,9.731136E7,3.4621568E8,1.035225E8,1.3950022E8,1.0810362E8,4.2439396E7,2.1006202E8,6.563213E7,1.270537E8,5.336729E8,3.0172448E8,1.4488166E8,3.411643E8,6.5666477E8,4.908264E6,1.6664352E7,4.9234384E7,4.7177024E7,5.495085E8,1.0484261E8,6.0232704E8,4.445463E8,1.4065386E8,2.3356696E8,6.943968E7,2.7006194E7,0E0,0E0,0E0,0E0,0E0,0E0,0E0,0E0,0E0,0E0,0E0,0E0,0E0,0E0,0E0,0E0,0E0,0E0,0E0,0E0,0E0,0E0,0E0,0E0,0E0,0E0,0E0,0E0,0E0,0E0,0E0,0E0,0E0,0E0,0E0,0E0,0E0,0E0,0E0,0E0,0E0,0E0,0E0,0E0,0E0,0E0,0E0,0E0,0E0,0E0,0E0,0E0,0E0,0E0,0E0,0E0,0E0,0E0,0E0,0E0,0E0,0E0,0E0,0E0],"parents":[2147483647,0,0,1,1,2,2,3,3,4,4,5,5,6,6,7,7,8,8,9,9,10,10,11,11,12,12,13,13,14,14,15,15,16,16,17,17,18,18,19,19,20,20,21,21,22,22,23,23,24,24,25,25,26,26,27,27,28,28,29,29,30,30,31,31,32,32,33,33,34,34,35,35,36,36,37,37,38,38,39,39,40,40,41,41,42,42,43,43,44,44,45,45,46,46,47,47,48,48,49,49,50,50,51,51,52,52,53,53,54,54,55,55,56,56,57,57,58,58,59,59,60,60,61,61,62,62],